<?xml version="1.0"?>
<opencv_storage>
<cascade>
  <stageType>BOOST</stageType>
  <featureType>HAAR</featureType>
  <height>24</height>
  <width>24</width>
  <stageParams>
    <boostType>GAB</boostType>
    <minHitRate>9.9500000476837158e-01</minHitRate>
    <maxFalseAlarm>5.0000000000000000e-01</maxFalseAlarm>
    <weightTrimRate>9.4999998807907104e-01</weightTrimRate>
    <maxDepth>1</maxDepth>
    <maxWeakCount>100</maxWeakCount></stageParams>
  <featureParams>
    <maxCatCount>0</maxCatCount>
    <featSize>1</featSize>
    <mode>BASIC</mode></featureParams>
  <stageNum>20</stageNum>
  <stages>
    <!-- stage 0 -->
    <_>
      <maxWeakCount>2</maxWeakCount>
      <stageThreshold>2.7030924335122108e-02</stageThreshold>
      <weakClassifiers>
        <_>
          <internalNodes>
            0 -1 30 1.2983370572328568e-02</internalNodes>
          <leafValues>
            -5.8823531866073608e-01 9.4545453786849976e-01</leafValues></_>
        <_>
          <internalNodes>
            0 -1 21 -3.0337538570165634e-02</internalNodes>
          <leafValues>
            8.4639072418212891e-01 -9.1842359304428101e-01</leafValues></_></weakClassifiers></_>
    <!-- stage 1 -->
    <_>
      <maxWeakCount>2</maxWeakCount>
      <stageThreshold>4.0266435593366623e-02</stageThreshold>
      <weakClassifiers>
        <_>
          <internalNodes>
            0 -1 42 9.9739154393319041e-05</internalNodes>
          <leafValues>
            9.1525423526763916e-01 -9.2307692766189575e-01</leafValues></_>
        <_>
          <internalNodes>
            0 -1 15 8.8167078793048859e-03</internalNodes>
          <leafValues>
            -6.1197543144226074e-01 9.6334338188171387e-01</leafValues></_></weakClassifiers></_>
    <!-- stage 2 -->
    <_>
      <maxWeakCount>2</maxWeakCount>
      <stageThreshold>6.8435452878475189e-02</stageThreshold>
      <weakClassifiers>
        <_>
          <internalNodes>
            0 -1 8 -8.7946876883506775e-03</internalNodes>
          <leafValues>
            8.9565217494964600e-01 -6.5517240762710571e-01</leafValues></_>
        <_>
          <internalNodes>
            0 -1 49 3.9601282333023846e-04</internalNodes>
          <leafValues>
            7.2360789775848389e-01 -1.</leafValues></_></weakClassifiers></_>
    <!-- stage 3 -->
    <_>
      <maxWeakCount>2</maxWeakCount>
      <stageThreshold>1.6549685969948769e-02</stageThreshold>
      <weakClassifiers>
        <_>
          <internalNodes>
            0 -1 6 -2.3272603284567595e-03</internalNodes>
          <leafValues>
            9.4736844301223755e-01 -8.0000001192092896e-01</leafValues></_>
        <_>
          <internalNodes>
            0 -1 23 4.5165579649619758e-04</internalNodes>
          <leafValues>
            8.1654965877532959e-01 -9.0121722221374512e-01</leafValues></_></weakClassifiers></_>
    <!-- stage 4 -->
    <_>
      <maxWeakCount>2</maxWeakCount>
      <stageThreshold>3.0268523097038269e-01</stageThreshold>
      <weakClassifiers>
        <_>
          <internalNodes>
            0 -1 22 -6.4768701791763306e-02</internalNodes>
          <leafValues>
            9.2857140302658081e-01 -6.2500000000000000e-01</leafValues></_>
        <_>
          <internalNodes>
            0 -1 14 7.3216482996940613e-03</internalNodes>
          <leafValues>
            -6.2588620185852051e-01 1.</leafValues></_></weakClassifiers></_>
    <!-- stage 5 -->
    <_>
      <maxWeakCount>2</maxWeakCount>
      <stageThreshold>1.9293704628944397e-01</stageThreshold>
      <weakClassifiers>
        <_>
          <internalNodes>
            0 -1 2 -1.7410592734813690e-01</internalNodes>
          <leafValues>
            9.0990990400314331e-01 -5.1515150070190430e-01</leafValues></_>
        <_>
          <internalNodes>
            0 -1 39 4.8826786223798990e-04</internalNodes>
          <leafValues>
            -7.1697288751602173e-01 8.1400746107101440e-01</leafValues></_></weakClassifiers></_>
    <!-- stage 6 -->
    <_>
      <maxWeakCount>3</maxWeakCount>
      <stageThreshold>5.2267479896545410e-01</stageThreshold>
      <weakClassifiers>
        <_>
          <internalNodes>
            0 -1 45 -3.2965565333142877e-04</internalNodes>
          <leafValues>
            -9.0476191043853760e-01 8.3739835023880005e-01</leafValues></_>
        <_>
          <internalNodes>
            0 -1 7 -6.7628745455294847e-05</internalNodes>
          <leafValues>
            7.6943904161453247e-01 -8.1068956851959229e-01</leafValues></_>
        <_>
          <internalNodes>
            0 -1 35 4.0867617353796959e-03</internalNodes>
          <leafValues>
            -9.1120302677154541e-01 6.5799766778945923e-01</leafValues></_></weakClassifiers></_>
    <!-- stage 7 -->
    <_>
      <maxWeakCount>2</maxWeakCount>
      <stageThreshold>2.1525366604328156e-01</stageThreshold>
      <weakClassifiers>
        <_>
          <internalNodes>
            0 -1 11 -3.5326683428138494e-04</internalNodes>
          <leafValues>
            9.1228067874908447e-01 -6.6666668653488159e-01</leafValues></_>
        <_>
          <internalNodes>
            0 -1 47 1.1129812264698558e-05</internalNodes>
          <leafValues>
            -6.6812533140182495e-01 8.8192033767700195e-01</leafValues></_></weakClassifiers></_>
    <!-- stage 8 -->
    <_>
      <maxWeakCount>3</maxWeakCount>
      <stageThreshold>7.0341515541076660e-01</stageThreshold>
      <weakClassifiers>
        <_>
          <internalNodes>
            0 -1 24 -2.9921549139544368e-04</internalNodes>
          <leafValues>
            -6.5217393636703491e-01 8.1818181276321411e-01</leafValues></_>
        <_>
          <internalNodes>
            0 -1 32 2.6903098914772272e-03</internalNodes>
          <leafValues>
            -7.7885580062866211e-01 7.8234583139419556e-01</leafValues></_>
        <_>
          <internalNodes>
            0 -1 43 1.4983759319875389e-04</internalNodes>
          <leafValues>
            6.6408914327621460e-01 -8.9061641693115234e-01</leafValues></_></weakClassifiers></_>
    <!-- stage 9 -->
    <_>
      <maxWeakCount>5</maxWeakCount>
      <stageThreshold>-5.2966469526290894e-01</stageThreshold>
      <weakClassifiers>
        <_>
          <internalNodes>
            0 -1 10 -2.0116522908210754e-02</internalNodes>
          <leafValues>
            8.3471071720123291e-01 -7.3913043737411499e-01</leafValues></_>
        <_>
          <internalNodes>
            0 -1 19 8.6335559899453074e-05</internalNodes>
          <leafValues>
            7.1467125415802002e-01 -9.6388822793960571e-01</leafValues></_>
        <_>
          <internalNodes>
            0 -1 9 -3.7185523658990860e-02</internalNodes>
          <leafValues>
            7.9382675886154175e-01 -6.7217332124710083e-01</leafValues></_>
        <_>
          <internalNodes>
            0 -1 25 -2.7579950256040320e-05</internalNodes>
          <leafValues>
            8.3181494474411011e-01 -6.1324512958526611e-01</leafValues></_>
        <_>
          <internalNodes>
            0 -1 12 1.0016320738941431e-03</internalNodes>
          <leafValues>
            -7.1001338958740234e-01 7.8021299839019775e-01</leafValues></_></weakClassifiers></_>
    <!-- stage 10 -->
    <_>
      <maxWeakCount>1</maxWeakCount>
      <stageThreshold>7.8125000000000000e-01</stageThreshold>
      <weakClassifiers>
        <_>
          <internalNodes>
            0 -1 46 1.0733930685091764e-04</internalNodes>
          <leafValues>
            7.8125000000000000e-01 -1.</leafValues></_></weakClassifiers></_>
    <!-- stage 11 -->
    <_>
      <maxWeakCount>3</maxWeakCount>
      <stageThreshold>6.9241833686828613e-01</stageThreshold>
      <weakClassifiers>
        <_>
          <internalNodes>
            0 -1 33 6.5002679824829102e-02</internalNodes>
          <leafValues>
            -8.4615385532379150e-01 8.9830505847930908e-01</leafValues></_>
        <_>
          <internalNodes>
            0 -1 5 -1.3607319851871580e-04</internalNodes>
          <leafValues>
            -8.1047660112380981e-01 7.9270780086517334e-01</leafValues></_>
        <_>
          <internalNodes>
            0 -1 38 5.4789014393463731e-04</internalNodes>
          <leafValues>
            -8.6130118370056152e-01 7.4586439132690430e-01</leafValues></_></weakClassifiers></_>
    <!-- stage 12 -->
    <_>
      <maxWeakCount>4</maxWeakCount>
      <stageThreshold>2.3208874464035034e-01</stageThreshold>
      <weakClassifiers>
        <_>
          <internalNodes>
            0 -1 3 7.1514677256345749e-03</internalNodes>
          <leafValues>
            7.5384616851806641e-01 -1.</leafValues></_>
        <_>
          <internalNodes>
            0 -1 16 -2.5497522205114365e-02</internalNodes>
          <leafValues>
            8.6118584871292114e-01 -5.5259215831756592e-01</leafValues></_>
        <_>
          <internalNodes>
            0 -1 51 -1.3078893971396610e-05</internalNodes>
          <leafValues>
            7.5605165958404541e-01 -6.6620522737503052e-01</leafValues></_>
        <_>
          <internalNodes>
            0 -1 31 6.4821927808225155e-03</internalNodes>
          <leafValues>
            6.9730001688003540e-01 -7.1673798561096191e-01</leafValues></_></weakClassifiers></_>
    <!-- stage 13 -->
    <_>
      <maxWeakCount>3</maxWeakCount>
      <stageThreshold>-2.2194001078605652e-01</stageThreshold>
      <weakClassifiers>
        <_>
          <internalNodes>
            0 -1 41 2.4804042186588049e-04</internalNodes>
          <leafValues>
            7.7952754497528076e-01 -8.8235294818878174e-01</leafValues></_>
        <_>
          <internalNodes>
            0 -1 28 9.3579699750989676e-04</internalNodes>
          <leafValues>
            -4.6863016486167908e-01 9.2311030626296997e-01</leafValues></_>
        <_>
          <internalNodes>
            0 -1 48 1.2067821444361471e-05</internalNodes>
          <leafValues>
            -5.3283745050430298e-01 8.5023427009582520e-01</leafValues></_></weakClassifiers></_>
    <!-- stage 14 -->
    <_>
      <maxWeakCount>4</maxWeakCount>
      <stageThreshold>3.5482338070869446e-01</stageThreshold>
      <weakClassifiers>
        <_>
          <internalNodes>
            0 -1 17 -2.4886702885851264e-04</internalNodes>
          <leafValues>
            8.5714286565780640e-01 -3.7500000000000000e-01</leafValues></_>
        <_>
          <internalNodes>
            0 -1 34 1.3006256194785237e-03</internalNodes>
          <leafValues>
            -7.0718902349472046e-01 7.1009039878845215e-01</leafValues></_>
        <_>
          <internalNodes>
            0 -1 26 2.3002666421234608e-03</internalNodes>
          <leafValues>
            -4.8691540956497192e-01 9.4704294204711914e-01</leafValues></_>
        <_>
          <internalNodes>
            0 -1 18 -8.9001609012484550e-04</internalNodes>
          <leafValues>
            -7.2549444437026978e-01 7.3764318227767944e-01</leafValues></_></weakClassifiers></_>
    <!-- stage 15 -->
    <_>
      <maxWeakCount>1</maxWeakCount>
      <stageThreshold>7.8125000000000000e-01</stageThreshold>
      <weakClassifiers>
        <_>
          <internalNodes>
            0 -1 0 9.3184899014886469e-05</internalNodes>
          <leafValues>
            7.8125000000000000e-01 -1.</leafValues></_></weakClassifiers></_>
    <!-- stage 16 -->
    <_>
      <maxWeakCount>2</maxWeakCount>
      <stageThreshold>3.2034426927566528e-01</stageThreshold>
      <weakClassifiers>
        <_>
          <internalNodes>
            0 -1 50 1.1038203410862479e-05</internalNodes>
          <leafValues>
            -4.7058823704719543e-01 9.0909093618392944e-01</leafValues></_>
        <_>
          <internalNodes>
            0 -1 27 -7.4312509968876839e-04</internalNodes>
          <leafValues>
            8.8300275802612305e-01 -5.8874666690826416e-01</leafValues></_></weakClassifiers></_>
    <!-- stage 17 -->
    <_>
      <maxWeakCount>1</maxWeakCount>
      <stageThreshold>7.6744186878204346e-01</stageThreshold>
      <weakClassifiers>
        <_>
          <internalNodes>
            0 -1 4 3.5159392282366753e-03</internalNodes>
          <leafValues>
            7.6744186878204346e-01 -1.</leafValues></_></weakClassifiers></_>
    <!-- stage 18 -->
    <_>
      <maxWeakCount>4</maxWeakCount>
      <stageThreshold>4.1756111383438110e-01</stageThreshold>
      <weakClassifiers>
        <_>
          <internalNodes>
            0 -1 1 -1.4717230806127191e-03</internalNodes>
          <leafValues>
            -7.1428573131561279e-01 8.0487805604934692e-01</leafValues></_>
        <_>
          <internalNodes>
            0 -1 44 6.5850799728650600e-05</internalNodes>
          <leafValues>
            -4.5813414454460144e-01 9.1335386037826538e-01</leafValues></_>
        <_>
          <internalNodes>
            0 -1 13 -1.9730534404516220e-02</internalNodes>
          <leafValues>
            8.6034321784973145e-01 -4.1227132081985474e-01</leafValues></_>
        <_>
          <internalNodes>
            0 -1 40 5.6672321079531685e-05</internalNodes>
          <leafValues>
            6.3076430559158325e-01 -7.7309614419937134e-01</leafValues></_></weakClassifiers></_>
    <!-- stage 19 -->
    <_>
      <maxWeakCount>4</maxWeakCount>
      <stageThreshold>3.0266973376274109e-01</stageThreshold>
      <weakClassifiers>
        <_>
          <internalNodes>
            0 -1 20 2.9275957494974136e-03</internalNodes>
          <leafValues>
            8.0487805604934692e-01 -7.1428573131561279e-01</leafValues></_>
        <_>
          <internalNodes>
            0 -1 36 6.2441104091703892e-05</internalNodes>
          <leafValues>
            -5.4286563396453857e-01 8.9879560470581055e-01</leafValues></_>
        <_>
          <internalNodes>
            0 -1 29 1.2092234101146460e-03</internalNodes>
          <leafValues>
            -5.2085936069488525e-01 7.1068036556243896e-01</leafValues></_>
        <_>
          <internalNodes>
            0 -1 37 -9.1067544417455792e-05</internalNodes>
          <leafValues>
            7.4670696258544922e-01 -5.9252047538757324e-01</leafValues></_></weakClassifiers></_></stages>
  <features>
    <_>
      <rects>
        <_>
          0 0 3 2 -1.</_>
        <_>
          1 0 1 2 3.</_></rects>
      <tilted>0</tilted></_>
    <_>
      <rects>
        <_>
          0 0 2 18 -1.</_>
        <_>
          0 6 2 6 3.</_></rects>
      <tilted>0</tilted></_>
    <_>
      <rects>
        <_>
          0 0 24 9 -1.</_>
        <_>
          8 0 8 9 3.</_></rects>
      <tilted>0</tilted></_>
    <_>
      <rects>
        <_>
          0 1 6 9 -1.</_>
        <_>
          3 1 3 9 2.</_></rects>
      <tilted>0</tilted></_>
    <_>
      <rects>
        <_>
          0 2 1 18 -1.</_>
        <_>
          0 8 1 6 3.</_></rects>
      <tilted>0</tilted></_>
    <_>
      <rects>
        <_>
          0 3 6 1 -1.</_>
        <_>
          2 3 2 1 3.</_></rects>
      <tilted>0</tilted></_>
    <_>
      <rects>
        <_>
          0 3 8 20 -1.</_>
        <_>
          4 3 4 20 2.</_></rects>
      <tilted>0</tilted></_>
    <_>
      <rects>
        <_>
          0 6 8 2 -1.</_>
        <_>
          0 7 8 1 2.</_></rects>
      <tilted>0</tilted></_>
    <_>
      <rects>
        <_>
          0 11 10 9 -1.</_>
        <_>
          5 11 5 9 2.</_></rects>
      <tilted>0</tilted></_>
    <_>
      <rects>
        <_>
          0 13 15 9 -1.</_>
        <_>
          5 13 5 9 3.</_></rects>
      <tilted>0</tilted></_>
    <_>
      <rects>
        <_>
          0 19 21 5 -1.</_>
        <_>
          7 19 7 5 3.</_></rects>
      <tilted>0</tilted></_>
    <_>
      <rects>
        <_>
          0 20 10 1 -1.</_>
        <_>
          5 20 5 1 2.</_></rects>
      <tilted>0</tilted></_>
    <_>
      <rects>
        <_>
          0 22 21 2 -1.</_>
        <_>
          0 23 21 1 2.</_></rects>
      <tilted>0</tilted></_>
    <_>
      <rects>
        <_>
          1 0 6 20 -1.</_>
        <_>
          1 0 3 10 2.</_>
        <_>
          4 10 3 10 2.</_></rects>
      <tilted>0</tilted></_>
    <_>
      <rects>
        <_>
          1 1 16 6 -1.</_>
        <_>
          1 3 16 2 3.</_></rects>
      <tilted>0</tilted></_>
    <_>
      <rects>
        <_>
          1 1 17 9 -1.</_>
        <_>
          1 4 17 3 3.</_></rects>
      <tilted>0</tilted></_>
    <_>
      <rects>
        <_>
          1 5 13 15 -1.</_>
        <_>
          1 10 13 5 3.</_></rects>
      <tilted>0</tilted></_>
    <_>
      <rects>
        <_>
          1 7 6 2 -1.</_>
        <_>
          1 8 6 1 2.</_></rects>
      <tilted>0</tilted></_>
    <_>
      <rects>
        <_>
          1 12 4 10 -1.</_>
        <_>
          1 12 2 5 2.</_>
        <_>
          3 17 2 5 2.</_></rects>
      <tilted>0</tilted></_>
    <_>
      <rects>
        <_>
          2 1 1 2 -1.</_>
        <_>
          2 2 1 1 2.</_></rects>
      <tilted>0</tilted></_>
    <_>
      <rects>
        <_>
          2 6 2 15 -1.</_>
        <_>
          2 11 2 5 3.</_></rects>
      <tilted>0</tilted></_>
    <_>
      <rects>
        <_>
          3 0 18 8 -1.</_>
        <_>
          9 0 6 8 3.</_></rects>
      <tilted>0</tilted></_>
    <_>
      <rects>
        <_>
          3 2 16 20 -1.</_>
        <_>
          3 12 16 10 2.</_></rects>
      <tilted>0</tilted></_>
    <_>
      <rects>
        <_>
          3 9 2 3 -1.</_>
        <_>
          4 9 1 3 2.</_></rects>
      <tilted>0</tilted></_>
    <_>
      <rects>
        <_>
          4 1 3 4 -1.</_>
        <_>
          5 1 1 4 3.</_></rects>
      <tilted>0</tilted></_>
    <_>
      <rects>
        <_>
          5 4 4 4 -1.</_>
        <_>
          5 4 2 2 2.</_>
        <_>
          7 6 2 2 2.</_></rects>
      <tilted>0</tilted></_>
    <_>
      <rects>
        <_>
          6 22 17 2 -1.</_>
        <_>
          6 23 17 1 2.</_></rects>
      <tilted>0</tilted></_>
    <_>
      <rects>
        <_>
          7 4 2 4 -1.</_>
        <_>
          7 6 2 2 2.</_></rects>
      <tilted>0</tilted></_>
    <_>
      <rects>
        <_>
          9 2 8 2 -1.</_>
        <_>
          9 3 8 1 2.</_></rects>
      <tilted>0</tilted></_>
    <_>
      <rects>
        <_>
          10 0 8 1 -1.</_>
        <_>
          14 0 4 1 2.</_></rects>
      <tilted>0</tilted></_>
    <_>
      <rects>
        <_>
          10 5 12 2 -1.</_>
        <_>
          16 5 6 2 2.</_></rects>
      <tilted>0</tilted></_>
    <_>
      <rects>
        <_>
          10 9 10 1 -1.</_>
        <_>
          15 9 5 1 2.</_></rects>
      <tilted>0</tilted></_>
    <_>
      <rects>
        <_>
          11 1 12 6 -1.</_>
        <_>
          11 3 12 2 3.</_></rects>
      <tilted>0</tilted></_>
    <_>
      <rects>
        <_>
          12 0 12 24 -1.</_>
        <_>
          18 0 6 24 2.</_></rects>
      <tilted>0</tilted></_>
    <_>
      <rects>
        <_>
          12 1 5 6 -1.</_>
        <_>
          12 3 5 2 3.</_></rects>
      <tilted>0</tilted></_>
    <_>
      <rects>
        <_>
          13 1 6 6 -1.</_>
        <_>
          16 1 3 6 2.</_></rects>
      <tilted>0</tilted></_>
    <_>
      <rects>
        <_>
          14 4 3 3 -1.</_>
        <_>
          14 5 3 1 3.</_></rects>
      <tilted>0</tilted></_>
    <_>
      <rects>
        <_>
          14 13 1 8 -1.</_>
        <_>
          14 17 1 4 2.</_></rects>
      <tilted>0</tilted></_>
    <_>
      <rects>
        <_>
          14 22 10 2 -1.</_>
        <_>
          19 22 5 2 2.</_></rects>
      <tilted>0</tilted></_>
    <_>
      <rects>
        <_>
          16 2 3 6 -1.</_>
        <_>
          16 4 3 2 3.</_></rects>
      <tilted>0</tilted></_>
    <_>
      <rects>
        <_>
          17 0 5 3 -1.</_>
        <_>
          17 1 5 1 3.</_></rects>
      <tilted>0</tilted></_>
    <_>
      <rects>
        <_>
          18 4 6 1 -1.</_>
        <_>
          20 4 2 1 3.</_></rects>
      <tilted>0</tilted></_>
    <_>
      <rects>
        <_>
          19 2 2 3 -1.</_>
        <_>
          20 2 1 3 2.</_></rects>
      <tilted>0</tilted></_>
    <_>
      <rects>
        <_>
          21 0 3 5 -1.</_>
        <_>
          22 0 1 5 3.</_></rects>
      <tilted>0</tilted></_>
    <_>
      <rects>
        <_>
          21 1 2 6 -1.</_>
        <_>
          21 4 2 3 2.</_></rects>
      <tilted>0</tilted></_>
    <_>
      <rects>
        <_>
          21 1 3 6 -1.</_>
        <_>
          21 3 3 2 3.</_></rects>
      <tilted>0</tilted></_>
    <_>
      <rects>
        <_>
          22 0 2 5 -1.</_>
        <_>
          23 0 1 5 2.</_></rects>
      <tilted>0</tilted></_>
    <_>
      <rects>
        <_>
          22 0 2 9 -1.</_>
        <_>
          22 3 2 3 3.</_></rects>
      <tilted>0</tilted></_>
    <_>
      <rects>
        <_>
          22 1 1 4 -1.</_>
        <_>
          22 3 1 2 2.</_></rects>
      <tilted>0</tilted></_>
    <_>
      <rects>
        <_>
          22 1 2 6 -1.</_>
        <_>
          22 3 2 2 3.</_></rects>
      <tilted>0</tilted></_>
    <_>
      <rects>
        <_>
          22 2 1 12 -1.</_>
        <_>
          22 6 1 4 3.</_></rects>
      <tilted>0</tilted></_>
    <_>
      <rects>
        <_>
          23 18 1 4 -1.</_>
        <_>
          23 20 1 2 2.</_></rects>
      <tilted>0</tilted></_></features></cascade>
</opencv_storage>
