<?xml version="1.0"?>
<opencv_storage>
<cascade>
  <stageType>BOOST</stageType>
  <featureType>HAAR</featureType>
  <height>24</height>
  <width>24</width>
  <stageParams>
    <boostType>GAB</boostType>
    <minHitRate>9.9500000476837158e-01</minHitRate>
    <maxFalseAlarm>5.0000000000000000e-01</maxFalseAlarm>
    <weightTrimRate>9.4999998807907104e-01</weightTrimRate>
    <maxDepth>1</maxDepth>
    <maxWeakCount>100</maxWeakCount></stageParams>
  <featureParams>
    <maxCatCount>0</maxCatCount>
    <featSize>1</featSize>
    <mode>BASIC</mode></featureParams>
  <stageNum>20</stageNum>
  <stages>
    <!-- stage 0 -->
    <_>
      <maxWeakCount>1</maxWeakCount>
      <stageThreshold>9.6666663885116577e-01</stageThreshold>
      <weakClassifiers>
        <_>
          <internalNodes>
            0 -1 20 -2.4061609059572220e-02</internalNodes>
          <leafValues>
            9.6666663885116577e-01 -1.</leafValues></_></weakClassifiers></_>
    <!-- stage 1 -->
    <_>
      <maxWeakCount>2</maxWeakCount>
      <stageThreshold>4.3652340769767761e-02</stageThreshold>
      <weakClassifiers>
        <_>
          <internalNodes>
            0 -1 12 -8.2887068856507540e-05</internalNodes>
          <leafValues>
            -8.0000001192092896e-01 9.6551722288131714e-01</leafValues></_>
        <_>
          <internalNodes>
            0 -1 6 -5.2131195843685418e-05</internalNodes>
          <leafValues>
            -9.2186492681503296e-01 9.0060228109359741e-01</leafValues></_></weakClassifiers></_>
    <!-- stage 2 -->
    <_>
      <maxWeakCount>2</maxWeakCount>
      <stageThreshold>4.2547725141048431e-02</stageThreshold>
      <weakClassifiers>
        <_>
          <internalNodes>
            0 -1 8 1.9558419007807970e-03</internalNodes>
          <leafValues>
            9.6610170602798462e-01 -8.9473682641983032e-01</leafValues></_>
        <_>
          <internalNodes>
            0 -1 13 5.2486557979136705e-04</internalNodes>
          <leafValues>
            9.6670013666152954e-01 -9.2355394363403320e-01</leafValues></_></weakClassifiers></_>
    <!-- stage 3 -->
    <_>
      <maxWeakCount>1</maxWeakCount>
      <stageThreshold>8.7301588058471680e-01</stageThreshold>
      <weakClassifiers>
        <_>
          <internalNodes>
            0 -1 10 1.0192672489210963e-03</internalNodes>
          <leafValues>
            8.7301588058471680e-01 -1.</leafValues></_></weakClassifiers></_>
    <!-- stage 4 -->
    <_>
      <maxWeakCount>1</maxWeakCount>
      <stageThreshold>8.4375000000000000e-01</stageThreshold>
      <weakClassifiers>
        <_>
          <internalNodes>
            0 -1 4 -2.9104284476488829e-04</internalNodes>
          <leafValues>
            -1. 8.4375000000000000e-01</leafValues></_></weakClassifiers></_>
    <!-- stage 5 -->
    <_>
      <maxWeakCount>2</maxWeakCount>
      <stageThreshold>8.3779655396938324e-02</stageThreshold>
      <weakClassifiers>
        <_>
          <internalNodes>
            0 -1 5 -5.2080404013395309e-02</internalNodes>
          <leafValues>
            9.3220341205596924e-01 -7.8947371244430542e-01</leafValues></_>
        <_>
          <internalNodes>
            0 -1 35 -2.3295150604099035e-03</internalNodes>
          <leafValues>
            -1. 8.7325334548950195e-01</leafValues></_></weakClassifiers></_>
    <!-- stage 6 -->
    <_>
      <maxWeakCount>2</maxWeakCount>
      <stageThreshold>-2.8559709899127483e-03</stageThreshold>
      <weakClassifiers>
        <_>
          <internalNodes>
            0 -1 23 -1.9449592800810933e-03</internalNodes>
          <leafValues>
            9.3103450536727905e-01 -6.9999998807907104e-01</leafValues></_>
        <_>
          <internalNodes>
            0 -1 1 -1.4697080478072166e-03</internalNodes>
          <leafValues>
            8.6626493930816650e-01 -9.3389046192169189e-01</leafValues></_></weakClassifiers></_>
    <!-- stage 7 -->
    <_>
      <maxWeakCount>2</maxWeakCount>
      <stageThreshold>2.0297592878341675e-01</stageThreshold>
      <weakClassifiers>
        <_>
          <internalNodes>
            0 -1 34 -1.7329065303783864e-04</internalNodes>
          <leafValues>
            -6.9999998807907104e-01 9.3103450536727905e-01</leafValues></_>
        <_>
          <internalNodes>
            0 -1 22 -3.6764563992619514e-03</internalNodes>
          <leafValues>
            9.2680013179779053e-01 -7.2805857658386230e-01</leafValues></_></weakClassifiers></_>
    <!-- stage 8 -->
    <_>
      <maxWeakCount>1</maxWeakCount>
      <stageThreshold>8.7301588058471680e-01</stageThreshold>
      <weakClassifiers>
        <_>
          <internalNodes>
            0 -1 3 1.9961179350502789e-04</internalNodes>
          <leafValues>
            8.7301588058471680e-01 -1.</leafValues></_></weakClassifiers></_>
    <!-- stage 9 -->
    <_>
      <maxWeakCount>3</maxWeakCount>
      <stageThreshold>9.2015814781188965e-01</stageThreshold>
      <weakClassifiers>
        <_>
          <internalNodes>
            0 -1 36 1.1100026313215494e-05</internalNodes>
          <leafValues>
            8.9473682641983032e-01 -5.2380955219268799e-01</leafValues></_>
        <_>
          <internalNodes>
            0 -1 16 1.3860470789950341e-04</internalNodes>
          <leafValues>
            7.5790804624557495e-01 -9.3750119209289551e-01</leafValues></_>
        <_>
          <internalNodes>
            0 -1 19 2.7971993404207751e-05</internalNodes>
          <leafValues>
            -6.5066921710968018e-01 9.6292251348495483e-01</leafValues></_></weakClassifiers></_>
    <!-- stage 10 -->
    <_>
      <maxWeakCount>1</maxWeakCount>
      <stageThreshold>8.4375000000000000e-01</stageThreshold>
      <weakClassifiers>
        <_>
          <internalNodes>
            0 -1 33 -2.7313886675983667e-03</internalNodes>
          <leafValues>
            -1. 8.4375000000000000e-01</leafValues></_></weakClassifiers></_>
    <!-- stage 11 -->
    <_>
      <maxWeakCount>1</maxWeakCount>
      <stageThreshold>9.0322577953338623e-01</stageThreshold>
      <weakClassifiers>
        <_>
          <internalNodes>
            0 -1 29 5.1192077808082104e-04</internalNodes>
          <leafValues>
            -1. 9.0322577953338623e-01</leafValues></_></weakClassifiers></_>
    <!-- stage 12 -->
    <_>
      <maxWeakCount>2</maxWeakCount>
      <stageThreshold>2.1439407765865326e-01</stageThreshold>
      <weakClassifiers>
        <_>
          <internalNodes>
            0 -1 2 -2.6723996270447969e-03</internalNodes>
          <leafValues>
            8.9473682641983032e-01 -5.2380955219268799e-01</leafValues></_>
        <_>
          <internalNodes>
            0 -1 11 2.2386272903531790e-03</internalNodes>
          <leafValues>
            -6.8034279346466064e-01 8.7924820184707642e-01</leafValues></_></weakClassifiers></_>
    <!-- stage 13 -->
    <_>
      <maxWeakCount>2</maxWeakCount>
      <stageThreshold>5.2225936204195023e-02</stageThreshold>
      <weakClassifiers>
        <_>
          <internalNodes>
            0 -1 28 1.9171484746038914e-04</internalNodes>
          <leafValues>
            -4.7826087474822998e-01 9.2727273702621460e-01</leafValues></_>
        <_>
          <internalNodes>
            0 -1 0 -2.3893523029983044e-04</internalNodes>
          <leafValues>
            -8.7504678964614868e-01 7.7846270799636841e-01</leafValues></_></weakClassifiers></_>
    <!-- stage 14 -->
    <_>
      <maxWeakCount>1</maxWeakCount>
      <stageThreshold>8.1538462638854980e-01</stageThreshold>
      <weakClassifiers>
        <_>
          <internalNodes>
            0 -1 9 -1.2338038533926010e-02</internalNodes>
          <leafValues>
            8.1538462638854980e-01 -1.</leafValues></_></weakClassifiers></_>
    <!-- stage 15 -->
    <_>
      <maxWeakCount>3</maxWeakCount>
      <stageThreshold>9.1077500581741333e-01</stageThreshold>
      <weakClassifiers>
        <_>
          <internalNodes>
            0 -1 18 -7.3135219281539321e-05</internalNodes>
          <leafValues>
            -6.2500000000000000e-01 8.0645161867141724e-01</leafValues></_>
        <_>
          <internalNodes>
            0 -1 31 -5.0618458772078156e-05</internalNodes>
          <leafValues>
            -7.7009820938110352e-01 7.9663783311843872e-01</leafValues></_>
        <_>
          <internalNodes>
            0 -1 26 -1.6404308553319424e-05</internalNodes>
          <leafValues>
            8.7442165613174438e-01 -6.6666436195373535e-01</leafValues></_></weakClassifiers></_>
    <!-- stage 16 -->
    <_>
      <maxWeakCount>1</maxWeakCount>
      <stageThreshold>7.3529410362243652e-01</stageThreshold>
      <weakClassifiers>
        <_>
          <internalNodes>
            0 -1 17 -1.2390554882586002e-02</internalNodes>
          <leafValues>
            7.3529410362243652e-01 -1.</leafValues></_></weakClassifiers></_>
    <!-- stage 17 -->
    <_>
      <maxWeakCount>4</maxWeakCount>
      <stageThreshold>7.0017212629318237e-01</stageThreshold>
      <weakClassifiers>
        <_>
          <internalNodes>
            0 -1 15 -1.0604301467537880e-02</internalNodes>
          <leafValues>
            -7.1428573131561279e-01 7.8125000000000000e-01</leafValues></_>
        <_>
          <internalNodes>
            0 -1 14 2.1351256873458624e-04</internalNodes>
          <leafValues>
            -6.4670687913894653e-01 8.6022889614105225e-01</leafValues></_>
        <_>
          <internalNodes>
            0 -1 21 1.1494904902065173e-04</internalNodes>
          <leafValues>
            -3.9943274855613708e-01 9.6041852235794067e-01</leafValues></_>
        <_>
          <internalNodes>
            0 -1 27 1.8562208861112595e-03</internalNodes>
          <leafValues>
            -3.9419242739677429e-01 9.6506166458129883e-01</leafValues></_></weakClassifiers></_>
    <!-- stage 18 -->
    <_>
      <maxWeakCount>2</maxWeakCount>
      <stageThreshold>3.0604013800621033e-01</stageThreshold>
      <weakClassifiers>
        <_>
          <internalNodes>
            0 -1 25 1.5980901662260294e-03</internalNodes>
          <leafValues>
            -6.4705884456634521e-01 8.3606559038162231e-01</leafValues></_>
        <_>
          <internalNodes>
            0 -1 24 -5.3101549856364727e-03</internalNodes>
          <leafValues>
            9.5792829990386963e-01 -5.3002542257308960e-01</leafValues></_></weakClassifiers></_>
    <!-- stage 19 -->
    <_>
      <maxWeakCount>4</maxWeakCount>
      <stageThreshold>2.6884251832962036e-01</stageThreshold>
      <weakClassifiers>
        <_>
          <internalNodes>
            0 -1 32 8.5472689534071833e-05</internalNodes>
          <leafValues>
            7.1014493703842163e-01 -1.</leafValues></_>
        <_>
          <internalNodes>
            0 -1 7 1.6375610604882240e-02</internalNodes>
          <leafValues>
            -4.2745366692543030e-01 9.6326863765716553e-01</leafValues></_>
        <_>
          <internalNodes>
            0 -1 37 -6.7162880441173911e-05</internalNodes>
          <leafValues>
            7.3578786849975586e-01 -6.4945214986801147e-01</leafValues></_>
        <_>
          <internalNodes>
            0 -1 30 -1.7235086488653906e-05</internalNodes>
          <leafValues>
            7.7452898025512695e-01 -7.4963659048080444e-01</leafValues></_></weakClassifiers></_></stages>
  <features>
    <_>
      <rects>
        <_>
          0 0 3 4 -1.</_>
        <_>
          0 2 3 2 2.</_></rects>
      <tilted>0</tilted></_>
    <_>
      <rects>
        <_>
          0 0 14 4 -1.</_>
        <_>
          0 0 7 2 2.</_>
        <_>
          7 2 7 2 2.</_></rects>
      <tilted>0</tilted></_>
    <_>
      <rects>
        <_>
          0 0 16 2 -1.</_>
        <_>
          0 1 16 1 2.</_></rects>
      <tilted>0</tilted></_>
    <_>
      <rects>
        <_>
          0 1 2 8 -1.</_>
        <_>
          0 1 1 4 2.</_>
        <_>
          1 5 1 4 2.</_></rects>
      <tilted>0</tilted></_>
    <_>
      <rects>
        <_>
          0 2 2 6 -1.</_>
        <_>
          0 2 1 3 2.</_>
        <_>
          1 5 1 3 2.</_></rects>
      <tilted>0</tilted></_>
    <_>
      <rects>
        <_>
          0 2 24 4 -1.</_>
        <_>
          8 2 8 4 3.</_></rects>
      <tilted>0</tilted></_>
    <_>
      <rects>
        <_>
          0 3 2 1 -1.</_>
        <_>
          1 3 1 1 2.</_></rects>
      <tilted>0</tilted></_>
    <_>
      <rects>
        <_>
          0 3 15 9 -1.</_>
        <_>
          0 6 15 3 3.</_></rects>
      <tilted>0</tilted></_>
    <_>
      <rects>
        <_>
          0 5 6 4 -1.</_>
        <_>
          3 5 3 4 2.</_></rects>
      <tilted>0</tilted></_>
    <_>
      <rects>
        <_>
          0 8 14 6 -1.</_>
        <_>
          7 8 7 6 2.</_></rects>
      <tilted>0</tilted></_>
    <_>
      <rects>
        <_>
          0 12 10 6 -1.</_>
        <_>
          5 12 5 6 2.</_></rects>
      <tilted>0</tilted></_>
    <_>
      <rects>
        <_>
          0 13 18 6 -1.</_>
        <_>
          0 15 18 2 3.</_></rects>
      <tilted>0</tilted></_>
    <_>
      <rects>
        <_>
          0 15 2 1 -1.</_>
        <_>
          1 15 1 1 2.</_></rects>
      <tilted>0</tilted></_>
    <_>
      <rects>
        <_>
          0 15 3 7 -1.</_>
        <_>
          1 15 1 7 3.</_></rects>
      <tilted>0</tilted></_>
    <_>
      <rects>
        <_>
          0 22 19 2 -1.</_>
        <_>
          0 23 19 1 2.</_></rects>
      <tilted>0</tilted></_>
    <_>
      <rects>
        <_>
          0 23 12 1 -1.</_>
        <_>
          6 23 6 1 2.</_></rects>
      <tilted>0</tilted></_>
    <_>
      <rects>
        <_>
          1 6 4 4 -1.</_>
        <_>
          1 6 2 2 2.</_>
        <_>
          3 8 2 2 2.</_></rects>
      <tilted>0</tilted></_>
    <_>
      <rects>
        <_>
          2 17 21 7 -1.</_>
        <_>
          9 17 7 7 3.</_></rects>
      <tilted>0</tilted></_>
    <_>
      <rects>
        <_>
          2 19 6 3 -1.</_>
        <_>
          4 19 2 3 3.</_></rects>
      <tilted>0</tilted></_>
    <_>
      <rects>
        <_>
          4 0 1 15 -1.</_>
        <_>
          4 5 1 5 3.</_></rects>
      <tilted>0</tilted></_>
    <_>
      <rects>
        <_>
          5 3 15 21 -1.</_>
        <_>
          10 3 5 21 3.</_></rects>
      <tilted>0</tilted></_>
    <_>
      <rects>
        <_>
          5 15 1 9 -1.</_>
        <_>
          5 18 1 3 3.</_></rects>
      <tilted>0</tilted></_>
    <_>
      <rects>
        <_>
          6 0 10 2 -1.</_>
        <_>
          6 1 10 1 2.</_></rects>
      <tilted>0</tilted></_>
    <_>
      <rects>
        <_>
          7 0 15 2 -1.</_>
        <_>
          7 1 15 1 2.</_></rects>
      <tilted>0</tilted></_>
    <_>
      <rects>
        <_>
          7 2 8 6 -1.</_>
        <_>
          7 4 8 2 3.</_></rects>
      <tilted>0</tilted></_>
    <_>
      <rects>
        <_>
          8 0 16 2 -1.</_>
        <_>
          8 0 8 1 2.</_>
        <_>
          16 1 8 1 2.</_></rects>
      <tilted>0</tilted></_>
    <_>
      <rects>
        <_>
          8 1 2 9 -1.</_>
        <_>
          8 4 2 3 3.</_></rects>
      <tilted>0</tilted></_>
    <_>
      <rects>
        <_>
          8 3 8 4 -1.</_>
        <_>
          8 3 4 2 2.</_>
        <_>
          12 5 4 2 2.</_></rects>
      <tilted>0</tilted></_>
    <_>
      <rects>
        <_>
          8 12 16 4 -1.</_>
        <_>
          8 14 16 2 2.</_></rects>
      <tilted>0</tilted></_>
    <_>
      <rects>
        <_>
          10 3 14 1 -1.</_>
        <_>
          17 3 7 1 2.</_></rects>
      <tilted>0</tilted></_>
    <_>
      <rects>
        <_>
          11 2 2 2 -1.</_>
        <_>
          11 3 2 1 2.</_></rects>
      <tilted>0</tilted></_>
    <_>
      <rects>
        <_>
          18 15 2 4 -1.</_>
        <_>
          18 15 1 2 2.</_>
        <_>
          19 17 1 2 2.</_></rects>
      <tilted>0</tilted></_>
    <_>
      <rects>
        <_>
          19 15 3 1 -1.</_>
        <_>
          20 15 1 1 3.</_></rects>
      <tilted>0</tilted></_>
    <_>
      <rects>
        <_>
          20 3 3 18 -1.</_>
        <_>
          20 9 3 6 3.</_></rects>
      <tilted>0</tilted></_>
    <_>
      <rects>
        <_>
          20 8 3 8 -1.</_>
        <_>
          21 8 1 8 3.</_></rects>
      <tilted>0</tilted></_>
    <_>
      <rects>
        <_>
          21 0 3 15 -1.</_>
        <_>
          21 5 3 5 3.</_></rects>
      <tilted>0</tilted></_>
    <_>
      <rects>
        <_>
          21 1 2 12 -1.</_>
        <_>
          22 1 1 12 2.</_></rects>
      <tilted>0</tilted></_>
    <_>
      <rects>
        <_>
          22 12 2 4 -1.</_>
        <_>
          23 12 1 4 2.</_></rects>
      <tilted>0</tilted></_></features></cascade>
</opencv_storage>
