<?xml version="1.0"?>
<opencv_storage>
<cascade>
  <stageType>BOOST</stageType>
  <featureType>HAAR</featureType>
  <height>24</height>
  <width>24</width>
  <stageParams>
    <boostType>GAB</boostType>
    <minHitRate>9.9500000476837158e-01</minHitRate>
    <maxFalseAlarm>5.0000000000000000e-01</maxFalseAlarm>
    <weightTrimRate>9.4999998807907104e-01</weightTrimRate>
    <maxDepth>1</maxDepth>
    <maxWeakCount>100</maxWeakCount></stageParams>
  <featureParams>
    <maxCatCount>0</maxCatCount>
    <featSize>1</featSize>
    <mode>BASIC</mode></featureParams>
  <stageNum>20</stageNum>
  <stages>
    <!-- stage 0 -->
    <_>
      <maxWeakCount>3</maxWeakCount>
      <stageThreshold>-5.6809192895889282e-01</stageThreshold>
      <weakClassifiers>
        <_>
          <internalNodes>
            0 -1 3 -3.4171938896179199e-01</internalNodes>
          <leafValues>
            9.2926043272018433e-01 -7.7499997615814209e-01</leafValues></_>
        <_>
          <internalNodes>
            0 -1 24 -2.2079697810113430e-03</internalNodes>
          <leafValues>
            8.7630367279052734e-01 -6.2062329053878784e-01</leafValues></_>
        <_>
          <internalNodes>
            0 -1 48 1.2909262441098690e-03</internalNodes>
          <leafValues>
            -5.8940279483795166e-01 8.2753133773803711e-01</leafValues></_></weakClassifiers></_>
    <!-- stage 1 -->
    <_>
      <maxWeakCount>4</maxWeakCount>
      <stageThreshold>-3.7445273250341415e-02</stageThreshold>
      <weakClassifiers>
        <_>
          <internalNodes>
            0 -1 4 -2.3559623956680298e-01</internalNodes>
          <leafValues>
            8.8235294818878174e-01 -8.5294115543365479e-01</leafValues></_>
        <_>
          <internalNodes>
            0 -1 41 -1.9297953695058823e-03</internalNodes>
          <leafValues>
            7.5937974452972412e-01 -7.8461611270904541e-01</leafValues></_>
        <_>
          <internalNodes>
            0 -1 54 2.1441087126731873e-02</internalNodes>
          <leafValues>
            -5.3779596090316772e-01 8.9155310392379761e-01</leafValues></_>
        <_>
          <internalNodes>
            0 -1 78 -8.4067098214291036e-05</internalNodes>
          <leafValues>
            -1. 5.9391212463378906e-01</leafValues></_></weakClassifiers></_>
    <!-- stage 2 -->
    <_>
      <maxWeakCount>5</maxWeakCount>
      <stageThreshold>-5.0340187549591064e-01</stageThreshold>
      <weakClassifiers>
        <_>
          <internalNodes>
            0 -1 12 -3.0595624446868896e-01</internalNodes>
          <leafValues>
            8.9932888746261597e-01 -4.4086021184921265e-01</leafValues></_>
        <_>
          <internalNodes>
            0 -1 6 1.5392870409414172e-04</internalNodes>
          <leafValues>
            6.3361001014709473e-01 -7.8612357378005981e-01</leafValues></_>
        <_>
          <internalNodes>
            0 -1 49 -6.9533480564132333e-04</internalNodes>
          <leafValues>
            5.6712758541107178e-01 -6.6786730289459229e-01</leafValues></_>
        <_>
          <internalNodes>
            0 -1 84 -1.2748296285280958e-05</internalNodes>
          <leafValues>
            6.8395191431045532e-01 -6.1941987276077271e-01</leafValues></_>
        <_>
          <internalNodes>
            0 -1 18 -4.0797400288283825e-03</internalNodes>
          <leafValues>
            7.7740556001663208e-01 -5.2749764919281006e-01</leafValues></_></weakClassifiers></_>
    <!-- stage 3 -->
    <_>
      <maxWeakCount>5</maxWeakCount>
      <stageThreshold>-2.7983412146568298e-01</stageThreshold>
      <weakClassifiers>
        <_>
          <internalNodes>
            0 -1 21 -2.4836930632591248e-01</internalNodes>
          <leafValues>
            8.8666665554046631e-01 -4.2857143282890320e-01</leafValues></_>
        <_>
          <internalNodes>
            0 -1 43 2.9226969927549362e-03</internalNodes>
          <leafValues>
            -3.4782409667968750e-01 8.9637368917465210e-01</leafValues></_>
        <_>
          <internalNodes>
            0 -1 81 -1.1224304216739256e-05</internalNodes>
          <leafValues>
            6.7690783739089966e-01 -5.8231437206268311e-01</leafValues></_>
        <_>
          <internalNodes>
            0 -1 8 -9.3928305432200432e-05</internalNodes>
          <leafValues>
            -9.0682566165924072e-01 4.9982926249504089e-01</leafValues></_>
        <_>
          <internalNodes>
            0 -1 50 3.7347474135458469e-03</internalNodes>
          <leafValues>
            -6.4636093378067017e-01 5.7904654741287231e-01</leafValues></_></weakClassifiers></_>
    <!-- stage 4 -->
    <_>
      <maxWeakCount>2</maxWeakCount>
      <stageThreshold>-9.8187588155269623e-03</stageThreshold>
      <weakClassifiers>
        <_>
          <internalNodes>
            0 -1 7 -3.4067043662071228e-01</internalNodes>
          <leafValues>
            8.4049081802368164e-01 -7.2307693958282471e-01</leafValues></_>
        <_>
          <internalNodes>
            0 -1 85 -1.2919638720632065e-05</internalNodes>
          <leafValues>
            7.1325814723968506e-01 -6.5821921825408936e-01</leafValues></_></weakClassifiers></_>
    <!-- stage 5 -->
    <_>
      <maxWeakCount>5</maxWeakCount>
      <stageThreshold>-3.5624387860298157e-01</stageThreshold>
      <weakClassifiers>
        <_>
          <internalNodes>
            0 -1 10 7.7892342233099043e-05</internalNodes>
          <leafValues>
            -6.8421053886413574e-01 7.9640716314315796e-01</leafValues></_>
        <_>
          <internalNodes>
            0 -1 39 2.0810414850711823e-01</internalNodes>
          <leafValues>
            -6.0064625740051270e-01 7.5385832786560059e-01</leafValues></_>
        <_>
          <internalNodes>
            0 -1 36 2.7619320899248123e-03</internalNodes>
          <leafValues>
            -5.3938829898834229e-01 7.4844831228256226e-01</leafValues></_>
        <_>
          <internalNodes>
            0 -1 38 -4.1976626962423325e-03</internalNodes>
          <leafValues>
            5.9950762987136841e-01 -6.9184672832489014e-01</leafValues></_>
        <_>
          <internalNodes>
            0 -1 42 -3.5533681511878967e-02</internalNodes>
          <leafValues>
            8.6849355697631836e-01 -5.4498225450515747e-01</leafValues></_></weakClassifiers></_>
    <!-- stage 6 -->
    <_>
      <maxWeakCount>1</maxWeakCount>
      <stageThreshold>8.5029941797256470e-01</stageThreshold>
      <weakClassifiers>
        <_>
          <internalNodes>
            0 -1 85 -1.9506991375237703e-03</internalNodes>
          <leafValues>
            -1. 8.5029941797256470e-01</leafValues></_></weakClassifiers></_>
    <!-- stage 7 -->
    <_>
      <maxWeakCount>4</maxWeakCount>
      <stageThreshold>1.5481810271739960e-01</stageThreshold>
      <weakClassifiers>
        <_>
          <internalNodes>
            0 -1 11 1.5437591355293989e-04</internalNodes>
          <leafValues>
            7.4504250288009644e-01 -9.4736844301223755e-01</leafValues></_>
        <_>
          <internalNodes>
            0 -1 5 -2.3808605037629604e-03</internalNodes>
          <leafValues>
            6.3090443611145020e-01 -6.1543542146682739e-01</leafValues></_>
        <_>
          <internalNodes>
            0 -1 25 -7.3738850653171539e-02</internalNodes>
          <leafValues>
            9.1261476278305054e-01 -4.0578573942184448e-01</leafValues></_>
        <_>
          <internalNodes>
            0 -1 70 7.6647964306175709e-05</internalNodes>
          <leafValues>
            5.0016129016876221e-01 -8.1534308195114136e-01</leafValues></_></weakClassifiers></_>
    <!-- stage 8 -->
    <_>
      <maxWeakCount>4</maxWeakCount>
      <stageThreshold>2.6368287205696106e-01</stageThreshold>
      <weakClassifiers>
        <_>
          <internalNodes>
            0 -1 60 -2.5430932873860002e-04</internalNodes>
          <leafValues>
            -9.4871795177459717e-01 7.5000000000000000e-01</leafValues></_>
        <_>
          <internalNodes>
            0 -1 13 -6.2529289722442627e-01</internalNodes>
          <leafValues>
            7.9118108749389648e-01 -5.0828224420547485e-01</leafValues></_>
        <_>
          <internalNodes>
            0 -1 86 -2.5747507606865838e-05</internalNodes>
          <leafValues>
            6.5542745590209961e-01 -5.7729244232177734e-01</leafValues></_>
        <_>
          <internalNodes>
            0 -1 40 2.0746736845467240e-04</internalNodes>
          <leafValues>
            -6.3346230983734131e-01 6.5492349863052368e-01</leafValues></_></weakClassifiers></_>
    <!-- stage 9 -->
    <_>
      <maxWeakCount>4</maxWeakCount>
      <stageThreshold>4.1032037697732449e-03</stageThreshold>
      <weakClassifiers>
        <_>
          <internalNodes>
            0 -1 1 -2.1051429212093353e-04</internalNodes>
          <leafValues>
            -1. 7.4576270580291748e-01</leafValues></_>
        <_>
          <internalNodes>
            0 -1 17 -2.3270109668374062e-03</internalNodes>
          <leafValues>
            7.7116131782531738e-01 -5.0408643484115601e-01</leafValues></_>
        <_>
          <internalNodes>
            0 -1 59 -2.2805121261626482e-05</internalNodes>
          <leafValues>
            -7.5757437944412231e-01 5.5049359798431396e-01</leafValues></_>
        <_>
          <internalNodes>
            0 -1 82 -2.6921621611109003e-05</internalNodes>
          <leafValues>
            5.2000129222869873e-01 -6.3860684633255005e-01</leafValues></_></weakClassifiers></_>
    <!-- stage 10 -->
    <_>
      <maxWeakCount>5</maxWeakCount>
      <stageThreshold>-3.2759666442871094e-01</stageThreshold>
      <weakClassifiers>
        <_>
          <internalNodes>
            0 -1 72 -8.6726387962698936e-05</internalNodes>
          <leafValues>
            -8.8888889551162720e-01 7.2957748174667358e-01</leafValues></_>
        <_>
          <internalNodes>
            0 -1 44 2.2118194028735161e-03</internalNodes>
          <leafValues>
            -6.3128763437271118e-01 6.7226642370223999e-01</leafValues></_>
        <_>
          <internalNodes>
            0 -1 47 -2.7313074097037315e-02</internalNodes>
          <leafValues>
            9.7506314516067505e-01 -3.8089641928672791e-01</leafValues></_>
        <_>
          <internalNodes>
            0 -1 28 1.9997104536741972e-03</internalNodes>
          <leafValues>
            -5.7864063978195190e-01 6.1208343505859375e-01</leafValues></_>
        <_>
          <internalNodes>
            0 -1 68 -1.3025138287048321e-05</internalNodes>
          <leafValues>
            5.3365063667297363e-01 -6.2846940755844116e-01</leafValues></_></weakClassifiers></_>
    <!-- stage 11 -->
    <_>
      <maxWeakCount>6</maxWeakCount>
      <stageThreshold>-3.1993719935417175e-01</stageThreshold>
      <weakClassifiers>
        <_>
          <internalNodes>
            0 -1 0 1.8082250608131289e-04</internalNodes>
          <leafValues>
            7.5792509317398071e-01 -8.1818181276321411e-01</leafValues></_>
        <_>
          <internalNodes>
            0 -1 29 -1.9016598816961050e-03</internalNodes>
          <leafValues>
            6.4114928245544434e-01 -6.5110182762145996e-01</leafValues></_>
        <_>
          <internalNodes>
            0 -1 31 -2.3856364190578461e-01</internalNodes>
          <leafValues>
            7.9340809583663940e-01 -5.2525919675827026e-01</leafValues></_>
        <_>
          <internalNodes>
            0 -1 35 2.6694340631365776e-03</internalNodes>
          <leafValues>
            -5.9483754634857178e-01 6.2952005863189697e-01</leafValues></_>
        <_>
          <internalNodes>
            0 -1 26 6.5438181627541780e-04</internalNodes>
          <leafValues>
            -5.6805503368377686e-01 6.2852340936660767e-01</leafValues></_>
        <_>
          <internalNodes>
            0 -1 76 -1.2193029397167265e-04</internalNodes>
          <leafValues>
            -9.4008874893188477e-01 3.4866872429847717e-01</leafValues></_></weakClassifiers></_>
    <!-- stage 12 -->
    <_>
      <maxWeakCount>5</maxWeakCount>
      <stageThreshold>-5.8856552839279175e-01</stageThreshold>
      <weakClassifiers>
        <_>
          <internalNodes>
            0 -1 72 1.5188343240879476e-04</internalNodes>
          <leafValues>
            7.4431818723678589e-01 -8.9743590354919434e-01</leafValues></_>
        <_>
          <internalNodes>
            0 -1 37 -5.2469694055616856e-03</internalNodes>
          <leafValues>
            7.6953291893005371e-01 -4.8913279175758362e-01</leafValues></_>
        <_>
          <internalNodes>
            0 -1 77 -3.1078344909474254e-04</internalNodes>
          <leafValues>
            6.2880831956863403e-01 -5.8519470691680908e-01</leafValues></_>
        <_>
          <internalNodes>
            0 -1 46 -3.2179154455661774e-02</internalNodes>
          <leafValues>
            6.7844313383102417e-01 -6.2225085496902466e-01</leafValues></_>
        <_>
          <internalNodes>
            0 -1 69 -3.8824800867587328e-05</internalNodes>
          <leafValues>
            -9.0818518400192261e-01 3.6369466781616211e-01</leafValues></_></weakClassifiers></_>
    <!-- stage 13 -->
    <_>
      <maxWeakCount>7</maxWeakCount>
      <stageThreshold>-2.4360869824886322e-01</stageThreshold>
      <weakClassifiers>
        <_>
          <internalNodes>
            0 -1 52 1.5101650729775429e-02</internalNodes>
          <leafValues>
            7.5147926807403564e-01 -5.0943398475646973e-01</leafValues></_>
        <_>
          <internalNodes>
            0 -1 33 -5.0656236708164215e-02</internalNodes>
          <leafValues>
            8.3089756965637207e-01 -2.2235472500324249e-01</leafValues></_>
        <_>
          <internalNodes>
            0 -1 2 9.9897151812911034e-05</internalNodes>
          <leafValues>
            -3.9504298567771912e-01 6.5408861637115479e-01</leafValues></_>
        <_>
          <internalNodes>
            0 -1 19 -1.3637761585414410e-03</internalNodes>
          <leafValues>
            -8.1009089946746826e-01 3.8131675124168396e-01</leafValues></_>
        <_>
          <internalNodes>
            0 -1 75 -1.8693096353672445e-04</internalNodes>
          <leafValues>
            5.9803313016891479e-01 -4.7994735836982727e-01</leafValues></_>
        <_>
          <internalNodes>
            0 -1 55 1.5223765512928367e-03</internalNodes>
          <leafValues>
            -4.4886058568954468e-01 6.3804340362548828e-01</leafValues></_>
        <_>
          <internalNodes>
            0 -1 67 -1.4418156752071809e-05</internalNodes>
          <leafValues>
            -7.9054051637649536e-01 3.4381017088890076e-01</leafValues></_></weakClassifiers></_>
    <!-- stage 14 -->
    <_>
      <maxWeakCount>6</maxWeakCount>
      <stageThreshold>-4.0306890010833740e-01</stageThreshold>
      <weakClassifiers>
        <_>
          <internalNodes>
            0 -1 41 -1.8586877267807722e-03</internalNodes>
          <leafValues>
            7.9268294572830200e-01 -5.2380955219268799e-01</leafValues></_>
        <_>
          <internalNodes>
            0 -1 45 2.4584428966045380e-01</internalNodes>
          <leafValues>
            -5.1131981611251831e-01 6.4399963617324829e-01</leafValues></_>
        <_>
          <internalNodes>
            0 -1 71 1.1635815462796018e-04</internalNodes>
          <leafValues>
            -5.3839886188507080e-01 6.2122595310211182e-01</leafValues></_>
        <_>
          <internalNodes>
            0 -1 22 4.7923611418809742e-05</internalNodes>
          <leafValues>
            4.0664899349212646e-01 -7.7232873439788818e-01</leafValues></_>
        <_>
          <internalNodes>
            0 -1 74 1.2677811355388258e-05</internalNodes>
          <leafValues>
            -6.9318580627441406e-01 3.9224225282669067e-01</leafValues></_>
        <_>
          <internalNodes>
            0 -1 64 -2.5150587316602468e-04</internalNodes>
          <leafValues>
            -8.6336684226989746e-01 3.2102960348129272e-01</leafValues></_></weakClassifiers></_>
    <!-- stage 15 -->
    <_>
      <maxWeakCount>5</maxWeakCount>
      <stageThreshold>-6.7747724056243896e-01</stageThreshold>
      <weakClassifiers>
        <_>
          <internalNodes>
            0 -1 23 -2.2141583031043410e-04</internalNodes>
          <leafValues>
            -8.4210526943206787e-01 7.3371106386184692e-01</leafValues></_>
        <_>
          <internalNodes>
            0 -1 65 1.3400774150795769e-05</internalNodes>
          <leafValues>
            -5.5135202407836914e-01 6.2251651287078857e-01</leafValues></_>
        <_>
          <internalNodes>
            0 -1 34 -1.0190375614911318e-03</internalNodes>
          <leafValues>
            6.1875158548355103e-01 -4.5469832420349121e-01</leafValues></_>
        <_>
          <internalNodes>
            0 -1 61 1.6678665997460485e-04</internalNodes>
          <leafValues>
            3.5496541857719421e-01 -7.3042941093444824e-01</leafValues></_>
        <_>
          <internalNodes>
            0 -1 9 1.7980381016968749e-05</internalNodes>
          <leafValues>
            -7.7112537622451782e-01 3.2529151439666748e-01</leafValues></_></weakClassifiers></_>
    <!-- stage 16 -->
    <_>
      <maxWeakCount>4</maxWeakCount>
      <stageThreshold>-2.7823470532894135e-02</stageThreshold>
      <weakClassifiers>
        <_>
          <internalNodes>
            0 -1 79 -1.0314647806808352e-04</internalNodes>
          <leafValues>
            -8.7878787517547607e-01 7.1508377790451050e-01</leafValues></_>
        <_>
          <internalNodes>
            0 -1 83 -3.1866642530076206e-05</internalNodes>
          <leafValues>
            7.7063393592834473e-01 -3.3792561292648315e-01</leafValues></_>
        <_>
          <internalNodes>
            0 -1 32 -4.5355809852480888e-03</internalNodes>
          <leafValues>
            4.1541379690170288e-01 -6.9002687931060791e-01</leafValues></_>
        <_>
          <internalNodes>
            0 -1 15 -2.1265655755996704e-01</internalNodes>
          <leafValues>
            9.1833955049514771e-01 -3.3508330583572388e-01</leafValues></_></weakClassifiers></_>
    <!-- stage 17 -->
    <_>
      <maxWeakCount>5</maxWeakCount>
      <stageThreshold>1.2716951966285706e-01</stageThreshold>
      <weakClassifiers>
        <_>
          <internalNodes>
            0 -1 27 -1.4332073078549001e-05</internalNodes>
          <leafValues>
            7.2649574279785156e-01 -6.9999998807907104e-01</leafValues></_>
        <_>
          <internalNodes>
            0 -1 53 -2.8507998213171959e-03</internalNodes>
          <leafValues>
            9.0089499950408936e-01 -2.2010788321495056e-01</leafValues></_>
        <_>
          <internalNodes>
            0 -1 30 -2.3127879947423935e-02</internalNodes>
          <leafValues>
            8.9631325006484985e-01 -3.1586945056915283e-01</leafValues></_>
        <_>
          <internalNodes>
            0 -1 51 -6.1712935566902161e-03</internalNodes>
          <leafValues>
            8.8105469942092896e-01 -3.2122996449470520e-01</leafValues></_>
        <_>
          <internalNodes>
            0 -1 66 7.1686336013954133e-05</internalNodes>
          <leafValues>
            -7.3594844341278076e-01 4.8209217190742493e-01</leafValues></_></weakClassifiers></_>
    <!-- stage 18 -->
    <_>
      <maxWeakCount>5</maxWeakCount>
      <stageThreshold>-5.3046143054962158e-01</stageThreshold>
      <weakClassifiers>
        <_>
          <internalNodes>
            0 -1 62 2.9807578539475799e-04</internalNodes>
          <leafValues>
            7.6969695091247559e-01 -4.4262295961380005e-01</leafValues></_>
        <_>
          <internalNodes>
            0 -1 16 5.6454984587617218e-05</internalNodes>
          <leafValues>
            -6.9290322065353394e-01 5.7303935289382935e-01</leafValues></_>
        <_>
          <internalNodes>
            0 -1 63 6.4245301473420113e-05</internalNodes>
          <leafValues>
            -4.6396240592002869e-01 5.9412086009979248e-01</leafValues></_>
        <_>
          <internalNodes>
            0 -1 56 2.9149954207241535e-04</internalNodes>
          <leafValues>
            -5.2720558643341064e-01 5.0086498260498047e-01</leafValues></_>
        <_>
          <internalNodes>
            0 -1 14 4.1209776100004092e-05</internalNodes>
          <leafValues>
            3.3029010891914368e-01 -8.1044244766235352e-01</leafValues></_></weakClassifiers></_>
    <!-- stage 19 -->
    <_>
      <maxWeakCount>5</maxWeakCount>
      <stageThreshold>-8.0101603269577026e-01</stageThreshold>
      <weakClassifiers>
        <_>
          <internalNodes>
            0 -1 73 -1.1828060087282211e-04</internalNodes>
          <leafValues>
            -9.4594591856002808e-01 7.4011301994323730e-01</leafValues></_>
        <_>
          <internalNodes>
            0 -1 57 -4.1440277709625661e-04</internalNodes>
          <leafValues>
            -8.0989599227905273e-01 5.0627535581588745e-01</leafValues></_>
        <_>
          <internalNodes>
            0 -1 58 2.6894747861661017e-05</internalNodes>
          <leafValues>
            -6.8206971883773804e-01 5.4846245050430298e-01</leafValues></_>
        <_>
          <internalNodes>
            0 -1 20 5.7709123939275742e-04</internalNodes>
          <leafValues>
            4.0847250819206238e-01 -7.4121981859207153e-01</leafValues></_>
        <_>
          <internalNodes>
            0 -1 80 -2.5162164092762396e-05</internalNodes>
          <leafValues>
            5.8247131109237671e-01 -5.3847563266754150e-01</leafValues></_></weakClassifiers></_></stages>
  <features>
    <_>
      <rects>
        <_>
          0 0 3 4 -1.</_>
        <_>
          1 0 1 4 3.</_></rects>
      <tilted>0</tilted></_>
    <_>
      <rects>
        <_>
          0 0 3 5 -1.</_>
        <_>
          1 0 1 5 3.</_></rects>
      <tilted>0</tilted></_>
    <_>
      <rects>
        <_>
          0 0 2 6 -1.</_>
        <_>
          0 3 2 3 2.</_></rects>
      <tilted>0</tilted></_>
    <_>
      <rects>
        <_>
          0 0 24 22 -1.</_>
        <_>
          8 0 8 22 3.</_></rects>
      <tilted>0</tilted></_>
    <_>
      <rects>
        <_>
          0 0 24 24 -1.</_>
        <_>
          8 0 8 24 3.</_></rects>
      <tilted>0</tilted></_>
    <_>
      <rects>
        <_>
          0 0 20 3 -1.</_>
        <_>
          0 1 20 1 3.</_></rects>
      <tilted>0</tilted></_>
    <_>
      <rects>
        <_>
          0 1 2 14 -1.</_>
        <_>
          0 1 1 7 2.</_>
        <_>
          1 8 1 7 2.</_></rects>
      <tilted>0</tilted></_>
    <_>
      <rects>
        <_>
          0 3 24 21 -1.</_>
        <_>
          8 3 8 21 3.</_></rects>
      <tilted>0</tilted></_>
    <_>
      <rects>
        <_>
          0 6 6 4 -1.</_>
        <_>
          2 6 2 4 3.</_></rects>
      <tilted>0</tilted></_>
    <_>
      <rects>
        <_>
          0 22 14 2 -1.</_>
        <_>
          0 22 7 1 2.</_>
        <_>
          7 23 7 1 2.</_></rects>
      <tilted>0</tilted></_>
    <_>
      <rects>
        <_>
          1 0 9 7 -1.</_>
        <_>
          4 0 3 7 3.</_></rects>
      <tilted>0</tilted></_>
    <_>
      <rects>
        <_>
          1 1 2 8 -1.</_>
        <_>
          1 1 1 4 2.</_>
        <_>
          2 5 1 4 2.</_></rects>
      <tilted>0</tilted></_>
    <_>
      <rects>
        <_>
          1 1 21 14 -1.</_>
        <_>
          8 1 7 14 3.</_></rects>
      <tilted>0</tilted></_>
    <_>
      <rects>
        <_>
          1 3 21 20 -1.</_>
        <_>
          8 3 7 20 3.</_></rects>
      <tilted>0</tilted></_>
    <_>
      <rects>
        <_>
          1 6 2 10 -1.</_>
        <_>
          1 6 1 5 2.</_>
        <_>
          2 11 1 5 2.</_></rects>
      <tilted>0</tilted></_>
    <_>
      <rects>
        <_>
          1 12 21 4 -1.</_>
        <_>
          8 12 7 4 3.</_></rects>
      <tilted>0</tilted></_>
    <_>
      <rects>
        <_>
          1 20 9 3 -1.</_>
        <_>
          4 20 3 3 3.</_></rects>
      <tilted>0</tilted></_>
    <_>
      <rects>
        <_>
          1 21 18 3 -1.</_>
        <_>
          1 22 18 1 3.</_></rects>
      <tilted>0</tilted></_>
    <_>
      <rects>
        <_>
          1 21 21 3 -1.</_>
        <_>
          1 22 21 1 3.</_></rects>
      <tilted>0</tilted></_>
    <_>
      <rects>
        <_>
          1 23 6 1 -1.</_>
        <_>
          4 23 3 1 2.</_></rects>
      <tilted>0</tilted></_>
    <_>
      <rects>
        <_>
          2 0 6 2 -1.</_>
        <_>
          4 0 2 2 3.</_></rects>
      <tilted>0</tilted></_>
    <_>
      <rects>
        <_>
          2 2 18 14 -1.</_>
        <_>
          8 2 6 14 3.</_></rects>
      <tilted>0</tilted></_>
    <_>
      <rects>
        <_>
          2 9 2 4 -1.</_>
        <_>
          2 9 1 2 2.</_>
        <_>
          3 11 1 2 2.</_></rects>
      <tilted>0</tilted></_>
    <_>
      <rects>
        <_>
          3 0 4 1 -1.</_>
        <_>
          5 0 2 1 2.</_></rects>
      <tilted>0</tilted></_>
    <_>
      <rects>
        <_>
          3 0 16 2 -1.</_>
        <_>
          3 1 16 1 2.</_></rects>
      <tilted>0</tilted></_>
    <_>
      <rects>
        <_>
          3 12 18 2 -1.</_>
        <_>
          9 12 6 2 3.</_></rects>
      <tilted>0</tilted></_>
    <_>
      <rects>
        <_>
          3 13 18 2 -1.</_>
        <_>
          3 14 18 1 2.</_></rects>
      <tilted>0</tilted></_>
    <_>
      <rects>
        <_>
          3 20 6 4 -1.</_>
        <_>
          6 20 3 4 2.</_></rects>
      <tilted>0</tilted></_>
    <_>
      <rects>
        <_>
          3 22 14 2 -1.</_>
        <_>
          3 23 14 1 2.</_></rects>
      <tilted>0</tilted></_>
    <_>
      <rects>
        <_>
          4 0 19 3 -1.</_>
        <_>
          4 1 19 1 3.</_></rects>
      <tilted>0</tilted></_>
    <_>
      <rects>
        <_>
          4 1 15 6 -1.</_>
        <_>
          4 4 15 3 2.</_></rects>
      <tilted>0</tilted></_>
    <_>
      <rects>
        <_>
          5 0 12 24 -1.</_>
        <_>
          9 0 4 24 3.</_></rects>
      <tilted>0</tilted></_>
    <_>
      <rects>
        <_>
          5 0 19 2 -1.</_>
        <_>
          5 1 19 1 2.</_></rects>
      <tilted>0</tilted></_>
    <_>
      <rects>
        <_>
          5 11 12 3 -1.</_>
        <_>
          9 11 4 3 3.</_></rects>
      <tilted>0</tilted></_>
    <_>
      <rects>
        <_>
          6 15 18 4 -1.</_>
        <_>
          6 15 9 2 2.</_>
        <_>
          15 17 9 2 2.</_></rects>
      <tilted>0</tilted></_>
    <_>
      <rects>
        <_>
          6 22 11 2 -1.</_>
        <_>
          6 23 11 1 2.</_></rects>
      <tilted>0</tilted></_>
    <_>
      <rects>
        <_>
          6 22 18 2 -1.</_>
        <_>
          6 23 18 1 2.</_></rects>
      <tilted>0</tilted></_>
    <_>
      <rects>
        <_>
          7 0 8 2 -1.</_>
        <_>
          7 1 8 1 2.</_></rects>
      <tilted>0</tilted></_>
    <_>
      <rects>
        <_>
          7 0 12 2 -1.</_>
        <_>
          7 1 12 1 2.</_></rects>
      <tilted>0</tilted></_>
    <_>
      <rects>
        <_>
          7 1 16 15 -1.</_>
        <_>
          15 1 8 15 2.</_></rects>
      <tilted>0</tilted></_>
    <_>
      <rects>
        <_>
          7 13 8 6 -1.</_>
        <_>
          7 15 8 2 3.</_></rects>
      <tilted>0</tilted></_>
    <_>
      <rects>
        <_>
          8 0 9 2 -1.</_>
        <_>
          8 1 9 1 2.</_></rects>
      <tilted>0</tilted></_>
    <_>
      <rects>
        <_>
          8 3 5 18 -1.</_>
        <_>
          8 9 5 6 3.</_></rects>
      <tilted>0</tilted></_>
    <_>
      <rects>
        <_>
          8 22 9 2 -1.</_>
        <_>
          8 23 9 1 2.</_></rects>
      <tilted>0</tilted></_>
    <_>
      <rects>
        <_>
          9 0 12 2 -1.</_>
        <_>
          9 0 6 1 2.</_>
        <_>
          15 1 6 1 2.</_></rects>
      <tilted>0</tilted></_>
    <_>
      <rects>
        <_>
          9 2 12 21 -1.</_>
        <_>
          15 2 6 21 2.</_></rects>
      <tilted>0</tilted></_>
    <_>
      <rects>
        <_>
          9 3 9 14 -1.</_>
        <_>
          12 3 3 14 3.</_></rects>
      <tilted>0</tilted></_>
    <_>
      <rects>
        <_>
          9 6 8 12 -1.</_>
        <_>
          9 10 8 4 3.</_></rects>
      <tilted>0</tilted></_>
    <_>
      <rects>
        <_>
          9 22 6 2 -1.</_>
        <_>
          9 23 6 1 2.</_></rects>
      <tilted>0</tilted></_>
    <_>
      <rects>
        <_>
          10 0 6 3 -1.</_>
        <_>
          10 1 6 1 3.</_></rects>
      <tilted>0</tilted></_>
    <_>
      <rects>
        <_>
          10 0 14 2 -1.</_>
        <_>
          10 0 7 1 2.</_>
        <_>
          17 1 7 1 2.</_></rects>
      <tilted>0</tilted></_>
    <_>
      <rects>
        <_>
          10 2 8 6 -1.</_>
        <_>
          10 2 4 3 2.</_>
        <_>
          14 5 4 3 2.</_></rects>
      <tilted>0</tilted></_>
    <_>
      <rects>
        <_>
          10 23 14 1 -1.</_>
        <_>
          17 23 7 1 2.</_></rects>
      <tilted>0</tilted></_>
    <_>
      <rects>
        <_>
          12 8 2 4 -1.</_>
        <_>
          12 10 2 2 2.</_></rects>
      <tilted>0</tilted></_>
    <_>
      <rects>
        <_>
          12 11 12 4 -1.</_>
        <_>
          16 11 4 4 3.</_></rects>
      <tilted>0</tilted></_>
    <_>
      <rects>
        <_>
          13 12 3 4 -1.</_>
        <_>
          13 14 3 2 2.</_></rects>
      <tilted>0</tilted></_>
    <_>
      <rects>
        <_>
          13 21 9 2 -1.</_>
        <_>
          16 21 3 2 3.</_></rects>
      <tilted>0</tilted></_>
    <_>
      <rects>
        <_>
          15 17 6 4 -1.</_>
        <_>
          17 17 2 4 3.</_></rects>
      <tilted>0</tilted></_>
    <_>
      <rects>
        <_>
          16 2 6 3 -1.</_>
        <_>
          18 2 2 3 3.</_></rects>
      <tilted>0</tilted></_>
    <_>
      <rects>
        <_>
          17 0 1 4 -1.</_>
        <_>
          17 2 1 2 2.</_></rects>
      <tilted>0</tilted></_>
    <_>
      <rects>
        <_>
          17 0 6 4 -1.</_>
        <_>
          17 0 3 2 2.</_>
        <_>
          20 2 3 2 2.</_></rects>
      <tilted>0</tilted></_>
    <_>
      <rects>
        <_>
          17 1 6 2 -1.</_>
        <_>
          17 1 3 1 2.</_>
        <_>
          20 2 3 1 2.</_></rects>
      <tilted>0</tilted></_>
    <_>
      <rects>
        <_>
          17 2 4 2 -1.</_>
        <_>
          19 2 2 2 2.</_></rects>
      <tilted>0</tilted></_>
    <_>
      <rects>
        <_>
          17 6 6 6 -1.</_>
        <_>
          17 8 6 2 3.</_></rects>
      <tilted>0</tilted></_>
    <_>
      <rects>
        <_>
          18 0 3 23 -1.</_>
        <_>
          19 0 1 23 3.</_></rects>
      <tilted>0</tilted></_>
    <_>
      <rects>
        <_>
          18 0 4 9 -1.</_>
        <_>
          18 3 4 3 3.</_></rects>
      <tilted>0</tilted></_>
    <_>
      <rects>
        <_>
          18 16 6 5 -1.</_>
        <_>
          20 16 2 5 3.</_></rects>
      <tilted>0</tilted></_>
    <_>
      <rects>
        <_>
          19 3 3 21 -1.</_>
        <_>
          20 3 1 21 3.</_></rects>
      <tilted>0</tilted></_>
    <_>
      <rects>
        <_>
          19 13 1 8 -1.</_>
        <_>
          19 17 1 4 2.</_></rects>
      <tilted>0</tilted></_>
    <_>
      <rects>
        <_>
          20 0 1 6 -1.</_>
        <_>
          20 2 1 2 3.</_></rects>
      <tilted>0</tilted></_>
    <_>
      <rects>
        <_>
          20 1 2 10 -1.</_>
        <_>
          21 1 1 10 2.</_></rects>
      <tilted>0</tilted></_>
    <_>
      <rects>
        <_>
          20 2 4 9 -1.</_>
        <_>
          20 5 4 3 3.</_></rects>
      <tilted>0</tilted></_>
    <_>
      <rects>
        <_>
          20 18 3 1 -1.</_>
        <_>
          21 18 1 1 3.</_></rects>
      <tilted>0</tilted></_>
    <_>
      <rects>
        <_>
          21 0 3 3 -1.</_>
        <_>
          21 1 3 1 3.</_></rects>
      <tilted>0</tilted></_>
    <_>
      <rects>
        <_>
          21 7 3 16 -1.</_>
        <_>
          22 7 1 16 3.</_></rects>
      <tilted>0</tilted></_>
    <_>
      <rects>
        <_>
          21 10 3 6 -1.</_>
        <_>
          21 13 3 3 2.</_></rects>
      <tilted>0</tilted></_>
    <_>
      <rects>
        <_>
          21 14 3 9 -1.</_>
        <_>
          22 14 1 9 3.</_></rects>
      <tilted>0</tilted></_>
    <_>
      <rects>
        <_>
          22 0 2 24 -1.</_>
        <_>
          23 0 1 24 2.</_></rects>
      <tilted>0</tilted></_>
    <_>
      <rects>
        <_>
          22 1 1 6 -1.</_>
        <_>
          22 3 1 2 3.</_></rects>
      <tilted>0</tilted></_>
    <_>
      <rects>
        <_>
          22 1 2 3 -1.</_>
        <_>
          22 2 2 1 3.</_></rects>
      <tilted>0</tilted></_>
    <_>
      <rects>
        <_>
          22 5 2 1 -1.</_>
        <_>
          23 5 1 1 2.</_></rects>
      <tilted>0</tilted></_>
    <_>
      <rects>
        <_>
          22 8 2 5 -1.</_>
        <_>
          23 8 1 5 2.</_></rects>
      <tilted>0</tilted></_>
    <_>
      <rects>
        <_>
          22 13 2 3 -1.</_>
        <_>
          23 13 1 3 2.</_></rects>
      <tilted>0</tilted></_>
    <_>
      <rects>
        <_>
          22 14 1 4 -1.</_>
        <_>
          22 16 1 2 2.</_></rects>
      <tilted>0</tilted></_>
    <_>
      <rects>
        <_>
          22 15 2 2 -1.</_>
        <_>
          23 15 1 2 2.</_></rects>
      <tilted>0</tilted></_>
    <_>
      <rects>
        <_>
          22 17 2 5 -1.</_>
        <_>
          23 17 1 5 2.</_></rects>
      <tilted>0</tilted></_>
    <_>
      <rects>
        <_>
          22 18 2 1 -1.</_>
        <_>
          23 18 1 1 2.</_></rects>
      <tilted>0</tilted></_></features></cascade>
</opencv_storage>
