<?xml version="1.0"?>
<opencv_storage>
<cascade>
  <stageType>BOOST</stageType>
  <featureType>HAAR</featureType>
  <height>24</height>
  <width>24</width>
  <stageParams>
    <boostType>GAB</boostType>
    <minHitRate>9.9500000476837158e-01</minHitRate>
    <maxFalseAlarm>5.0000000000000000e-01</maxFalseAlarm>
    <weightTrimRate>9.4999998807907104e-01</weightTrimRate>
    <maxDepth>1</maxDepth>
    <maxWeakCount>100</maxWeakCount></stageParams>
  <featureParams>
    <maxCatCount>0</maxCatCount>
    <featSize>1</featSize>
    <mode>BASIC</mode></featureParams>
  <stageNum>20</stageNum>
  <stages>
    <!-- stage 0 -->
    <_>
      <maxWeakCount>3</maxWeakCount>
      <stageThreshold>-4.2762184143066406e-01</stageThreshold>
      <weakClassifiers>
        <_>
          <internalNodes>
            0 -1 30 -5.1882158732041717e-04</internalNodes>
          <leafValues>
            -8.5714286565780640e-01 8.8235294818878174e-01</leafValues></_>
        <_>
          <internalNodes>
            0 -1 19 -7.1034551365301013e-04</internalNodes>
          <leafValues>
            8.5312241315841675e-01 -7.2650444507598877e-01</leafValues></_>
        <_>
          <internalNodes>
            0 -1 9 -1.4634714716521557e-05</internalNodes>
          <leafValues>
            1. -5.8347034454345703e-01</leafValues></_></weakClassifiers></_>
    <!-- stage 1 -->
    <_>
      <maxWeakCount>1</maxWeakCount>
      <stageThreshold>8.8405799865722656e-01</stageThreshold>
      <weakClassifiers>
        <_>
          <internalNodes>
            0 -1 15 -1.0865654330700636e-03</internalNodes>
          <leafValues>
            8.8405799865722656e-01 -1.</leafValues></_></weakClassifiers></_>
    <!-- stage 2 -->
    <_>
      <maxWeakCount>1</maxWeakCount>
      <stageThreshold>8.8405799865722656e-01</stageThreshold>
      <weakClassifiers>
        <_>
          <internalNodes>
            0 -1 14 -1.2716760102193803e-04</internalNodes>
          <leafValues>
            -1. 8.8405799865722656e-01</leafValues></_></weakClassifiers></_>
    <!-- stage 3 -->
    <_>
      <maxWeakCount>1</maxWeakCount>
      <stageThreshold>8.3098590373992920e-01</stageThreshold>
      <weakClassifiers>
        <_>
          <internalNodes>
            0 -1 6 2.2212423209566623e-04</internalNodes>
          <leafValues>
            8.3098590373992920e-01 -1.</leafValues></_></weakClassifiers></_>
    <!-- stage 4 -->
    <_>
      <maxWeakCount>3</maxWeakCount>
      <stageThreshold>8.6532533168792725e-01</stageThreshold>
      <weakClassifiers>
        <_>
          <internalNodes>
            0 -1 13 -2.7523451717570424e-04</internalNodes>
          <leafValues>
            -8.5714286565780640e-01 8.8235294818878174e-01</leafValues></_>
        <_>
          <internalNodes>
            0 -1 5 -2.0477604120969772e-02</internalNodes>
          <leafValues>
            -9.3858182430267334e-01 8.6108088493347168e-01</leafValues></_>
        <_>
          <internalNodes>
            0 -1 20 -2.3896207567304373e-03</internalNodes>
          <leafValues>
            9.2155426740646362e-01 -8.3350032567977905e-01</leafValues></_></weakClassifiers></_>
    <!-- stage 5 -->
    <_>
      <maxWeakCount>1</maxWeakCount>
      <stageThreshold>8.5714286565780640e-01</stageThreshold>
      <weakClassifiers>
        <_>
          <internalNodes>
            0 -1 28 -9.3791499966755509e-04</internalNodes>
          <leafValues>
            -1. 8.5714286565780640e-01</leafValues></_></weakClassifiers></_>
    <!-- stage 6 -->
    <_>
      <maxWeakCount>3</maxWeakCount>
      <stageThreshold>9.1846871376037598e-01</stageThreshold>
      <weakClassifiers>
        <_>
          <internalNodes>
            0 -1 11 -1.0038181208074093e-03</internalNodes>
          <leafValues>
            -8.5714286565780640e-01 8.8235294818878174e-01</leafValues></_>
        <_>
          <internalNodes>
            0 -1 12 -3.5803415812551975e-05</internalNodes>
          <leafValues>
            -9.3658471107482910e-01 8.3558112382888794e-01</leafValues></_>
        <_>
          <internalNodes>
            0 -1 2 1.2386813978082500e-05</internalNodes>
          <leafValues>
            -7.9946535825729370e-01 1.</leafValues></_></weakClassifiers></_>
    <!-- stage 7 -->
    <_>
      <maxWeakCount>1</maxWeakCount>
      <stageThreshold>8.3098590373992920e-01</stageThreshold>
      <weakClassifiers>
        <_>
          <internalNodes>
            0 -1 0 -1.1320317571517080e-04</internalNodes>
          <leafValues>
            -1. 8.3098590373992920e-01</leafValues></_></weakClassifiers></_>
    <!-- stage 8 -->
    <_>
      <maxWeakCount>1</maxWeakCount>
      <stageThreshold>8.5714286565780640e-01</stageThreshold>
      <weakClassifiers>
        <_>
          <internalNodes>
            0 -1 4 1.2792058289051056e-02</internalNodes>
          <leafValues>
            8.5714286565780640e-01 -1.</leafValues></_></weakClassifiers></_>
    <!-- stage 9 -->
    <_>
      <maxWeakCount>2</maxWeakCount>
      <stageThreshold>2.2081018984317780e-01</stageThreshold>
      <weakClassifiers>
        <_>
          <internalNodes>
            0 -1 18 -2.1266748663038015e-03</internalNodes>
          <leafValues>
            9.3650794029235840e-01 -5.7894736528396606e-01</leafValues></_>
        <_>
          <internalNodes>
            0 -1 24 1.3602763647213578e-04</internalNodes>
          <leafValues>
            -7.1569776535034180e-01 8.9070677757263184e-01</leafValues></_></weakClassifiers></_>
    <!-- stage 10 -->
    <_>
      <maxWeakCount>2</maxWeakCount>
      <stageThreshold>3.3289879560470581e-02</stageThreshold>
      <weakClassifiers>
        <_>
          <internalNodes>
            0 -1 22 5.5559305474162102e-03</internalNodes>
          <leafValues>
            -7.5000000000000000e-01 9.0909093618392944e-01</leafValues></_>
        <_>
          <internalNodes>
            0 -1 31 3.2003386877477169e-04</internalNodes>
          <leafValues>
            8.7690681219100952e-01 -8.7580102682113647e-01</leafValues></_></weakClassifiers></_>
    <!-- stage 11 -->
    <_>
      <maxWeakCount>1</maxWeakCount>
      <stageThreshold>9.4029849767684937e-01</stageThreshold>
      <weakClassifiers>
        <_>
          <internalNodes>
            0 -1 1 1.3274266384541988e-03</internalNodes>
          <leafValues>
            9.4029849767684937e-01 -1.</leafValues></_></weakClassifiers></_>
    <!-- stage 12 -->
    <_>
      <maxWeakCount>2</maxWeakCount>
      <stageThreshold>3.2263770699501038e-02</stageThreshold>
      <weakClassifiers>
        <_>
          <internalNodes>
            0 -1 23 4.5945033431053162e-02</internalNodes>
          <leafValues>
            -6.4705884456634521e-01 9.0769231319427490e-01</leafValues></_>
        <_>
          <internalNodes>
            0 -1 27 1.4195605181157589e-03</internalNodes>
          <leafValues>
            8.3916914463043213e-01 -8.7542855739593506e-01</leafValues></_></weakClassifiers></_>
    <!-- stage 13 -->
    <_>
      <maxWeakCount>2</maxWeakCount>
      <stageThreshold>2.2529409825801849e-01</stageThreshold>
      <weakClassifiers>
        <_>
          <internalNodes>
            0 -1 8 -4.1178412735462189e-02</internalNodes>
          <leafValues>
            1. -5.4545456171035767e-01</leafValues></_>
        <_>
          <internalNodes>
            0 -1 3 -6.7644402384757996e-02</internalNodes>
          <leafValues>
            9.2462056875228882e-01 -7.7470588684082031e-01</leafValues></_></weakClassifiers></_>
    <!-- stage 14 -->
    <_>
      <maxWeakCount>1</maxWeakCount>
      <stageThreshold>8.5714286565780640e-01</stageThreshold>
      <weakClassifiers>
        <_>
          <internalNodes>
            0 -1 26 -1.1587044224143028e-02</internalNodes>
          <leafValues>
            -1. 8.5714286565780640e-01</leafValues></_></weakClassifiers></_>
    <!-- stage 15 -->
    <_>
      <maxWeakCount>2</maxWeakCount>
      <stageThreshold>6.9043055176734924e-02</stageThreshold>
      <weakClassifiers>
        <_>
          <internalNodes>
            0 -1 25 1.3640322722494602e-03</internalNodes>
          <leafValues>
            -8.6666667461395264e-01 9.1044777631759644e-01</leafValues></_>
        <_>
          <internalNodes>
            0 -1 21 4.6939699677750468e-04</internalNodes>
          <leafValues>
            -6.3224869966506958e-01 9.3570971488952637e-01</leafValues></_></weakClassifiers></_>
    <!-- stage 16 -->
    <_>
      <maxWeakCount>1</maxWeakCount>
      <stageThreshold>8.3098590373992920e-01</stageThreshold>
      <weakClassifiers>
        <_>
          <internalNodes>
            0 -1 29 -1.6292849322780967e-03</internalNodes>
          <leafValues>
            -1. 8.3098590373992920e-01</leafValues></_></weakClassifiers></_>
    <!-- stage 17 -->
    <_>
      <maxWeakCount>1</maxWeakCount>
      <stageThreshold>8.0555558204650879e-01</stageThreshold>
      <weakClassifiers>
        <_>
          <internalNodes>
            0 -1 10 -3.4803777933120728e-02</internalNodes>
          <leafValues>
            -1. 8.0555558204650879e-01</leafValues></_></weakClassifiers></_>
    <!-- stage 18 -->
    <_>
      <maxWeakCount>1</maxWeakCount>
      <stageThreshold>8.3098590373992920e-01</stageThreshold>
      <weakClassifiers>
        <_>
          <internalNodes>
            0 -1 7 1.5418997500091791e-03</internalNodes>
          <leafValues>
            8.3098590373992920e-01 -1.</leafValues></_></weakClassifiers></_>
    <!-- stage 19 -->
    <_>
      <maxWeakCount>2</maxWeakCount>
      <stageThreshold>1.9806548953056335e-01</stageThreshold>
      <weakClassifiers>
        <_>
          <internalNodes>
            0 -1 16 -7.0642596110701561e-03</internalNodes>
          <leafValues>
            9.3548387289047241e-01 -5.0000000000000000e-01</leafValues></_>
        <_>
          <internalNodes>
            0 -1 17 5.4168180213309824e-05</internalNodes>
          <leafValues>
            -7.3741841316223145e-01 9.2183494567871094e-01</leafValues></_></weakClassifiers></_></stages>
  <features>
    <_>
      <rects>
        <_>
          0 0 4 1 -1.</_>
        <_>
          2 0 2 1 2.</_></rects>
      <tilted>0</tilted></_>
    <_>
      <rects>
        <_>
          0 0 4 2 -1.</_>
        <_>
          2 0 2 2 2.</_></rects>
      <tilted>0</tilted></_>
    <_>
      <rects>
        <_>
          0 0 12 1 -1.</_>
        <_>
          4 0 4 1 3.</_></rects>
      <tilted>0</tilted></_>
    <_>
      <rects>
        <_>
          0 0 12 20 -1.</_>
        <_>
          6 0 6 20 2.</_></rects>
      <tilted>0</tilted></_>
    <_>
      <rects>
        <_>
          0 0 24 1 -1.</_>
        <_>
          8 0 8 1 3.</_></rects>
      <tilted>0</tilted></_>
    <_>
      <rects>
        <_>
          0 0 24 1 -1.</_>
        <_>
          12 0 12 1 2.</_></rects>
      <tilted>0</tilted></_>
    <_>
      <rects>
        <_>
          0 1 3 2 -1.</_>
        <_>
          1 1 1 2 3.</_></rects>
      <tilted>0</tilted></_>
    <_>
      <rects>
        <_>
          0 2 2 22 -1.</_>
        <_>
          0 2 1 11 2.</_>
        <_>
          1 13 1 11 2.</_></rects>
      <tilted>0</tilted></_>
    <_>
      <rects>
        <_>
          0 9 16 5 -1.</_>
        <_>
          8 9 8 5 2.</_></rects>
      <tilted>0</tilted></_>
    <_>
      <rects>
        <_>
          0 18 1 4 -1.</_>
        <_>
          0 20 1 2 2.</_></rects>
      <tilted>0</tilted></_>
    <_>
      <rects>
        <_>
          0 23 24 1 -1.</_>
        <_>
          8 23 8 1 3.</_></rects>
      <tilted>0</tilted></_>
    <_>
      <rects>
        <_>
          1 14 2 8 -1.</_>
        <_>
          2 14 1 8 2.</_></rects>
      <tilted>0</tilted></_>
    <_>
      <rects>
        <_>
          2 1 2 1 -1.</_>
        <_>
          3 1 1 1 2.</_></rects>
      <tilted>0</tilted></_>
    <_>
      <rects>
        <_>
          2 16 3 5 -1.</_>
        <_>
          3 16 1 5 3.</_></rects>
      <tilted>0</tilted></_>
    <_>
      <rects>
        <_>
          2 20 2 2 -1.</_>
        <_>
          2 20 1 1 2.</_>
        <_>
          3 21 1 1 2.</_></rects>
      <tilted>0</tilted></_>
    <_>
      <rects>
        <_>
          4 0 15 2 -1.</_>
        <_>
          4 1 15 1 2.</_></rects>
      <tilted>0</tilted></_>
    <_>
      <rects>
        <_>
          4 17 18 2 -1.</_>
        <_>
          10 17 6 2 3.</_></rects>
      <tilted>0</tilted></_>
    <_>
      <rects>
        <_>
          6 13 11 2 -1.</_>
        <_>
          6 14 11 1 2.</_></rects>
      <tilted>0</tilted></_>
    <_>
      <rects>
        <_>
          7 0 10 2 -1.</_>
        <_>
          7 1 10 1 2.</_></rects>
      <tilted>0</tilted></_>
    <_>
      <rects>
        <_>
          7 0 17 14 -1.</_>
        <_>
          7 7 17 7 2.</_></rects>
      <tilted>0</tilted></_>
    <_>
      <rects>
        <_>
          8 0 7 6 -1.</_>
        <_>
          8 3 7 3 2.</_></rects>
      <tilted>0</tilted></_>
    <_>
      <rects>
        <_>
          8 13 10 2 -1.</_>
        <_>
          8 14 10 1 2.</_></rects>
      <tilted>0</tilted></_>
    <_>
      <rects>
        <_>
          10 0 14 15 -1.</_>
        <_>
          17 0 7 15 2.</_></rects>
      <tilted>0</tilted></_>
    <_>
      <rects>
        <_>
          10 4 14 11 -1.</_>
        <_>
          17 4 7 11 2.</_></rects>
      <tilted>0</tilted></_>
    <_>
      <rects>
        <_>
          11 13 10 6 -1.</_>
        <_>
          11 15 10 2 3.</_></rects>
      <tilted>0</tilted></_>
    <_>
      <rects>
        <_>
          12 6 12 7 -1.</_>
        <_>
          18 6 6 7 2.</_></rects>
      <tilted>0</tilted></_>
    <_>
      <rects>
        <_>
          14 0 6 20 -1.</_>
        <_>
          17 0 3 20 2.</_></rects>
      <tilted>0</tilted></_>
    <_>
      <rects>
        <_>
          19 9 2 9 -1.</_>
        <_>
          19 12 2 3 3.</_></rects>
      <tilted>0</tilted></_>
    <_>
      <rects>
        <_>
          20 1 4 6 -1.</_>
        <_>
          20 3 4 2 3.</_></rects>
      <tilted>0</tilted></_>
    <_>
      <rects>
        <_>
          21 5 3 12 -1.</_>
        <_>
          21 9 3 4 3.</_></rects>
      <tilted>0</tilted></_>
    <_>
      <rects>
        <_>
          21 13 3 11 -1.</_>
        <_>
          22 13 1 11 3.</_></rects>
      <tilted>0</tilted></_>
    <_>
      <rects>
        <_>
          22 8 2 8 -1.</_>
        <_>
          22 8 1 4 2.</_>
        <_>
          23 12 1 4 2.</_></rects>
      <tilted>0</tilted></_></features></cascade>
</opencv_storage>
