<?xml version="1.0"?>
<opencv_storage>
<cascade>
  <stageType>BOOST</stageType>
  <featureType>HAAR</featureType>
  <height>24</height>
  <width>24</width>
  <stageParams>
    <boostType>GAB</boostType>
    <minHitRate>9.9500000476837158e-01</minHitRate>
    <maxFalseAlarm>5.0000000000000000e-01</maxFalseAlarm>
    <weightTrimRate>9.4999998807907104e-01</weightTrimRate>
    <maxDepth>1</maxDepth>
    <maxWeakCount>100</maxWeakCount></stageParams>
  <featureParams>
    <maxCatCount>0</maxCatCount>
    <featSize>1</featSize>
    <mode>BASIC</mode></featureParams>
  <stageNum>20</stageNum>
  <stages>
    <!-- stage 0 -->
    <_>
      <maxWeakCount>3</maxWeakCount>
      <stageThreshold>-5.3504097461700439e-01</stageThreshold>
      <weakClassifiers>
        <_>
          <internalNodes>
            0 -1 147 1.6884651035070419e-02</internalNodes>
          <leafValues>
            -8.7500000000000000e-01 8.5607010126113892e-01</leafValues></_>
        <_>
          <internalNodes>
            0 -1 8 -1.5009614825248718e-01</internalNodes>
          <leafValues>
            7.4250304698944092e-01 -5.5058366060256958e-01</leafValues></_>
        <_>
          <internalNodes>
            0 -1 109 6.8019628524780273e-02</internalNodes>
          <leafValues>
            -2.5188809633255005e-01 8.9054274559020996e-01</leafValues></_></weakClassifiers></_>
    <!-- stage 1 -->
    <_>
      <maxWeakCount>4</maxWeakCount>
      <stageThreshold>-4.7356930375099182e-01</stageThreshold>
      <weakClassifiers>
        <_>
          <internalNodes>
            0 -1 17 -1.7559668421745300e-01</internalNodes>
          <leafValues>
            8.3197492361068726e-01 -7.3289901018142700e-01</leafValues></_>
        <_>
          <internalNodes>
            0 -1 2 1.2402614811435342e-04</internalNodes>
          <leafValues>
            4.8527497053146362e-01 -9.6889770030975342e-01</leafValues></_>
        <_>
          <internalNodes>
            0 -1 132 -5.1893591880798340e-03</internalNodes>
          <leafValues>
            7.3582655191421509e-01 -4.3067201972007751e-01</leafValues></_>
        <_>
          <internalNodes>
            0 -1 175 1.6782882809638977e-01</internalNodes>
          <leafValues>
            -6.2693047523498535e-01 4.9240085482597351e-01</leafValues></_></weakClassifiers></_>
    <!-- stage 2 -->
    <_>
      <maxWeakCount>6</maxWeakCount>
      <stageThreshold>-7.6290529966354370e-01</stageThreshold>
      <weakClassifiers>
        <_>
          <internalNodes>
            0 -1 11 -1.1948572471737862e-02</internalNodes>
          <leafValues>
            7.4790918827056885e-01 -6.5789473056793213e-01</leafValues></_>
        <_>
          <internalNodes>
            0 -1 216 1.1155324318679050e-04</internalNodes>
          <leafValues>
            4.0323325991630554e-01 -9.2566782236099243e-01</leafValues></_>
        <_>
          <internalNodes>
            0 -1 247 1.1806065231212415e-05</internalNodes>
          <leafValues>
            -5.9407663345336914e-01 4.4144058227539063e-01</leafValues></_>
        <_>
          <internalNodes>
            0 -1 70 1.4433243777602911e-03</internalNodes>
          <leafValues>
            -5.1529979705810547e-01 5.7225227355957031e-01</leafValues></_>
        <_>
          <internalNodes>
            0 -1 112 -1.0846660006791353e-03</internalNodes>
          <leafValues>
            6.8721210956573486e-01 -3.8588702678680420e-01</leafValues></_>
        <_>
          <internalNodes>
            0 -1 118 1.9106518011540174e-03</internalNodes>
          <leafValues>
            -4.1878429055213928e-01 6.2030464410781860e-01</leafValues></_></weakClassifiers></_>
    <!-- stage 3 -->
    <_>
      <maxWeakCount>9</maxWeakCount>
      <stageThreshold>-3.6401882767677307e-01</stageThreshold>
      <weakClassifiers>
        <_>
          <internalNodes>
            0 -1 221 6.3904662965796888e-05</internalNodes>
          <leafValues>
            7.2401845455169678e-01 -8.9411765336990356e-01</leafValues></_>
        <_>
          <internalNodes>
            0 -1 149 1.8860501050949097e-01</internalNodes>
          <leafValues>
            -7.4019002914428711e-01 4.3702408671379089e-01</leafValues></_>
        <_>
          <internalNodes>
            0 -1 126 4.2275123298168182e-02</internalNodes>
          <leafValues>
            -3.3889520168304443e-01 6.8343400955200195e-01</leafValues></_>
        <_>
          <internalNodes>
            0 -1 9 -1.8006339669227600e-01</internalNodes>
          <leafValues>
            4.2955785989761353e-01 -6.7133414745330811e-01</leafValues></_>
        <_>
          <internalNodes>
            0 -1 6 -2.1243520313873887e-04</internalNodes>
          <leafValues>
            -8.5059267282485962e-01 2.1425168216228485e-01</leafValues></_>
        <_>
          <internalNodes>
            0 -1 51 5.5151683045551181e-04</internalNodes>
          <leafValues>
            -4.5343267917633057e-01 4.8968210816383362e-01</leafValues></_>
        <_>
          <internalNodes>
            0 -1 267 -1.1129878657811787e-05</internalNodes>
          <leafValues>
            3.9037537574768066e-01 -5.5664056539535522e-01</leafValues></_>
        <_>
          <internalNodes>
            0 -1 107 -8.3033636212348938e-02</internalNodes>
          <leafValues>
            7.6114135980606079e-01 -3.0781680345535278e-01</leafValues></_>
        <_>
          <internalNodes>
            0 -1 97 1.1417679488658905e-01</internalNodes>
          <leafValues>
            -1.9406118988990784e-01 8.6151969432830811e-01</leafValues></_></weakClassifiers></_>
    <!-- stage 4 -->
    <_>
      <maxWeakCount>7</maxWeakCount>
      <stageThreshold>-3.3278205990791321e-01</stageThreshold>
      <weakClassifiers>
        <_>
          <internalNodes>
            0 -1 148 1.3456104695796967e-01</internalNodes>
          <leafValues>
            -6.9377988576889038e-01 7.3656231164932251e-01</leafValues></_>
        <_>
          <internalNodes>
            0 -1 7 2.9236561385914683e-04</internalNodes>
          <leafValues>
            4.1085714101791382e-01 -9.2553490400314331e-01</leafValues></_>
        <_>
          <internalNodes>
            0 -1 222 -1.2272168532945216e-04</internalNodes>
          <leafValues>
            -9.5350521802902222e-01 2.4015271663665771e-01</leafValues></_>
        <_>
          <internalNodes>
            0 -1 113 5.3384201601147652e-03</internalNodes>
          <leafValues>
            -4.1951146721839905e-01 6.6135585308074951e-01</leafValues></_>
        <_>
          <internalNodes>
            0 -1 14 1.2223627709317952e-04</internalNodes>
          <leafValues>
            2.3937234282493591e-01 -9.8443681001663208e-01</leafValues></_>
        <_>
          <internalNodes>
            0 -1 170 -2.0120013505220413e-02</internalNodes>
          <leafValues>
            7.4600052833557129e-01 -3.3215624094009399e-01</leafValues></_>
        <_>
          <internalNodes>
            0 -1 254 3.0466751195490360e-03</internalNodes>
          <leafValues>
            2.2228336334228516e-01 -8.9922279119491577e-01</leafValues></_></weakClassifiers></_>
    <!-- stage 5 -->
    <_>
      <maxWeakCount>7</maxWeakCount>
      <stageThreshold>-5.8471626043319702e-01</stageThreshold>
      <weakClassifiers>
        <_>
          <internalNodes>
            0 -1 16 -3.8316965103149414e-02</internalNodes>
          <leafValues>
            7.2855466604232788e-01 -6.8999999761581421e-01</leafValues></_>
        <_>
          <internalNodes>
            0 -1 187 3.8588352501392365e-02</internalNodes>
          <leafValues>
            -4.9205914139747620e-01 5.0177466869354248e-01</leafValues></_>
        <_>
          <internalNodes>
            0 -1 161 2.0458446815609932e-03</internalNodes>
          <leafValues>
            -3.0436211824417114e-01 6.6174328327178955e-01</leafValues></_>
        <_>
          <internalNodes>
            0 -1 237 3.3047916076611727e-05</internalNodes>
          <leafValues>
            -5.3810924291610718e-01 4.2534136772155762e-01</leafValues></_>
        <_>
          <internalNodes>
            0 -1 209 3.1126957765081897e-05</internalNodes>
          <leafValues>
            -6.3667619228363037e-01 2.7740955352783203e-01</leafValues></_>
        <_>
          <internalNodes>
            0 -1 144 -8.0540799535810947e-04</internalNodes>
          <leafValues>
            5.7294112443923950e-01 -3.9860576391220093e-01</leafValues></_>
        <_>
          <internalNodes>
            0 -1 129 1.1722112540155649e-03</internalNodes>
          <leafValues>
            -3.7398707866668701e-01 5.1239597797393799e-01</leafValues></_></weakClassifiers></_>
    <!-- stage 6 -->
    <_>
      <maxWeakCount>7</maxWeakCount>
      <stageThreshold>-4.8460906744003296e-01</stageThreshold>
      <weakClassifiers>
        <_>
          <internalNodes>
            0 -1 246 1.2327441945672035e-03</internalNodes>
          <leafValues>
            7.1627098321914673e-01 -7.7142858505249023e-01</leafValues></_>
        <_>
          <internalNodes>
            0 -1 68 7.8007527627050877e-03</internalNodes>
          <leafValues>
            -2.7243563532829285e-01 7.0507198572158813e-01</leafValues></_>
        <_>
          <internalNodes>
            0 -1 5 -1.2244371464475989e-04</internalNodes>
          <leafValues>
            -9.2962121963500977e-01 2.9124307632446289e-01</leafValues></_>
        <_>
          <internalNodes>
            0 -1 3 1.3241136912256479e-04</internalNodes>
          <leafValues>
            2.0447938144207001e-01 -8.4771263599395752e-01</leafValues></_>
        <_>
          <internalNodes>
            0 -1 218 -1.1321099009364843e-05</internalNodes>
          <leafValues>
            -7.6243573427200317e-01 2.2678692638874054e-01</leafValues></_>
        <_>
          <internalNodes>
            0 -1 231 -1.6370890079997480e-04</internalNodes>
          <leafValues>
            -8.1698441505432129e-01 1.9664749503135681e-01</leafValues></_>
        <_>
          <internalNodes>
            0 -1 184 -3.1444994965568185e-04</internalNodes>
          <leafValues>
            4.7818717360496521e-01 -3.5990175604820251e-01</leafValues></_></weakClassifiers></_>
    <!-- stage 7 -->
    <_>
      <maxWeakCount>9</maxWeakCount>
      <stageThreshold>-6.6907519102096558e-01</stageThreshold>
      <weakClassifiers>
        <_>
          <internalNodes>
            0 -1 42 1.0823101911228150e-04</internalNodes>
          <leafValues>
            6.8230640888214111e-01 -7.8947371244430542e-01</leafValues></_>
        <_>
          <internalNodes>
            0 -1 162 6.3928361050784588e-03</internalNodes>
          <leafValues>
            -5.0368028879165649e-01 4.7836521267890930e-01</leafValues></_>
        <_>
          <internalNodes>
            0 -1 133 1.7158940434455872e-01</internalNodes>
          <leafValues>
            -2.2194330394268036e-01 8.9535504579544067e-01</leafValues></_>
        <_>
          <internalNodes>
            0 -1 31 -1.6500065976288170e-04</internalNodes>
          <leafValues>
            2.5070744752883911e-01 -6.9687420129776001e-01</leafValues></_>
        <_>
          <internalNodes>
            0 -1 234 -9.7037773230113089e-05</internalNodes>
          <leafValues>
            -8.6857241392135620e-01 1.0314157605171204e-01</leafValues></_>
        <_>
          <internalNodes>
            0 -1 66 -6.1662074585910887e-05</internalNodes>
          <leafValues>
            -9.2195945978164673e-01 1.1246049404144287e-01</leafValues></_>
        <_>
          <internalNodes>
            0 -1 24 2.4056551046669483e-03</internalNodes>
          <leafValues>
            1.0320976376533508e-01 -9.3943887948989868e-01</leafValues></_>
        <_>
          <internalNodes>
            0 -1 77 -2.2419830784201622e-03</internalNodes>
          <leafValues>
            4.1479304432868958e-01 -3.3773192763328552e-01</leafValues></_>
        <_>
          <internalNodes>
            0 -1 253 6.2216728110797703e-05</internalNodes>
          <leafValues>
            1.1416860669851303e-01 -9.3270909786224365e-01</leafValues></_></weakClassifiers></_>
    <!-- stage 8 -->
    <_>
      <maxWeakCount>14</maxWeakCount>
      <stageThreshold>-9.2654496431350708e-01</stageThreshold>
      <weakClassifiers>
        <_>
          <internalNodes>
            0 -1 151 2.1629444381687790e-04</internalNodes>
          <leafValues>
            -8.4946238994598389e-01 6.5284687280654907e-01</leafValues></_>
        <_>
          <internalNodes>
            0 -1 66 6.0697409935528412e-05</internalNodes>
          <leafValues>
            3.7502649426460266e-01 -6.7863982915878296e-01</leafValues></_>
        <_>
          <internalNodes>
            0 -1 124 -3.5097170621156693e-02</internalNodes>
          <leafValues>
            7.6695263385772705e-01 -2.7300751209259033e-01</leafValues></_>
        <_>
          <internalNodes>
            0 -1 152 -1.3692504726350307e-03</internalNodes>
          <leafValues>
            5.2970296144485474e-01 -2.8977563977241516e-01</leafValues></_>
        <_>
          <internalNodes>
            0 -1 236 8.2463338912930340e-05</internalNodes>
          <leafValues>
            -3.8398543000221252e-01 3.5937643051147461e-01</leafValues></_>
        <_>
          <internalNodes>
            0 -1 82 1.3852912001311779e-02</internalNodes>
          <leafValues>
            -2.2198064625263214e-01 6.1260181665420532e-01</leafValues></_>
        <_>
          <internalNodes>
            0 -1 33 -2.9866196215152740e-02</internalNodes>
          <leafValues>
            2.7298840880393982e-01 -5.6635230779647827e-01</leafValues></_>
        <_>
          <internalNodes>
            0 -1 182 2.1058216225355864e-04</internalNodes>
          <leafValues>
            -3.6318904161453247e-01 3.6078023910522461e-01</leafValues></_>
        <_>
          <internalNodes>
            0 -1 166 5.4333880543708801e-03</internalNodes>
          <leafValues>
            -2.5598862767219543e-01 5.1749986410140991e-01</leafValues></_>
        <_>
          <internalNodes>
            0 -1 228 1.5250011347234249e-04</internalNodes>
          <leafValues>
            1.6232194006443024e-01 -8.4753119945526123e-01</leafValues></_>
        <_>
          <internalNodes>
            0 -1 146 1.9876880105584860e-03</internalNodes>
          <leafValues>
            -2.2182691097259521e-01 5.6333935260772705e-01</leafValues></_>
        <_>
          <internalNodes>
            0 -1 180 3.4126034006476402e-03</internalNodes>
          <leafValues>
            -2.4006089568138123e-01 4.1668346524238586e-01</leafValues></_>
        <_>
          <internalNodes>
            0 -1 72 -6.9657430052757263e-02</internalNodes>
          <leafValues>
            5.2901625633239746e-01 -1.9231094419956207e-01</leafValues></_>
        <_>
          <internalNodes>
            0 -1 27 1.1073072673752904e-03</internalNodes>
          <leafValues>
            1.4837577939033508e-01 -8.3111935853958130e-01</leafValues></_></weakClassifiers></_>
    <!-- stage 9 -->
    <_>
      <maxWeakCount>11</maxWeakCount>
      <stageThreshold>-4.7853755950927734e-01</stageThreshold>
      <weakClassifiers>
        <_>
          <internalNodes>
            0 -1 257 -1.6105058602988720e-04</internalNodes>
          <leafValues>
            -6.7441862821578979e-01 6.7061477899551392e-01</leafValues></_>
        <_>
          <internalNodes>
            0 -1 93 -3.0409550527110696e-04</internalNodes>
          <leafValues>
            5.6448817253112793e-01 -3.0937516689300537e-01</leafValues></_>
        <_>
          <internalNodes>
            0 -1 128 2.1493324637413025e-01</internalNodes>
          <leafValues>
            -1.8596628308296204e-01 9.3377935886383057e-01</leafValues></_>
        <_>
          <internalNodes>
            0 -1 10 -3.9750966243445873e-04</internalNodes>
          <leafValues>
            1.8086703121662140e-01 -8.2662910223007202e-01</leafValues></_>
        <_>
          <internalNodes>
            0 -1 265 -2.5790905056055635e-05</internalNodes>
          <leafValues>
            3.2366612553596497e-01 -4.0979436039924622e-01</leafValues></_>
        <_>
          <internalNodes>
            0 -1 171 5.9823994524776936e-04</internalNodes>
          <leafValues>
            -3.8301301002502441e-01 3.7802004814147949e-01</leafValues></_>
        <_>
          <internalNodes>
            0 -1 210 -1.0842892515938729e-04</internalNodes>
          <leafValues>
            -8.5529100894927979e-01 1.3739700615406036e-01</leafValues></_>
        <_>
          <internalNodes>
            0 -1 177 2.3598480224609375e-01</internalNodes>
          <leafValues>
            -4.4678044319152832e-01 2.6808142662048340e-01</leafValues></_>
        <_>
          <internalNodes>
            0 -1 214 2.3755554138915613e-05</internalNodes>
          <leafValues>
            -4.2945671081542969e-01 3.2622021436691284e-01</leafValues></_>
        <_>
          <internalNodes>
            0 -1 53 5.9341891756048426e-05</internalNodes>
          <leafValues>
            1.0281103104352951e-01 -7.9347372055053711e-01</leafValues></_>
        <_>
          <internalNodes>
            0 -1 219 -4.8439818783663213e-05</internalNodes>
          <leafValues>
            -6.0733121633529663e-01 1.3852421939373016e-01</leafValues></_></weakClassifiers></_>
    <!-- stage 10 -->
    <_>
      <maxWeakCount>13</maxWeakCount>
      <stageThreshold>-6.2038999795913696e-01</stageThreshold>
      <weakClassifiers>
        <_>
          <internalNodes>
            0 -1 173 9.4880568212829530e-05</internalNodes>
          <leafValues>
            -2.2608695924282074e-01 6.9019138813018799e-01</leafValues></_>
        <_>
          <internalNodes>
            0 -1 174 8.8299661874771118e-02</internalNodes>
          <leafValues>
            -1.1284273862838745e-01 7.4382001161575317e-01</leafValues></_>
        <_>
          <internalNodes>
            0 -1 18 2.9818707844242454e-05</internalNodes>
          <leafValues>
            -4.4535392522811890e-01 2.9783010482788086e-01</leafValues></_>
        <_>
          <internalNodes>
            0 -1 87 -2.0147512853145599e-01</internalNodes>
          <leafValues>
            6.3242000341415405e-01 -1.7296093702316284e-01</leafValues></_>
        <_>
          <internalNodes>
            0 -1 153 3.8669895729981363e-04</internalNodes>
          <leafValues>
            -3.2977676391601563e-01 3.4439700841903687e-01</leafValues></_>
        <_>
          <internalNodes>
            0 -1 15 -5.6853445130400360e-05</internalNodes>
          <leafValues>
            -7.6705592870712280e-01 1.5985190868377686e-01</leafValues></_>
        <_>
          <internalNodes>
            0 -1 260 -7.8020500950515270e-05</internalNodes>
          <leafValues>
            3.6719584465026855e-01 -3.5594046115875244e-01</leafValues></_>
        <_>
          <internalNodes>
            0 -1 243 -1.7454210319556296e-04</internalNodes>
          <leafValues>
            -7.8973448276519775e-01 1.1043785512447357e-01</leafValues></_>
        <_>
          <internalNodes>
            0 -1 212 2.0743045024573803e-04</internalNodes>
          <leafValues>
            -3.0771583318710327e-01 3.5032221674919128e-01</leafValues></_>
        <_>
          <internalNodes>
            0 -1 21 5.3223520808387548e-05</internalNodes>
          <leafValues>
            8.2711495459079742e-02 -9.2879515886306763e-01</leafValues></_>
        <_>
          <internalNodes>
            0 -1 46 -1.5195682644844055e-02</internalNodes>
          <leafValues>
            -8.5982823371887207e-01 7.4202693998813629e-02</leafValues></_>
        <_>
          <internalNodes>
            0 -1 185 1.7574571538716555e-03</internalNodes>
          <leafValues>
            8.6298756301403046e-02 -7.9686373472213745e-01</leafValues></_>
        <_>
          <internalNodes>
            0 -1 251 9.9437442258931696e-05</internalNodes>
          <leafValues>
            6.0532730072736740e-02 -9.7141766548156738e-01</leafValues></_></weakClassifiers></_>
    <!-- stage 11 -->
    <_>
      <maxWeakCount>20</maxWeakCount>
      <stageThreshold>-5.8493661880493164e-01</stageThreshold>
      <weakClassifiers>
        <_>
          <internalNodes>
            0 -1 205 -1.2130101094953716e-04</internalNodes>
          <leafValues>
            -8.1081080436706543e-01 6.3566738367080688e-01</leafValues></_>
        <_>
          <internalNodes>
            0 -1 115 1.6262337565422058e-01</internalNodes>
          <leafValues>
            -1.3433064520359039e-01 7.3496758937835693e-01</leafValues></_>
        <_>
          <internalNodes>
            0 -1 78 -1.2269773287698627e-04</internalNodes>
          <leafValues>
            3.5361069440841675e-01 -3.7901106476783752e-01</leafValues></_>
        <_>
          <internalNodes>
            0 -1 220 -3.2085074053611606e-05</internalNodes>
          <leafValues>
            4.0969684720039368e-01 -2.5957036018371582e-01</leafValues></_>
        <_>
          <internalNodes>
            0 -1 32 2.5743896141648293e-02</internalNodes>
          <leafValues>
            -2.2995601594448090e-01 4.7726684808731079e-01</leafValues></_>
        <_>
          <internalNodes>
            0 -1 105 -8.2901649875566363e-04</internalNodes>
          <leafValues>
            3.5490417480468750e-01 -2.9648551344871521e-01</leafValues></_>
        <_>
          <internalNodes>
            0 -1 36 -2.6404410600662231e-03</internalNodes>
          <leafValues>
            1.5368592739105225e-01 -6.2035775184631348e-01</leafValues></_>
        <_>
          <internalNodes>
            0 -1 262 -3.0004852305864915e-05</internalNodes>
          <leafValues>
            3.5289970040321350e-01 -2.7885270118713379e-01</leafValues></_>
        <_>
          <internalNodes>
            0 -1 200 -7.8286582720465958e-05</internalNodes>
          <leafValues>
            2.7921408414840698e-01 -3.4014251828193665e-01</leafValues></_>
        <_>
          <internalNodes>
            0 -1 130 1.6399215674027801e-03</internalNodes>
          <leafValues>
            -3.0031123757362366e-01 3.2112941145896912e-01</leafValues></_>
        <_>
          <internalNodes>
            0 -1 261 6.3220526499208063e-05</internalNodes>
          <leafValues>
            1.0522527992725372e-01 -7.6121985912322998e-01</leafValues></_>
        <_>
          <internalNodes>
            0 -1 83 4.8870267346501350e-04</internalNodes>
          <leafValues>
            -2.5933721661567688e-01 3.1358298659324646e-01</leafValues></_>
        <_>
          <internalNodes>
            0 -1 99 2.2366177290678024e-02</internalNodes>
          <leafValues>
            -1.6193951666355133e-01 4.8193553090095520e-01</leafValues></_>
        <_>
          <internalNodes>
            0 -1 60 -1.0373878479003906e-01</internalNodes>
          <leafValues>
            5.4706430435180664e-01 -1.5733368694782257e-01</leafValues></_>
        <_>
          <internalNodes>
            0 -1 1 -7.2972616180777550e-05</internalNodes>
          <leafValues>
            -7.9836249351501465e-01 1.2141181528568268e-01</leafValues></_>
        <_>
          <internalNodes>
            0 -1 80 3.3723600208759308e-02</internalNodes>
          <leafValues>
            -2.2316101193428040e-01 4.0210905671119690e-01</leafValues></_>
        <_>
          <internalNodes>
            0 -1 100 3.4453081898391247e-03</internalNodes>
          <leafValues>
            1.2108530849218369e-01 -6.4601480960845947e-01</leafValues></_>
        <_>
          <internalNodes>
            0 -1 255 3.3379020169377327e-03</internalNodes>
          <leafValues>
            7.3065295815467834e-02 -9.3331211805343628e-01</leafValues></_>
        <_>
          <internalNodes>
            0 -1 183 -4.5492858625948429e-03</internalNodes>
          <leafValues>
            7.3302233219146729e-01 -1.2652906775474548e-01</leafValues></_>
        <_>
          <internalNodes>
            0 -1 199 2.6907403953373432e-03</internalNodes>
          <leafValues>
            -1.6129037737846375e-01 4.1807883977890015e-01</leafValues></_></weakClassifiers></_>
    <!-- stage 12 -->
    <_>
      <maxWeakCount>22</maxWeakCount>
      <stageThreshold>-8.1328147649765015e-01</stageThreshold>
      <weakClassifiers>
        <_>
          <internalNodes>
            0 -1 208 1.2261317169759423e-04</internalNodes>
          <leafValues>
            7.3496662080287933e-02 7.3571920394897461e-01</leafValues></_>
        <_>
          <internalNodes>
            0 -1 48 -1.2025301903486252e-01</internalNodes>
          <leafValues>
            7.5934308767318726e-01 -6.9962948560714722e-02</leafValues></_>
        <_>
          <internalNodes>
            0 -1 38 1.9470546976663172e-04</internalNodes>
          <leafValues>
            2.2104054689407349e-01 -5.7985830307006836e-01</leafValues></_>
        <_>
          <internalNodes>
            0 -1 150 -7.3187700472772121e-03</internalNodes>
          <leafValues>
            4.1708585619926453e-01 -2.5811555981636047e-01</leafValues></_>
        <_>
          <internalNodes>
            0 -1 74 -1.9936481118202209e-01</internalNodes>
          <leafValues>
            7.2738724946975708e-01 -1.8746246397495270e-01</leafValues></_>
        <_>
          <internalNodes>
            0 -1 244 1.0996983291988727e-05</internalNodes>
          <leafValues>
            1.6733671724796295e-01 -6.1590826511383057e-01</leafValues></_>
        <_>
          <internalNodes>
            0 -1 71 9.8618620540946722e-04</internalNodes>
          <leafValues>
            -3.5288995504379272e-01 2.2633849084377289e-01</leafValues></_>
        <_>
          <internalNodes>
            0 -1 10 -2.6928581064566970e-04</internalNodes>
          <leafValues>
            9.7155869007110596e-02 -8.4116333723068237e-01</leafValues></_>
        <_>
          <internalNodes>
            0 -1 235 -1.0494744856259786e-05</internalNodes>
          <leafValues>
            -8.0054771900177002e-01 8.8061012327671051e-02</leafValues></_>
        <_>
          <internalNodes>
            0 -1 43 -5.2834348753094673e-04</internalNodes>
          <leafValues>
            5.8083552122116089e-01 -1.5702515840530396e-01</leafValues></_>
        <_>
          <internalNodes>
            0 -1 201 2.6177083782386035e-05</internalNodes>
          <leafValues>
            -4.7408238053321838e-01 2.1083842217922211e-01</leafValues></_>
        <_>
          <internalNodes>
            0 -1 0 5.9990794397890568e-05</internalNodes>
          <leafValues>
            1.0244788974523544e-01 -8.5547041893005371e-01</leafValues></_>
        <_>
          <internalNodes>
            0 -1 56 3.4747799509204924e-04</internalNodes>
          <leafValues>
            -2.6902613043785095e-01 3.2166144251823425e-01</leafValues></_>
        <_>
          <internalNodes>
            0 -1 119 -2.5645794812589884e-04</internalNodes>
          <leafValues>
            2.7035766839981079e-01 -2.7337744832038879e-01</leafValues></_>
        <_>
          <internalNodes>
            0 -1 157 6.1113564297556877e-03</internalNodes>
          <leafValues>
            1.3562606275081635e-01 -6.0515570640563965e-01</leafValues></_>
        <_>
          <internalNodes>
            0 -1 240 -5.0114074838347733e-05</internalNodes>
          <leafValues>
            -6.6345942020416260e-01 9.9594779312610626e-02</leafValues></_>
        <_>
          <internalNodes>
            0 -1 246 6.6670123487710953e-05</internalNodes>
          <leafValues>
            -3.0313709378242493e-01 2.4515996873378754e-01</leafValues></_>
        <_>
          <internalNodes>
            0 -1 193 5.7386851403862238e-04</internalNodes>
          <leafValues>
            -2.2900587320327759e-01 3.6276021599769592e-01</leafValues></_>
        <_>
          <internalNodes>
            0 -1 89 1.7467267811298370e-01</internalNodes>
          <leafValues>
            -1.6220997273921967e-01 6.3755565881729126e-01</leafValues></_>
        <_>
          <internalNodes>
            0 -1 229 -6.9572997745126486e-05</internalNodes>
          <leafValues>
            -5.3799575567245483e-01 1.6616708040237427e-01</leafValues></_>
        <_>
          <internalNodes>
            0 -1 179 -3.6452524363994598e-04</internalNodes>
          <leafValues>
            3.3958628773689270e-01 -2.3069638013839722e-01</leafValues></_>
        <_>
          <internalNodes>
            0 -1 226 6.6342559875920415e-05</internalNodes>
          <leafValues>
            9.4988636672496796e-02 -8.5273402929306030e-01</leafValues></_></weakClassifiers></_>
    <!-- stage 13 -->
    <_>
      <maxWeakCount>21</maxWeakCount>
      <stageThreshold>-6.4006572961807251e-01</stageThreshold>
      <weakClassifiers>
        <_>
          <internalNodes>
            0 -1 40 3.1139445491135120e-04</internalNodes>
          <leafValues>
            -3.4482758492231369e-02 7.1685969829559326e-01</leafValues></_>
        <_>
          <internalNodes>
            0 -1 136 -8.0539554357528687e-02</internalNodes>
          <leafValues>
            6.9846928119659424e-01 -8.3138242363929749e-02</leafValues></_>
        <_>
          <internalNodes>
            0 -1 211 1.7337668396066874e-04</internalNodes>
          <leafValues>
            -4.1015648841857910e-01 2.6904925704002380e-01</leafValues></_>
        <_>
          <internalNodes>
            0 -1 22 -4.9082410987466574e-04</internalNodes>
          <leafValues>
            2.2787988185882568e-01 -3.5944631695747375e-01</leafValues></_>
        <_>
          <internalNodes>
            0 -1 67 -2.8429150581359863e-01</internalNodes>
          <leafValues>
            7.0733296871185303e-01 -1.5248951315879822e-01</leafValues></_>
        <_>
          <internalNodes>
            0 -1 155 6.0585597530007362e-03</internalNodes>
          <leafValues>
            -2.7091112732887268e-01 3.7852975726127625e-01</leafValues></_>
        <_>
          <internalNodes>
            0 -1 28 -3.2520420849323273e-02</internalNodes>
          <leafValues>
            1.7543877661228180e-01 -5.1048970222473145e-01</leafValues></_>
        <_>
          <internalNodes>
            0 -1 249 1.5556905418634415e-04</internalNodes>
          <leafValues>
            -3.6383324861526489e-01 2.1684628725051880e-01</leafValues></_>
        <_>
          <internalNodes>
            0 -1 194 -3.6849617026746273e-04</internalNodes>
          <leafValues>
            3.5724714398384094e-01 -2.3926924169063568e-01</leafValues></_>
        <_>
          <internalNodes>
            0 -1 138 -4.0645394474267960e-03</internalNodes>
          <leafValues>
            -5.6846839189529419e-01 1.3601362705230713e-01</leafValues></_>
        <_>
          <internalNodes>
            0 -1 37 7.9901859862729907e-05</internalNodes>
          <leafValues>
            5.7807285338640213e-02 -9.6359670162200928e-01</leafValues></_>
        <_>
          <internalNodes>
            0 -1 117 -7.3528272332623601e-04</internalNodes>
          <leafValues>
            2.5947827100753784e-01 -2.7580478787422180e-01</leafValues></_>
        <_>
          <internalNodes>
            0 -1 135 1.3951676664873958e-03</internalNodes>
          <leafValues>
            9.8624661564826965e-02 -6.8940395116806030e-01</leafValues></_>
        <_>
          <internalNodes>
            0 -1 52 1.0386382200522348e-05</internalNodes>
          <leafValues>
            1.2109978497028351e-01 -4.9723967909812927e-01</leafValues></_>
        <_>
          <internalNodes>
            0 -1 224 1.7190998187288642e-04</internalNodes>
          <leafValues>
            -2.2895748913288116e-01 3.3263388276100159e-01</leafValues></_>
        <_>
          <internalNodes>
            0 -1 256 2.0326091907918453e-03</internalNodes>
          <leafValues>
            1.2113210558891296e-01 -7.1075254678726196e-01</leafValues></_>
        <_>
          <internalNodes>
            0 -1 122 3.3211845904588699e-02</internalNodes>
          <leafValues>
            -1.0346505045890808e-01 7.5192028284072876e-01</leafValues></_>
        <_>
          <internalNodes>
            0 -1 142 1.8613696098327637e-02</internalNodes>
          <leafValues>
            -1.4295306801795959e-01 5.2729815244674683e-01</leafValues></_>
        <_>
          <internalNodes>
            0 -1 26 -3.7572465371340513e-03</internalNodes>
          <leafValues>
            -8.2219123840332031e-01 9.5850504934787750e-02</leafValues></_>
        <_>
          <internalNodes>
            0 -1 88 -5.8180908672511578e-04</internalNodes>
          <leafValues>
            2.7448242902755737e-01 -2.5454640388488770e-01</leafValues></_>
        <_>
          <internalNodes>
            0 -1 57 8.5874814540147781e-03</internalNodes>
          <leafValues>
            -1.6110630333423615e-01 4.8730748891830444e-01</leafValues></_></weakClassifiers></_>
    <!-- stage 14 -->
    <_>
      <maxWeakCount>20</maxWeakCount>
      <stageThreshold>-4.1196057200431824e-01</stageThreshold>
      <weakClassifiers>
        <_>
          <internalNodes>
            0 -1 248 6.4132141415029764e-04</internalNodes>
          <leafValues>
            6.3298743963241577e-01 -8.0281692743301392e-01</leafValues></_>
        <_>
          <internalNodes>
            0 -1 163 1.1695331335067749e-01</internalNodes>
          <leafValues>
            -9.2771500349044800e-02 7.3040145635604858e-01</leafValues></_>
        <_>
          <internalNodes>
            0 -1 160 1.6413799021393061e-03</internalNodes>
          <leafValues>
            -1.9291685521602631e-01 5.5173325538635254e-01</leafValues></_>
        <_>
          <internalNodes>
            0 -1 19 -3.8334268331527710e-01</internalNodes>
          <leafValues>
            4.3912452459335327e-01 -2.8125995397567749e-01</leafValues></_>
        <_>
          <internalNodes>
            0 -1 227 -1.1038069715141319e-05</internalNodes>
          <leafValues>
            -6.7077916860580444e-01 1.2935961782932281e-01</leafValues></_>
        <_>
          <internalNodes>
            0 -1 75 -1.1730310320854187e-01</internalNodes>
          <leafValues>
            5.4592502117156982e-01 -1.6276074945926666e-01</leafValues></_>
        <_>
          <internalNodes>
            0 -1 154 5.3896233439445496e-03</internalNodes>
          <leafValues>
            -1.9524215161800385e-01 4.8264515399932861e-01</leafValues></_>
        <_>
          <internalNodes>
            0 -1 127 1.4930543256923556e-03</internalNodes>
          <leafValues>
            -3.6869108676910400e-01 2.1125724911689758e-01</leafValues></_>
        <_>
          <internalNodes>
            0 -1 242 -9.0746310888789594e-05</internalNodes>
          <leafValues>
            3.3213031291961670e-01 -2.5944858789443970e-01</leafValues></_>
        <_>
          <internalNodes>
            0 -1 96 -3.8593482226133347e-02</internalNodes>
          <leafValues>
            8.2604247331619263e-01 -1.0612650215625763e-01</leafValues></_>
        <_>
          <internalNodes>
            0 -1 73 -5.9375014156103134e-02</internalNodes>
          <leafValues>
            5.8650982379913330e-01 -1.2195896357297897e-01</leafValues></_>
        <_>
          <internalNodes>
            0 -1 259 -5.9798934671562165e-05</internalNodes>
          <leafValues>
            -7.8867882490158081e-01 1.1560846865177155e-01</leafValues></_>
        <_>
          <internalNodes>
            0 -1 123 6.5812990069389343e-02</internalNodes>
          <leafValues>
            -1.1740488559007645e-01 8.1319022178649902e-01</leafValues></_>
        <_>
          <internalNodes>
            0 -1 114 1.3980658352375031e-01</internalNodes>
          <leafValues>
            -7.8798800706863403e-01 1.0178432613611221e-01</leafValues></_>
        <_>
          <internalNodes>
            0 -1 106 -2.5117572396993637e-02</internalNodes>
          <leafValues>
            -6.5214061737060547e-01 9.3508146703243256e-02</leafValues></_>
        <_>
          <internalNodes>
            0 -1 41 -2.0017905626446009e-04</internalNodes>
          <leafValues>
            8.8781200349330902e-02 -6.8255776166915894e-01</leafValues></_>
        <_>
          <internalNodes>
            0 -1 232 -8.2999635196756572e-05</internalNodes>
          <leafValues>
            -8.1002891063690186e-01 7.0118166506290436e-02</leafValues></_>
        <_>
          <internalNodes>
            0 -1 111 -7.8079372644424438e-02</internalNodes>
          <leafValues>
            8.0041944980621338e-01 -1.0344303399324417e-01</leafValues></_>
        <_>
          <internalNodes>
            0 -1 110 4.8908963799476624e-02</internalNodes>
          <leafValues>
            -1.5169440209865570e-01 5.3186291456222534e-01</leafValues></_>
        <_>
          <internalNodes>
            0 -1 65 -1.0565709999355022e-05</internalNodes>
          <leafValues>
            -4.8466163873672485e-01 1.5606239438056946e-01</leafValues></_></weakClassifiers></_>
    <!-- stage 15 -->
    <_>
      <maxWeakCount>21</maxWeakCount>
      <stageThreshold>-6.5508913993835449e-01</stageThreshold>
      <weakClassifiers>
        <_>
          <internalNodes>
            0 -1 25 1.3953727902844548e-03</internalNodes>
          <leafValues>
            6.2095034122467041e-01 -9.5999997854232788e-01</leafValues></_>
        <_>
          <internalNodes>
            0 -1 160 1.1823687236756086e-03</internalNodes>
          <leafValues>
            -1.2004064768552780e-01 5.7747578620910645e-01</leafValues></_>
        <_>
          <internalNodes>
            0 -1 34 -5.9931639581918716e-02</internalNodes>
          <leafValues>
            7.0622181892395020e-01 -1.4591684937477112e-01</leafValues></_>
        <_>
          <internalNodes>
            0 -1 250 2.6753818383440375e-04</internalNodes>
          <leafValues>
            -3.5596871376037598e-01 2.8516861796379089e-01</leafValues></_>
        <_>
          <internalNodes>
            0 -1 203 -3.4840479202102870e-05</internalNodes>
          <leafValues>
            3.0005747079849243e-01 -3.3704608678817749e-01</leafValues></_>
        <_>
          <internalNodes>
            0 -1 230 -2.3975209333002567e-03</internalNodes>
          <leafValues>
            -4.2668360471725464e-01 1.6539759933948517e-01</leafValues></_>
        <_>
          <internalNodes>
            0 -1 81 6.1436984688043594e-02</internalNodes>
          <leafValues>
            -1.0458403080701828e-01 7.6477074623107910e-01</leafValues></_>
        <_>
          <internalNodes>
            0 -1 64 -1.4184333849698305e-04</internalNodes>
          <leafValues>
            1.5698745846748352e-01 -4.9236434698104858e-01</leafValues></_>
        <_>
          <internalNodes>
            0 -1 134 4.1420433670282364e-02</internalNodes>
          <leafValues>
            -1.4913168549537659e-01 5.2695995569229126e-01</leafValues></_>
        <_>
          <internalNodes>
            0 -1 190 -3.9826540159992874e-04</internalNodes>
          <leafValues>
            3.6387446522712708e-01 -1.9692642986774445e-01</leafValues></_>
        <_>
          <internalNodes>
            0 -1 159 3.9220749749802053e-04</internalNodes>
          <leafValues>
            -3.4257018566131592e-01 2.1139922738075256e-01</leafValues></_>
        <_>
          <internalNodes>
            0 -1 23 1.2224657693877816e-03</internalNodes>
          <leafValues>
            8.6250908672809601e-02 -8.0248034000396729e-01</leafValues></_>
        <_>
          <internalNodes>
            0 -1 101 2.1155904978513718e-03</internalNodes>
          <leafValues>
            8.6649015545845032e-02 -6.6049832105636597e-01</leafValues></_>
        <_>
          <internalNodes>
            0 -1 58 1.0905600902333390e-05</internalNodes>
          <leafValues>
            1.1168725043535233e-01 -5.5458807945251465e-01</leafValues></_>
        <_>
          <internalNodes>
            0 -1 108 -1.4898380637168884e-01</internalNodes>
          <leafValues>
            4.9807098507881165e-01 -1.4276330173015594e-01</leafValues></_>
        <_>
          <internalNodes>
            0 -1 186 -2.0781069993972778e-02</internalNodes>
          <leafValues>
            4.3055975437164307e-01 -1.6872987151145935e-01</leafValues></_>
        <_>
          <internalNodes>
            0 -1 95 1.7058789730072021e-02</internalNodes>
          <leafValues>
            -9.5538556575775146e-02 7.0261818170547485e-01</leafValues></_>
        <_>
          <internalNodes>
            0 -1 12 -2.3774862289428711e-01</internalNodes>
          <leafValues>
            3.7563309073448181e-01 -1.9159755110740662e-01</leafValues></_>
        <_>
          <internalNodes>
            0 -1 197 -6.9307978264987469e-05</internalNodes>
          <leafValues>
            -7.6987886428833008e-01 9.8344504833221436e-02</leafValues></_>
        <_>
          <internalNodes>
            0 -1 267 -2.6542729756329209e-05</internalNodes>
          <leafValues>
            2.2546727955341339e-01 -3.2928726077079773e-01</leafValues></_>
        <_>
          <internalNodes>
            0 -1 258 -5.5004325986374170e-05</internalNodes>
          <leafValues>
            -7.6635748147964478e-01 8.2761190831661224e-02</leafValues></_></weakClassifiers></_>
    <!-- stage 16 -->
    <_>
      <maxWeakCount>21</maxWeakCount>
      <stageThreshold>-5.6826078891754150e-01</stageThreshold>
      <weakClassifiers>
        <_>
          <internalNodes>
            0 -1 213 3.5739845770876855e-05</internalNodes>
          <leafValues>
            6.1349691823124886e-03 6.9796955585479736e-01</leafValues></_>
        <_>
          <internalNodes>
            0 -1 178 5.9921178035438061e-04</internalNodes>
          <leafValues>
            -1.7359200119972229e-01 4.9728453159332275e-01</leafValues></_>
        <_>
          <internalNodes>
            0 -1 252 3.0194543796824291e-05</internalNodes>
          <leafValues>
            -3.4622552990913391e-01 2.7142488956451416e-01</leafValues></_>
        <_>
          <internalNodes>
            0 -1 104 3.2360844314098358e-02</internalNodes>
          <leafValues>
            -1.4160507917404175e-01 6.4319127798080444e-01</leafValues></_>
        <_>
          <internalNodes>
            0 -1 49 1.6888761892914772e-03</internalNodes>
          <leafValues>
            -3.2377651333808899e-01 2.3573020100593567e-01</leafValues></_>
        <_>
          <internalNodes>
            0 -1 225 -2.5345627364004031e-05</internalNodes>
          <leafValues>
            -8.4289854764938354e-01 8.5931390523910522e-02</leafValues></_>
        <_>
          <internalNodes>
            0 -1 125 -3.8628978654742241e-03</internalNodes>
          <leafValues>
            5.7664352655410767e-01 -1.5052229166030884e-01</leafValues></_>
        <_>
          <internalNodes>
            0 -1 45 -8.0825644545257092e-04</internalNodes>
          <leafValues>
            3.3904474973678589e-01 -2.1034599840641022e-01</leafValues></_>
        <_>
          <internalNodes>
            0 -1 145 1.4432413736358285e-03</internalNodes>
          <leafValues>
            -2.0864942669868469e-01 3.7828484177589417e-01</leafValues></_>
        <_>
          <internalNodes>
            0 -1 102 4.8699080944061279e-03</internalNodes>
          <leafValues>
            1.4514818787574768e-01 -5.9495496749877930e-01</leafValues></_>
        <_>
          <internalNodes>
            0 -1 165 -3.1211245805025101e-02</internalNodes>
          <leafValues>
            6.3724231719970703e-01 -1.2207752466201782e-01</leafValues></_>
        <_>
          <internalNodes>
            0 -1 47 -1.0033668950200081e-02</internalNodes>
          <leafValues>
            -8.4654748439788818e-01 9.1791450977325439e-02</leafValues></_>
        <_>
          <internalNodes>
            0 -1 59 -8.9210662990808487e-03</internalNodes>
          <leafValues>
            -6.8728566169738770e-01 8.1285282969474792e-02</leafValues></_>
        <_>
          <internalNodes>
            0 -1 223 -7.9048026236705482e-05</internalNodes>
          <leafValues>
            -6.6179901361465454e-01 9.0562984347343445e-02</leafValues></_>
        <_>
          <internalNodes>
            0 -1 265 -3.2491741876583546e-05</internalNodes>
          <leafValues>
            2.3288913071155548e-01 -3.0209094285964966e-01</leafValues></_>
        <_>
          <internalNodes>
            0 -1 263 4.5934106310596690e-05</internalNodes>
          <leafValues>
            1.0741262137889862e-01 -6.5421587228775024e-01</leafValues></_>
        <_>
          <internalNodes>
            0 -1 168 -3.9399941451847553e-03</internalNodes>
          <leafValues>
            -5.6938594579696655e-01 1.1079014837741852e-01</leafValues></_>
        <_>
          <internalNodes>
            0 -1 6 -2.1649344125762582e-04</internalNodes>
          <leafValues>
            -8.5324341058731079e-01 6.9445654749870300e-02</leafValues></_>
        <_>
          <internalNodes>
            0 -1 191 8.8729884009808302e-04</internalNodes>
          <leafValues>
            -4.2057916522026062e-01 1.4985312521457672e-01</leafValues></_>
        <_>
          <internalNodes>
            0 -1 76 2.3850452899932861e-01</internalNodes>
          <leafValues>
            -1.4038197696208954e-01 5.1793199777603149e-01</leafValues></_>
        <_>
          <internalNodes>
            0 -1 215 1.0172390466323122e-04</internalNodes>
          <leafValues>
            -3.3272242546081543e-01 2.4305693805217743e-01</leafValues></_></weakClassifiers></_>
    <!-- stage 17 -->
    <_>
      <maxWeakCount>21</maxWeakCount>
      <stageThreshold>-4.9616733193397522e-01</stageThreshold>
      <weakClassifiers>
        <_>
          <internalNodes>
            0 -1 55 -2.0166191458702087e-01</internalNodes>
          <leafValues>
            6.8369829654693604e-01 -8.5271321237087250e-02</leafValues></_>
        <_>
          <internalNodes>
            0 -1 188 8.8667357340455055e-04</internalNodes>
          <leafValues>
            -1.4913211762905121e-01 5.4344469308853149e-01</leafValues></_>
        <_>
          <internalNodes>
            0 -1 264 -2.8788905183319002e-05</internalNodes>
          <leafValues>
            4.0702688694000244e-01 -3.0444031953811646e-01</leafValues></_>
        <_>
          <internalNodes>
            0 -1 198 5.3089373977854848e-04</internalNodes>
          <leafValues>
            3.4621974825859070e-01 -3.2059124112129211e-01</leafValues></_>
        <_>
          <internalNodes>
            0 -1 86 -3.9633631706237793e-02</internalNodes>
          <leafValues>
            6.3006830215454102e-01 -1.9461238384246826e-01</leafValues></_>
        <_>
          <internalNodes>
            0 -1 29 -1.7231320089194924e-04</internalNodes>
          <leafValues>
            2.0930708944797516e-01 -5.6696063280105591e-01</leafValues></_>
        <_>
          <internalNodes>
            0 -1 176 1.2492722831666470e-02</internalNodes>
          <leafValues>
            -1.9934737682342529e-01 5.2808761596679688e-01</leafValues></_>
        <_>
          <internalNodes>
            0 -1 164 3.8762257900089025e-03</internalNodes>
          <leafValues>
            -2.2420270740985870e-01 4.7890821099281311e-01</leafValues></_>
        <_>
          <internalNodes>
            0 -1 266 -4.7502995585091412e-05</internalNodes>
          <leafValues>
            -6.8074589967727661e-01 1.2585678696632385e-01</leafValues></_>
        <_>
          <internalNodes>
            0 -1 39 7.0768495788797736e-05</internalNodes>
          <leafValues>
            -3.4850028157234192e-01 2.3213945329189301e-01</leafValues></_>
        <_>
          <internalNodes>
            0 -1 62 -4.2668692767620087e-02</internalNodes>
          <leafValues>
            5.6347268819808960e-01 -1.3572050631046295e-01</leafValues></_>
        <_>
          <internalNodes>
            0 -1 50 -5.8808196627069265e-05</internalNodes>
          <leafValues>
            -4.1475725173950195e-01 1.9508463144302368e-01</leafValues></_>
        <_>
          <internalNodes>
            0 -1 172 8.5657270392403007e-04</internalNodes>
          <leafValues>
            -1.6088326275348663e-01 5.2395009994506836e-01</leafValues></_>
        <_>
          <internalNodes>
            0 -1 206 -1.8926418852061033e-04</internalNodes>
          <leafValues>
            -8.9809030294418335e-01 9.8427250981330872e-02</leafValues></_>
        <_>
          <internalNodes>
            0 -1 131 -5.1020039245486259e-04</internalNodes>
          <leafValues>
            3.0357140302658081e-01 -2.8168788552284241e-01</leafValues></_>
        <_>
          <internalNodes>
            0 -1 217 6.5266664023511112e-05</internalNodes>
          <leafValues>
            1.1935412883758545e-01 -6.5970623493194580e-01</leafValues></_>
        <_>
          <internalNodes>
            0 -1 13 -4.4298973679542542e-01</internalNodes>
          <leafValues>
            4.8473194241523743e-01 -1.7563667893409729e-01</leafValues></_>
        <_>
          <internalNodes>
            0 -1 239 2.2079306654632092e-04</internalNodes>
          <leafValues>
            -2.5165155529975891e-01 3.2732376456260681e-01</leafValues></_>
        <_>
          <internalNodes>
            0 -1 233 7.9343750257976353e-05</internalNodes>
          <leafValues>
            1.4324106276035309e-01 -5.3248786926269531e-01</leafValues></_>
        <_>
          <internalNodes>
            0 -1 69 -9.8021526355296373e-05</internalNodes>
          <leafValues>
            3.0755299329757690e-01 -2.4160964787006378e-01</leafValues></_>
        <_>
          <internalNodes>
            0 -1 189 4.9767486751079559e-02</internalNodes>
          <leafValues>
            -9.9470041692256927e-02 7.3340499401092529e-01</leafValues></_></weakClassifiers></_>
    <!-- stage 18 -->
    <_>
      <maxWeakCount>23</maxWeakCount>
      <stageThreshold>-4.7858121991157532e-01</stageThreshold>
      <weakClassifiers>
        <_>
          <internalNodes>
            0 -1 4 2.4678679183125496e-03</internalNodes>
          <leafValues>
            6.1182796955108643e-01 -8.5714286565780640e-01</leafValues></_>
        <_>
          <internalNodes>
            0 -1 202 1.1695672583300620e-04</internalNodes>
          <leafValues>
            -1.7992512881755829e-01 4.4959405064582825e-01</leafValues></_>
        <_>
          <internalNodes>
            0 -1 79 -9.5145449042320251e-02</internalNodes>
          <leafValues>
            4.3176594376564026e-01 -2.2168622910976410e-01</leafValues></_>
        <_>
          <internalNodes>
            0 -1 246 3.2113675842992961e-05</internalNodes>
          <leafValues>
            -3.9542707800865173e-01 2.4419245123863220e-01</leafValues></_>
        <_>
          <internalNodes>
            0 -1 91 -1.0325030889362097e-03</internalNodes>
          <leafValues>
            3.1352853775024414e-01 -3.1955030560493469e-01</leafValues></_>
        <_>
          <internalNodes>
            0 -1 85 -1.3905025552958250e-03</internalNodes>
          <leafValues>
            3.7763965129852295e-01 -2.4958883225917816e-01</leafValues></_>
        <_>
          <internalNodes>
            0 -1 84 1.2008666526526213e-03</internalNodes>
          <leafValues>
            -3.4879252314567566e-01 2.4839371442794800e-01</leafValues></_>
        <_>
          <internalNodes>
            0 -1 103 8.5862986743450165e-03</internalNodes>
          <leafValues>
            -1.7014487087726593e-01 4.9569350481033325e-01</leafValues></_>
        <_>
          <internalNodes>
            0 -1 98 -2.0688301324844360e-01</internalNodes>
          <leafValues>
            7.5116759538650513e-01 -7.8905008733272552e-02</leafValues></_>
        <_>
          <internalNodes>
            0 -1 121 9.1905421868432313e-05</internalNodes>
          <leafValues>
            -2.2515498101711273e-01 3.1644910573959351e-01</leafValues></_>
        <_>
          <internalNodes>
            0 -1 241 1.1172490303579252e-05</internalNodes>
          <leafValues>
            1.6520626842975616e-01 -4.2065680027008057e-01</leafValues></_>
        <_>
          <internalNodes>
            0 -1 116 -3.6940333666279912e-04</internalNodes>
          <leafValues>
            3.7147611379623413e-01 -2.0617741346359253e-01</leafValues></_>
        <_>
          <internalNodes>
            0 -1 204 3.1795825634617358e-05</internalNodes>
          <leafValues>
            -4.7935920953750610e-01 1.4210574328899384e-01</leafValues></_>
        <_>
          <internalNodes>
            0 -1 192 3.7564098834991455e-02</internalNodes>
          <leafValues>
            -1.1173479259014130e-01 6.0214591026306152e-01</leafValues></_>
        <_>
          <internalNodes>
            0 -1 44 -2.7975108241662383e-04</internalNodes>
          <leafValues>
            7.9381030797958374e-01 -7.5574718415737152e-02</leafValues></_>
        <_>
          <internalNodes>
            0 -1 30 5.4548472689930350e-05</internalNodes>
          <leafValues>
            1.2759675085544586e-01 -6.9683504104614258e-01</leafValues></_>
        <_>
          <internalNodes>
            0 -1 140 -1.3584955595433712e-02</internalNodes>
          <leafValues>
            -7.7608388662338257e-01 7.3279201984405518e-02</leafValues></_>
        <_>
          <internalNodes>
            0 -1 141 7.7636949717998505e-03</internalNodes>
          <leafValues>
            -1.5548451244831085e-01 4.2299461364746094e-01</leafValues></_>
        <_>
          <internalNodes>
            0 -1 137 3.5677768290042877e-02</internalNodes>
          <leafValues>
            -1.2251737713813782e-01 6.2360817193984985e-01</leafValues></_>
        <_>
          <internalNodes>
            0 -1 90 3.3653723075985909e-03</internalNodes>
          <leafValues>
            -1.5823164582252502e-01 3.6120277643203735e-01</leafValues></_>
        <_>
          <internalNodes>
            0 -1 245 -2.3513304768130183e-05</internalNodes>
          <leafValues>
            3.0878397822380066e-01 -1.9926498830318451e-01</leafValues></_>
        <_>
          <internalNodes>
            0 -1 143 7.7958106994628906e-03</internalNodes>
          <leafValues>
            -1.9387446343898773e-01 3.4808552265167236e-01</leafValues></_>
        <_>
          <internalNodes>
            0 -1 139 6.4909104257822037e-03</internalNodes>
          <leafValues>
            1.3237471878528595e-01 -5.2312916517257690e-01</leafValues></_></weakClassifiers></_>
    <!-- stage 19 -->
    <_>
      <maxWeakCount>17</maxWeakCount>
      <stageThreshold>-3.9860191941261292e-01</stageThreshold>
      <weakClassifiers>
        <_>
          <internalNodes>
            0 -1 195 3.1977560138329864e-04</internalNodes>
          <leafValues>
            -5.0761420279741287e-03 7.3209547996520996e-01</leafValues></_>
        <_>
          <internalNodes>
            0 -1 63 -1.2565994262695313e-01</internalNodes>
          <leafValues>
            7.5617814064025879e-01 -1.2106435745954514e-01</leafValues></_>
        <_>
          <internalNodes>
            0 -1 207 3.2452290179207921e-04</internalNodes>
          <leafValues>
            -3.2962277531623840e-01 3.7798219919204712e-01</leafValues></_>
        <_>
          <internalNodes>
            0 -1 20 -1.9108483195304871e-01</internalNodes>
          <leafValues>
            6.8338125944137573e-01 -1.4185443520545959e-01</leafValues></_>
        <_>
          <internalNodes>
            0 -1 92 2.2630146145820618e-01</internalNodes>
          <leafValues>
            -8.6478263139724731e-02 7.9967707395553589e-01</leafValues></_>
        <_>
          <internalNodes>
            0 -1 35 1.4882406685501337e-04</internalNodes>
          <leafValues>
            -2.3483996093273163e-01 3.1101143360137939e-01</leafValues></_>
        <_>
          <internalNodes>
            0 -1 158 1.3484679162502289e-02</internalNodes>
          <leafValues>
            -1.4580072462558746e-01 4.8536023497581482e-01</leafValues></_>
        <_>
          <internalNodes>
            0 -1 156 -6.6463407129049301e-03</internalNodes>
          <leafValues>
            -5.7525396347045898e-01 1.2393294274806976e-01</leafValues></_>
        <_>
          <internalNodes>
            0 -1 54 7.1106874383985996e-04</internalNodes>
          <leafValues>
            -1.0082115232944489e-01 7.4741393327713013e-01</leafValues></_>
        <_>
          <internalNodes>
            0 -1 120 -1.6478758770972490e-03</internalNodes>
          <leafValues>
            -7.9503315687179565e-01 1.0106269270181656e-01</leafValues></_>
        <_>
          <internalNodes>
            0 -1 181 5.2839261479675770e-03</internalNodes>
          <leafValues>
            6.9960057735443115e-02 -8.3810323476791382e-01</leafValues></_>
        <_>
          <internalNodes>
            0 -1 196 -5.9038484323536977e-05</internalNodes>
          <leafValues>
            2.8817471861839294e-01 -2.3295927047729492e-01</leafValues></_>
        <_>
          <internalNodes>
            0 -1 238 -7.2746086516417563e-05</internalNodes>
          <leafValues>
            -9.7088378667831421e-01 7.3064737021923065e-02</leafValues></_>
        <_>
          <internalNodes>
            0 -1 94 1.5516658313572407e-03</internalNodes>
          <leafValues>
            6.2597043812274933e-02 -8.3246034383773804e-01</leafValues></_>
        <_>
          <internalNodes>
            0 -1 169 8.8796047493815422e-03</internalNodes>
          <leafValues>
            8.5395656526088715e-02 -6.6503077745437622e-01</leafValues></_>
        <_>
          <internalNodes>
            0 -1 61 2.4365223944187164e-02</internalNodes>
          <leafValues>
            -1.2905600666999817e-01 5.6707310676574707e-01</leafValues></_>
        <_>
          <internalNodes>
            0 -1 167 5.7864929549396038e-03</internalNodes>
          <leafValues>
            1.0507888346910477e-01 -7.6553344726562500e-01</leafValues></_></weakClassifiers></_></stages>
  <features>
    <_>
      <rects>
        <_>
          0 0 3 1 -1.</_>
        <_>
          1 0 1 1 3.</_></rects>
      <tilted>0</tilted></_>
    <_>
      <rects>
        <_>
          0 0 3 2 -1.</_>
        <_>
          1 0 1 2 3.</_></rects>
      <tilted>0</tilted></_>
    <_>
      <rects>
        <_>
          0 0 2 4 -1.</_>
        <_>
          0 0 1 2 2.</_>
        <_>
          1 2 1 2 2.</_></rects>
      <tilted>0</tilted></_>
    <_>
      <rects>
        <_>
          0 0 3 3 -1.</_>
        <_>
          1 0 1 3 3.</_></rects>
      <tilted>0</tilted></_>
    <_>
      <rects>
        <_>
          0 0 1 9 -1.</_>
        <_>
          0 3 1 3 3.</_></rects>
      <tilted>0</tilted></_>
    <_>
      <rects>
        <_>
          0 0 3 4 -1.</_>
        <_>
          1 0 1 4 3.</_></rects>
      <tilted>0</tilted></_>
    <_>
      <rects>
        <_>
          0 0 4 1 -1.</_>
        <_>
          2 0 2 1 2.</_></rects>
      <tilted>0</tilted></_>
    <_>
      <rects>
        <_>
          0 0 6 4 -1.</_>
        <_>
          0 0 3 2 2.</_>
        <_>
          3 2 3 2 2.</_></rects>
      <tilted>0</tilted></_>
    <_>
      <rects>
        <_>
          0 0 12 23 -1.</_>
        <_>
          6 0 6 23 2.</_></rects>
      <tilted>0</tilted></_>
    <_>
      <rects>
        <_>
          0 0 12 24 -1.</_>
        <_>
          6 0 6 24 2.</_></rects>
      <tilted>0</tilted></_>
    <_>
      <rects>
        <_>
          0 0 14 1 -1.</_>
        <_>
          7 0 7 1 2.</_></rects>
      <tilted>0</tilted></_>
    <_>
      <rects>
        <_>
          0 0 14 4 -1.</_>
        <_>
          7 0 7 4 2.</_></rects>
      <tilted>0</tilted></_>
    <_>
      <rects>
        <_>
          0 0 16 12 -1.</_>
        <_>
          8 0 8 12 2.</_></rects>
      <tilted>0</tilted></_>
    <_>
      <rects>
        <_>
          0 0 16 22 -1.</_>
        <_>
          8 0 8 22 2.</_></rects>
      <tilted>0</tilted></_>
    <_>
      <rects>
        <_>
          0 1 1 3 -1.</_>
        <_>
          0 2 1 1 3.</_></rects>
      <tilted>0</tilted></_>
    <_>
      <rects>
        <_>
          0 1 3 2 -1.</_>
        <_>
          1 1 1 2 3.</_></rects>
      <tilted>0</tilted></_>
    <_>
      <rects>
        <_>
          0 1 10 23 -1.</_>
        <_>
          5 1 5 23 2.</_></rects>
      <tilted>0</tilted></_>
    <_>
      <rects>
        <_>
          0 1 21 23 -1.</_>
        <_>
          7 1 7 23 3.</_></rects>
      <tilted>0</tilted></_>
    <_>
      <rects>
        <_>
          0 2 6 7 -1.</_>
        <_>
          2 2 2 7 3.</_></rects>
      <tilted>0</tilted></_>
    <_>
      <rects>
        <_>
          0 2 16 22 -1.</_>
        <_>
          8 2 8 22 2.</_></rects>
      <tilted>0</tilted></_>
    <_>
      <rects>
        <_>
          0 3 19 21 -1.</_>
        <_>
          0 10 19 7 3.</_></rects>
      <tilted>0</tilted></_>
    <_>
      <rects>
        <_>
          0 4 2 2 -1.</_>
        <_>
          0 4 1 1 2.</_>
        <_>
          1 5 1 1 2.</_></rects>
      <tilted>0</tilted></_>
    <_>
      <rects>
        <_>
          0 4 14 2 -1.</_>
        <_>
          0 5 14 1 2.</_></rects>
      <tilted>0</tilted></_>
    <_>
      <rects>
        <_>
          0 5 1 18 -1.</_>
        <_>
          0 14 1 9 2.</_></rects>
      <tilted>0</tilted></_>
    <_>
      <rects>
        <_>
          0 9 1 12 -1.</_>
        <_>
          0 13 1 4 3.</_></rects>
      <tilted>0</tilted></_>
    <_>
      <rects>
        <_>
          0 9 2 10 -1.</_>
        <_>
          1 9 1 10 2.</_></rects>
      <tilted>0</tilted></_>
    <_>
      <rects>
        <_>
          0 9 10 2 -1.</_>
        <_>
          0 9 5 1 2.</_>
        <_>
          5 10 5 1 2.</_></rects>
      <tilted>0</tilted></_>
    <_>
      <rects>
        <_>
          0 13 1 9 -1.</_>
        <_>
          0 16 1 3 3.</_></rects>
      <tilted>0</tilted></_>
    <_>
      <rects>
        <_>
          0 13 18 8 -1.</_>
        <_>
          6 13 6 8 3.</_></rects>
      <tilted>0</tilted></_>
    <_>
      <rects>
        <_>
          0 14 8 1 -1.</_>
        <_>
          4 14 4 1 2.</_></rects>
      <tilted>0</tilted></_>
    <_>
      <rects>
        <_>
          0 15 1 3 -1.</_>
        <_>
          0 16 1 1 3.</_></rects>
      <tilted>0</tilted></_>
    <_>
      <rects>
        <_>
          0 15 8 3 -1.</_>
        <_>
          4 15 4 3 2.</_></rects>
      <tilted>0</tilted></_>
    <_>
      <rects>
        <_>
          0 16 18 8 -1.</_>
        <_>
          0 20 18 4 2.</_></rects>
      <tilted>0</tilted></_>
    <_>
      <rects>
        <_>
          0 17 18 7 -1.</_>
        <_>
          6 17 6 7 3.</_></rects>
      <tilted>0</tilted></_>
    <_>
      <rects>
        <_>
          0 20 24 1 -1.</_>
        <_>
          8 20 8 1 3.</_></rects>
      <tilted>0</tilted></_>
    <_>
      <rects>
        <_>
          0 22 7 2 -1.</_>
        <_>
          0 23 7 1 2.</_></rects>
      <tilted>0</tilted></_>
    <_>
      <rects>
        <_>
          0 23 24 1 -1.</_>
        <_>
          8 23 8 1 3.</_></rects>
      <tilted>0</tilted></_>
    <_>
      <rects>
        <_>
          1 0 2 4 -1.</_>
        <_>
          1 0 1 2 2.</_>
        <_>
          2 2 1 2 2.</_></rects>
      <tilted>0</tilted></_>
    <_>
      <rects>
        <_>
          1 0 6 1 -1.</_>
        <_>
          3 0 2 1 3.</_></rects>
      <tilted>0</tilted></_>
    <_>
      <rects>
        <_>
          1 0 2 12 -1.</_>
        <_>
          1 4 2 4 3.</_></rects>
      <tilted>0</tilted></_>
    <_>
      <rects>
        <_>
          1 0 12 1 -1.</_>
        <_>
          5 0 4 1 3.</_></rects>
      <tilted>0</tilted></_>
    <_>
      <rects>
        <_>
          1 0 14 1 -1.</_>
        <_>
          8 0 7 1 2.</_></rects>
      <tilted>0</tilted></_>
    <_>
      <rects>
        <_>
          1 1 2 6 -1.</_>
        <_>
          1 1 1 3 2.</_>
        <_>
          2 4 1 3 2.</_></rects>
      <tilted>0</tilted></_>
    <_>
      <rects>
        <_>
          1 1 5 2 -1.</_>
        <_>
          1 2 5 1 2.</_></rects>
      <tilted>0</tilted></_>
    <_>
      <rects>
        <_>
          1 3 2 2 -1.</_>
        <_>
          1 4 2 1 2.</_></rects>
      <tilted>0</tilted></_>
    <_>
      <rects>
        <_>
          1 6 6 6 -1.</_>
        <_>
          1 8 6 2 3.</_></rects>
      <tilted>0</tilted></_>
    <_>
      <rects>
        <_>
          1 7 2 14 -1.</_>
        <_>
          1 14 2 7 2.</_></rects>
      <tilted>0</tilted></_>
    <_>
      <rects>
        <_>
          1 9 2 15 -1.</_>
        <_>
          1 14 2 5 3.</_></rects>
      <tilted>0</tilted></_>
    <_>
      <rects>
        <_>
          1 12 17 12 -1.</_>
        <_>
          1 18 17 6 2.</_></rects>
      <tilted>0</tilted></_>
    <_>
      <rects>
        <_>
          1 20 23 4 -1.</_>
        <_>
          1 22 23 2 2.</_></rects>
      <tilted>0</tilted></_>
    <_>
      <rects>
        <_>
          1 22 3 2 -1.</_>
        <_>
          2 22 1 2 3.</_></rects>
      <tilted>0</tilted></_>
    <_>
      <rects>
        <_>
          1 22 11 2 -1.</_>
        <_>
          1 23 11 1 2.</_></rects>
      <tilted>0</tilted></_>
    <_>
      <rects>
        <_>
          2 0 2 4 -1.</_>
        <_>
          2 0 1 2 2.</_>
        <_>
          3 2 1 2 2.</_></rects>
      <tilted>0</tilted></_>
    <_>
      <rects>
        <_>
          2 0 4 2 -1.</_>
        <_>
          2 0 2 1 2.</_>
        <_>
          4 1 2 1 2.</_></rects>
      <tilted>0</tilted></_>
    <_>
      <rects>
        <_>
          2 0 2 6 -1.</_>
        <_>
          2 3 2 3 2.</_></rects>
      <tilted>0</tilted></_>
    <_>
      <rects>
        <_>
          2 0 18 23 -1.</_>
        <_>
          8 0 6 23 3.</_></rects>
      <tilted>0</tilted></_>
    <_>
      <rects>
        <_>
          2 1 3 9 -1.</_>
        <_>
          2 4 3 3 3.</_></rects>
      <tilted>0</tilted></_>
    <_>
      <rects>
        <_>
          2 1 7 9 -1.</_>
        <_>
          2 4 7 3 3.</_></rects>
      <tilted>0</tilted></_>
    <_>
      <rects>
        <_>
          2 2 2 2 -1.</_>
        <_>
          2 2 1 1 2.</_>
        <_>
          3 3 1 1 2.</_></rects>
      <tilted>0</tilted></_>
    <_>
      <rects>
        <_>
          2 3 12 3 -1.</_>
        <_>
          2 4 12 1 3.</_></rects>
      <tilted>0</tilted></_>
    <_>
      <rects>
        <_>
          2 4 15 18 -1.</_>
        <_>
          2 10 15 6 3.</_></rects>
      <tilted>0</tilted></_>
    <_>
      <rects>
        <_>
          2 5 16 4 -1.</_>
        <_>
          2 5 8 2 2.</_>
        <_>
          10 7 8 2 2.</_></rects>
      <tilted>0</tilted></_>
    <_>
      <rects>
        <_>
          2 10 8 14 -1.</_>
        <_>
          2 10 4 7 2.</_>
        <_>
          6 17 4 7 2.</_></rects>
      <tilted>0</tilted></_>
    <_>
      <rects>
        <_>
          2 10 17 14 -1.</_>
        <_>
          2 17 17 7 2.</_></rects>
      <tilted>0</tilted></_>
    <_>
      <rects>
        <_>
          2 19 6 1 -1.</_>
        <_>
          5 19 3 1 2.</_></rects>
      <tilted>0</tilted></_>
    <_>
      <rects>
        <_>
          3 0 2 1 -1.</_>
        <_>
          4 0 1 1 2.</_></rects>
      <tilted>0</tilted></_>
    <_>
      <rects>
        <_>
          3 0 3 1 -1.</_>
        <_>
          4 0 1 1 3.</_></rects>
      <tilted>0</tilted></_>
    <_>
      <rects>
        <_>
          3 0 15 24 -1.</_>
        <_>
          3 8 15 8 3.</_></rects>
      <tilted>0</tilted></_>
    <_>
      <rects>
        <_>
          3 5 12 4 -1.</_>
        <_>
          3 5 6 2 2.</_>
        <_>
          9 7 6 2 2.</_></rects>
      <tilted>0</tilted></_>
    <_>
      <rects>
        <_>
          3 9 2 1 -1.</_>
        <_>
          4 9 1 1 2.</_></rects>
      <tilted>0</tilted></_>
    <_>
      <rects>
        <_>
          3 22 16 2 -1.</_>
        <_>
          3 23 16 1 2.</_></rects>
      <tilted>0</tilted></_>
    <_>
      <rects>
        <_>
          3 22 18 2 -1.</_>
        <_>
          3 23 18 1 2.</_></rects>
      <tilted>0</tilted></_>
    <_>
      <rects>
        <_>
          4 0 20 18 -1.</_>
        <_>
          4 6 20 6 3.</_></rects>
      <tilted>0</tilted></_>
    <_>
      <rects>
        <_>
          4 3 14 8 -1.</_>
        <_>
          4 7 14 4 2.</_></rects>
      <tilted>0</tilted></_>
    <_>
      <rects>
        <_>
          4 3 14 21 -1.</_>
        <_>
          4 10 14 7 3.</_></rects>
      <tilted>0</tilted></_>
    <_>
      <rects>
        <_>
          4 3 16 14 -1.</_>
        <_>
          4 10 16 7 2.</_></rects>
      <tilted>0</tilted></_>
    <_>
      <rects>
        <_>
          4 3 17 21 -1.</_>
        <_>
          4 10 17 7 3.</_></rects>
      <tilted>0</tilted></_>
    <_>
      <rects>
        <_>
          4 4 15 2 -1.</_>
        <_>
          4 5 15 1 2.</_></rects>
      <tilted>0</tilted></_>
    <_>
      <rects>
        <_>
          4 7 3 2 -1.</_>
        <_>
          4 8 3 1 2.</_></rects>
      <tilted>0</tilted></_>
    <_>
      <rects>
        <_>
          4 9 15 14 -1.</_>
        <_>
          4 16 15 7 2.</_></rects>
      <tilted>0</tilted></_>
    <_>
      <rects>
        <_>
          4 10 17 12 -1.</_>
        <_>
          4 14 17 4 3.</_></rects>
      <tilted>0</tilted></_>
    <_>
      <rects>
        <_>
          4 15 15 9 -1.</_>
        <_>
          4 18 15 3 3.</_></rects>
      <tilted>0</tilted></_>
    <_>
      <rects>
        <_>
          4 16 13 6 -1.</_>
        <_>
          4 18 13 2 3.</_></rects>
      <tilted>0</tilted></_>
    <_>
      <rects>
        <_>
          4 22 5 2 -1.</_>
        <_>
          4 23 5 1 2.</_></rects>
      <tilted>0</tilted></_>
    <_>
      <rects>
        <_>
          4 22 20 2 -1.</_>
        <_>
          4 23 20 1 2.</_></rects>
      <tilted>0</tilted></_>
    <_>
      <rects>
        <_>
          5 0 6 2 -1.</_>
        <_>
          5 0 3 1 2.</_>
        <_>
          8 1 3 1 2.</_></rects>
      <tilted>0</tilted></_>
    <_>
      <rects>
        <_>
          5 0 18 1 -1.</_>
        <_>
          11 0 6 1 3.</_></rects>
      <tilted>0</tilted></_>
    <_>
      <rects>
        <_>
          5 0 16 24 -1.</_>
        <_>
          5 8 16 8 3.</_></rects>
      <tilted>0</tilted></_>
    <_>
      <rects>
        <_>
          5 1 4 2 -1.</_>
        <_>
          5 2 4 1 2.</_></rects>
      <tilted>0</tilted></_>
    <_>
      <rects>
        <_>
          5 1 14 21 -1.</_>
        <_>
          5 8 14 7 3.</_></rects>
      <tilted>0</tilted></_>
    <_>
      <rects>
        <_>
          5 3 4 6 -1.</_>
        <_>
          5 5 4 2 3.</_></rects>
      <tilted>0</tilted></_>
    <_>
      <rects>
        <_>
          5 4 1 6 -1.</_>
        <_>
          5 7 1 3 2.</_></rects>
      <tilted>0</tilted></_>
    <_>
      <rects>
        <_>
          5 4 13 18 -1.</_>
        <_>
          5 10 13 6 3.</_></rects>
      <tilted>0</tilted></_>
    <_>
      <rects>
        <_>
          5 5 2 4 -1.</_>
        <_>
          5 7 2 2 2.</_></rects>
      <tilted>0</tilted></_>
    <_>
      <rects>
        <_>
          5 12 2 2 -1.</_>
        <_>
          5 12 1 1 2.</_>
        <_>
          6 13 1 1 2.</_></rects>
      <tilted>0</tilted></_>
    <_>
      <rects>
        <_>
          6 0 12 1 -1.</_>
        <_>
          12 0 6 1 2.</_></rects>
      <tilted>0</tilted></_>
    <_>
      <rects>
        <_>
          6 0 18 1 -1.</_>
        <_>
          12 0 6 1 3.</_></rects>
      <tilted>0</tilted></_>
    <_>
      <rects>
        <_>
          6 3 10 21 -1.</_>
        <_>
          6 10 10 7 3.</_></rects>
      <tilted>0</tilted></_>
    <_>
      <rects>
        <_>
          6 3 11 21 -1.</_>
        <_>
          6 10 11 7 3.</_></rects>
      <tilted>0</tilted></_>
    <_>
      <rects>
        <_>
          6 3 13 8 -1.</_>
        <_>
          6 7 13 4 2.</_></rects>
      <tilted>0</tilted></_>
    <_>
      <rects>
        <_>
          6 9 4 3 -1.</_>
        <_>
          6 10 4 1 3.</_></rects>
      <tilted>0</tilted></_>
    <_>
      <rects>
        <_>
          6 12 4 2 -1.</_>
        <_>
          6 12 2 1 2.</_>
        <_>
          8 13 2 1 2.</_></rects>
      <tilted>0</tilted></_>
    <_>
      <rects>
        <_>
          6 23 18 1 -1.</_>
        <_>
          12 23 6 1 3.</_></rects>
      <tilted>0</tilted></_>
    <_>
      <rects>
        <_>
          7 1 6 4 -1.</_>
        <_>
          9 1 2 4 3.</_></rects>
      <tilted>0</tilted></_>
    <_>
      <rects>
        <_>
          7 1 4 14 -1.</_>
        <_>
          7 1 2 7 2.</_>
        <_>
          9 8 2 7 2.</_></rects>
      <tilted>0</tilted></_>
    <_>
      <rects>
        <_>
          7 1 3 2 -1.</_>
        <_>
          7 2 3 1 2.</_></rects>
      <tilted>0</tilted></_>
    <_>
      <rects>
        <_>
          7 3 3 20 -1.</_>
        <_>
          8 3 1 20 3.</_></rects>
      <tilted>0</tilted></_>
    <_>
      <rects>
        <_>
          7 3 13 21 -1.</_>
        <_>
          7 10 13 7 3.</_></rects>
      <tilted>0</tilted></_>
    <_>
      <rects>
        <_>
          7 3 14 21 -1.</_>
        <_>
          7 10 14 7 3.</_></rects>
      <tilted>0</tilted></_>
    <_>
      <rects>
        <_>
          7 4 11 18 -1.</_>
        <_>
          7 10 11 6 3.</_></rects>
      <tilted>0</tilted></_>
    <_>
      <rects>
        <_>
          7 14 15 10 -1.</_>
        <_>
          7 19 15 5 2.</_></rects>
      <tilted>0</tilted></_>
    <_>
      <rects>
        <_>
          7 16 12 8 -1.</_>
        <_>
          7 20 12 4 2.</_></rects>
      <tilted>0</tilted></_>
    <_>
      <rects>
        <_>
          8 0 3 2 -1.</_>
        <_>
          8 1 3 1 2.</_></rects>
      <tilted>0</tilted></_>
    <_>
      <rects>
        <_>
          8 0 6 4 -1.</_>
        <_>
          8 0 3 2 2.</_>
        <_>
          11 2 3 2 2.</_></rects>
      <tilted>0</tilted></_>
    <_>
      <rects>
        <_>
          8 0 16 21 -1.</_>
        <_>
          16 0 8 21 2.</_></rects>
      <tilted>0</tilted></_>
    <_>
      <rects>
        <_>
          8 0 11 24 -1.</_>
        <_>
          8 8 11 8 3.</_></rects>
      <tilted>0</tilted></_>
    <_>
      <rects>
        <_>
          8 1 1 2 -1.</_>
        <_>
          8 2 1 1 2.</_></rects>
      <tilted>0</tilted></_>
    <_>
      <rects>
        <_>
          8 2 14 2 -1.</_>
        <_>
          8 2 7 1 2.</_>
        <_>
          15 3 7 1 2.</_></rects>
      <tilted>0</tilted></_>
    <_>
      <rects>
        <_>
          8 2 8 3 -1.</_>
        <_>
          8 3 8 1 3.</_></rects>
      <tilted>0</tilted></_>
    <_>
      <rects>
        <_>
          8 4 3 2 -1.</_>
        <_>
          8 5 3 1 2.</_></rects>
      <tilted>0</tilted></_>
    <_>
      <rects>
        <_>
          8 11 2 2 -1.</_>
        <_>
          8 11 1 1 2.</_>
        <_>
          9 12 1 1 2.</_></rects>
      <tilted>0</tilted></_>
    <_>
      <rects>
        <_>
          8 11 1 6 -1.</_>
        <_>
          8 13 1 2 3.</_></rects>
      <tilted>0</tilted></_>
    <_>
      <rects>
        <_>
          8 14 5 9 -1.</_>
        <_>
          8 17 5 3 3.</_></rects>
      <tilted>0</tilted></_>
    <_>
      <rects>
        <_>
          8 14 16 8 -1.</_>
        <_>
          8 14 8 4 2.</_>
        <_>
          16 18 8 4 2.</_></rects>
      <tilted>0</tilted></_>
    <_>
      <rects>
        <_>
          8 15 9 9 -1.</_>
        <_>
          8 18 9 3 3.</_></rects>
      <tilted>0</tilted></_>
    <_>
      <rects>
        <_>
          9 0 6 2 -1.</_>
        <_>
          9 0 3 1 2.</_>
        <_>
          12 1 3 1 2.</_></rects>
      <tilted>0</tilted></_>
    <_>
      <rects>
        <_>
          9 0 4 24 -1.</_>
        <_>
          9 8 4 8 3.</_></rects>
      <tilted>0</tilted></_>
    <_>
      <rects>
        <_>
          9 0 15 1 -1.</_>
        <_>
          14 0 5 1 3.</_></rects>
      <tilted>0</tilted></_>
    <_>
      <rects>
        <_>
          9 0 6 24 -1.</_>
        <_>
          9 8 6 8 3.</_></rects>
      <tilted>0</tilted></_>
    <_>
      <rects>
        <_>
          9 2 6 3 -1.</_>
        <_>
          9 3 6 1 3.</_></rects>
      <tilted>0</tilted></_>
    <_>
      <rects>
        <_>
          9 2 8 3 -1.</_>
        <_>
          9 3 8 1 3.</_></rects>
      <tilted>0</tilted></_>
    <_>
      <rects>
        <_>
          9 3 3 2 -1.</_>
        <_>
          9 4 3 1 2.</_></rects>
      <tilted>0</tilted></_>
    <_>
      <rects>
        <_>
          9 3 5 6 -1.</_>
        <_>
          9 5 5 2 3.</_></rects>
      <tilted>0</tilted></_>
    <_>
      <rects>
        <_>
          9 3 8 21 -1.</_>
        <_>
          9 10 8 7 3.</_></rects>
      <tilted>0</tilted></_>
    <_>
      <rects>
        <_>
          9 4 15 8 -1.</_>
        <_>
          9 8 15 4 2.</_></rects>
      <tilted>0</tilted></_>
    <_>
      <rects>
        <_>
          9 11 2 2 -1.</_>
        <_>
          9 11 1 1 2.</_>
        <_>
          10 12 1 1 2.</_></rects>
      <tilted>0</tilted></_>
    <_>
      <rects>
        <_>
          9 11 10 12 -1.</_>
        <_>
          9 17 10 6 2.</_></rects>
      <tilted>0</tilted></_>
    <_>
      <rects>
        <_>
          9 12 6 12 -1.</_>
        <_>
          9 16 6 4 3.</_></rects>
      <tilted>0</tilted></_>
    <_>
      <rects>
        <_>
          9 12 14 2 -1.</_>
        <_>
          9 13 14 1 2.</_></rects>
      <tilted>0</tilted></_>
    <_>
      <rects>
        <_>
          9 16 6 2 -1.</_>
        <_>
          12 16 3 2 2.</_></rects>
      <tilted>0</tilted></_>
    <_>
      <rects>
        <_>
          9 17 9 1 -1.</_>
        <_>
          12 17 3 1 3.</_></rects>
      <tilted>0</tilted></_>
    <_>
      <rects>
        <_>
          9 17 3 6 -1.</_>
        <_>
          9 20 3 3 2.</_></rects>
      <tilted>0</tilted></_>
    <_>
      <rects>
        <_>
          9 18 6 6 -1.</_>
        <_>
          9 21 6 3 2.</_></rects>
      <tilted>0</tilted></_>
    <_>
      <rects>
        <_>
          9 20 14 4 -1.</_>
        <_>
          9 22 14 2 2.</_></rects>
      <tilted>0</tilted></_>
    <_>
      <rects>
        <_>
          10 0 2 2 -1.</_>
        <_>
          10 1 2 1 2.</_></rects>
      <tilted>0</tilted></_>
    <_>
      <rects>
        <_>
          10 0 4 2 -1.</_>
        <_>
          10 0 2 1 2.</_>
        <_>
          12 1 2 1 2.</_></rects>
      <tilted>0</tilted></_>
    <_>
      <rects>
        <_>
          10 0 4 2 -1.</_>
        <_>
          10 1 4 1 2.</_></rects>
      <tilted>0</tilted></_>
    <_>
      <rects>
        <_>
          10 0 14 7 -1.</_>
        <_>
          17 0 7 7 2.</_></rects>
      <tilted>0</tilted></_>
    <_>
      <rects>
        <_>
          10 0 14 23 -1.</_>
        <_>
          17 0 7 23 2.</_></rects>
      <tilted>0</tilted></_>
    <_>
      <rects>
        <_>
          10 0 14 24 -1.</_>
        <_>
          17 0 7 24 2.</_></rects>
      <tilted>0</tilted></_>
    <_>
      <rects>
        <_>
          10 3 4 6 -1.</_>
        <_>
          10 5 4 2 3.</_></rects>
      <tilted>0</tilted></_>
    <_>
      <rects>
        <_>
          10 3 14 1 -1.</_>
        <_>
          17 3 7 1 2.</_></rects>
      <tilted>0</tilted></_>
    <_>
      <rects>
        <_>
          10 4 3 3 -1.</_>
        <_>
          10 5 3 1 3.</_></rects>
      <tilted>0</tilted></_>
    <_>
      <rects>
        <_>
          10 5 2 4 -1.</_>
        <_>
          10 7 2 2 2.</_></rects>
      <tilted>0</tilted></_>
    <_>
      <rects>
        <_>
          10 5 3 4 -1.</_>
        <_>
          10 7 3 2 2.</_></rects>
      <tilted>0</tilted></_>
    <_>
      <rects>
        <_>
          10 5 5 9 -1.</_>
        <_>
          10 8 5 3 3.</_></rects>
      <tilted>0</tilted></_>
    <_>
      <rects>
        <_>
          10 6 3 5 -1.</_>
        <_>
          11 6 1 5 3.</_></rects>
      <tilted>0</tilted></_>
    <_>
      <rects>
        <_>
          10 12 6 2 -1.</_>
        <_>
          12 12 2 2 3.</_></rects>
      <tilted>0</tilted></_>
    <_>
      <rects>
        <_>
          10 16 3 8 -1.</_>
        <_>
          10 20 3 4 2.</_></rects>
      <tilted>0</tilted></_>
    <_>
      <rects>
        <_>
          10 22 10 2 -1.</_>
        <_>
          10 23 10 1 2.</_></rects>
      <tilted>0</tilted></_>
    <_>
      <rects>
        <_>
          11 0 2 2 -1.</_>
        <_>
          11 1 2 1 2.</_></rects>
      <tilted>0</tilted></_>
    <_>
      <rects>
        <_>
          11 0 2 4 -1.</_>
        <_>
          11 2 2 2 2.</_></rects>
      <tilted>0</tilted></_>
    <_>
      <rects>
        <_>
          11 0 8 2 -1.</_>
        <_>
          15 0 4 2 2.</_></rects>
      <tilted>0</tilted></_>
    <_>
      <rects>
        <_>
          11 0 4 24 -1.</_>
        <_>
          11 8 4 8 3.</_></rects>
      <tilted>0</tilted></_>
    <_>
      <rects>
        <_>
          11 1 3 8 -1.</_>
        <_>
          12 1 1 8 3.</_></rects>
      <tilted>0</tilted></_>
    <_>
      <rects>
        <_>
          11 1 6 5 -1.</_>
        <_>
          13 1 2 5 3.</_></rects>
      <tilted>0</tilted></_>
    <_>
      <rects>
        <_>
          11 2 9 6 -1.</_>
        <_>
          11 4 9 2 3.</_></rects>
      <tilted>0</tilted></_>
    <_>
      <rects>
        <_>
          11 6 3 2 -1.</_>
        <_>
          12 6 1 2 3.</_></rects>
      <tilted>0</tilted></_>
    <_>
      <rects>
        <_>
          11 10 6 4 -1.</_>
        <_>
          11 10 3 2 2.</_>
        <_>
          14 12 3 2 2.</_></rects>
      <tilted>0</tilted></_>
    <_>
      <rects>
        <_>
          11 11 6 2 -1.</_>
        <_>
          13 11 2 2 3.</_></rects>
      <tilted>0</tilted></_>
    <_>
      <rects>
        <_>
          11 13 3 10 -1.</_>
        <_>
          11 18 3 5 2.</_></rects>
      <tilted>0</tilted></_>
    <_>
      <rects>
        <_>
          11 22 13 2 -1.</_>
        <_>
          11 23 13 1 2.</_></rects>
      <tilted>0</tilted></_>
    <_>
      <rects>
        <_>
          12 0 2 2 -1.</_>
        <_>
          12 0 1 1 2.</_>
        <_>
          13 1 1 1 2.</_></rects>
      <tilted>0</tilted></_>
    <_>
      <rects>
        <_>
          12 0 12 1 -1.</_>
        <_>
          16 0 4 1 3.</_></rects>
      <tilted>0</tilted></_>
    <_>
      <rects>
        <_>
          12 0 5 24 -1.</_>
        <_>
          12 8 5 8 3.</_></rects>
      <tilted>0</tilted></_>
    <_>
      <rects>
        <_>
          12 0 12 23 -1.</_>
        <_>
          18 0 6 23 2.</_></rects>
      <tilted>0</tilted></_>
    <_>
      <rects>
        <_>
          12 1 6 4 -1.</_>
        <_>
          14 1 2 4 3.</_></rects>
      <tilted>0</tilted></_>
    <_>
      <rects>
        <_>
          12 1 12 23 -1.</_>
        <_>
          18 1 6 23 2.</_></rects>
      <tilted>0</tilted></_>
    <_>
      <rects>
        <_>
          12 2 2 2 -1.</_>
        <_>
          12 3 2 1 2.</_></rects>
      <tilted>0</tilted></_>
    <_>
      <rects>
        <_>
          12 3 2 2 -1.</_>
        <_>
          12 4 2 1 2.</_></rects>
      <tilted>0</tilted></_>
    <_>
      <rects>
        <_>
          12 4 2 9 -1.</_>
        <_>
          12 7 2 3 3.</_></rects>
      <tilted>0</tilted></_>
    <_>
      <rects>
        <_>
          12 6 3 2 -1.</_>
        <_>
          13 6 1 2 3.</_></rects>
      <tilted>0</tilted></_>
    <_>
      <rects>
        <_>
          12 22 7 2 -1.</_>
        <_>
          12 23 7 1 2.</_></rects>
      <tilted>0</tilted></_>
    <_>
      <rects>
        <_>
          13 0 6 2 -1.</_>
        <_>
          13 0 3 1 2.</_>
        <_>
          16 1 3 1 2.</_></rects>
      <tilted>0</tilted></_>
    <_>
      <rects>
        <_>
          13 4 2 2 -1.</_>
        <_>
          13 5 2 1 2.</_></rects>
      <tilted>0</tilted></_>
    <_>
      <rects>
        <_>
          13 11 2 2 -1.</_>
        <_>
          13 11 1 1 2.</_>
        <_>
          14 12 1 1 2.</_></rects>
      <tilted>0</tilted></_>
    <_>
      <rects>
        <_>
          13 14 6 10 -1.</_>
        <_>
          13 19 6 5 2.</_></rects>
      <tilted>0</tilted></_>
    <_>
      <rects>
        <_>
          13 16 10 8 -1.</_>
        <_>
          18 16 5 8 2.</_></rects>
      <tilted>0</tilted></_>
    <_>
      <rects>
        <_>
          14 0 6 2 -1.</_>
        <_>
          14 0 3 1 2.</_>
        <_>
          17 1 3 1 2.</_></rects>
      <tilted>0</tilted></_>
    <_>
      <rects>
        <_>
          14 3 5 12 -1.</_>
        <_>
          14 9 5 6 2.</_></rects>
      <tilted>0</tilted></_>
    <_>
      <rects>
        <_>
          14 6 3 2 -1.</_>
        <_>
          14 7 3 1 2.</_></rects>
      <tilted>0</tilted></_>
    <_>
      <rects>
        <_>
          15 5 4 12 -1.</_>
        <_>
          17 5 2 12 2.</_></rects>
      <tilted>0</tilted></_>
    <_>
      <rects>
        <_>
          15 10 8 14 -1.</_>
        <_>
          15 10 4 7 2.</_>
        <_>
          19 17 4 7 2.</_></rects>
      <tilted>0</tilted></_>
    <_>
      <rects>
        <_>
          16 4 6 4 -1.</_>
        <_>
          16 4 3 2 2.</_>
        <_>
          19 6 3 2 2.</_></rects>
      <tilted>0</tilted></_>
    <_>
      <rects>
        <_>
          16 5 1 4 -1.</_>
        <_>
          16 7 1 2 2.</_></rects>
      <tilted>0</tilted></_>
    <_>
      <rects>
        <_>
          16 5 6 4 -1.</_>
        <_>
          19 5 3 4 2.</_></rects>
      <tilted>0</tilted></_>
    <_>
      <rects>
        <_>
          16 15 2 2 -1.</_>
        <_>
          16 16 2 1 2.</_></rects>
      <tilted>0</tilted></_>
    <_>
      <rects>
        <_>
          17 0 6 2 -1.</_>
        <_>
          19 0 2 2 3.</_></rects>
      <tilted>0</tilted></_>
    <_>
      <rects>
        <_>
          17 0 4 6 -1.</_>
        <_>
          19 0 2 6 2.</_></rects>
      <tilted>0</tilted></_>
    <_>
      <rects>
        <_>
          17 1 2 22 -1.</_>
        <_>
          17 1 1 11 2.</_>
        <_>
          18 12 1 11 2.</_></rects>
      <tilted>0</tilted></_>
    <_>
      <rects>
        <_>
          17 4 1 8 -1.</_>
        <_>
          17 8 1 4 2.</_></rects>
      <tilted>0</tilted></_>
    <_>
      <rects>
        <_>
          17 5 6 3 -1.</_>
        <_>
          19 5 2 3 3.</_></rects>
      <tilted>0</tilted></_>
    <_>
      <rects>
        <_>
          17 6 6 2 -1.</_>
        <_>
          17 6 3 1 2.</_>
        <_>
          20 7 3 1 2.</_></rects>
      <tilted>0</tilted></_>
    <_>
      <rects>
        <_>
          17 7 7 2 -1.</_>
        <_>
          17 8 7 1 2.</_></rects>
      <tilted>0</tilted></_>
    <_>
      <rects>
        <_>
          18 0 6 7 -1.</_>
        <_>
          20 0 2 7 3.</_></rects>
      <tilted>0</tilted></_>
    <_>
      <rects>
        <_>
          18 0 6 2 -1.</_>
        <_>
          18 0 3 1 2.</_>
        <_>
          21 1 3 1 2.</_></rects>
      <tilted>0</tilted></_>
    <_>
      <rects>
        <_>
          18 0 6 4 -1.</_>
        <_>
          18 0 3 2 2.</_>
        <_>
          21 2 3 2 2.</_></rects>
      <tilted>0</tilted></_>
    <_>
      <rects>
        <_>
          18 0 4 9 -1.</_>
        <_>
          18 3 4 3 3.</_></rects>
      <tilted>0</tilted></_>
    <_>
      <rects>
        <_>
          18 0 5 9 -1.</_>
        <_>
          18 3 5 3 3.</_></rects>
      <tilted>0</tilted></_>
    <_>
      <rects>
        <_>
          18 1 6 7 -1.</_>
        <_>
          20 1 2 7 3.</_></rects>
      <tilted>0</tilted></_>
    <_>
      <rects>
        <_>
          18 1 6 2 -1.</_>
        <_>
          18 1 3 1 2.</_>
        <_>
          21 2 3 1 2.</_></rects>
      <tilted>0</tilted></_>
    <_>
      <rects>
        <_>
          18 1 4 9 -1.</_>
        <_>
          18 4 4 3 3.</_></rects>
      <tilted>0</tilted></_>
    <_>
      <rects>
        <_>
          18 3 4 6 -1.</_>
        <_>
          18 5 4 2 3.</_></rects>
      <tilted>0</tilted></_>
    <_>
      <rects>
        <_>
          18 16 6 8 -1.</_>
        <_>
          20 16 2 8 3.</_></rects>
      <tilted>0</tilted></_>
    <_>
      <rects>
        <_>
          19 0 1 9 -1.</_>
        <_>
          19 3 1 3 3.</_></rects>
      <tilted>0</tilted></_>
    <_>
      <rects>
        <_>
          19 0 3 9 -1.</_>
        <_>
          19 3 3 3 3.</_></rects>
      <tilted>0</tilted></_>
    <_>
      <rects>
        <_>
          20 0 3 1 -1.</_>
        <_>
          21 0 1 1 3.</_></rects>
      <tilted>0</tilted></_>
    <_>
      <rects>
        <_>
          20 1 2 4 -1.</_>
        <_>
          20 1 1 2 2.</_>
        <_>
          21 3 1 2 2.</_></rects>
      <tilted>0</tilted></_>
    <_>
      <rects>
        <_>
          20 1 4 9 -1.</_>
        <_>
          20 4 4 3 3.</_></rects>
      <tilted>0</tilted></_>
    <_>
      <rects>
        <_>
          20 2 3 6 -1.</_>
        <_>
          21 2 1 6 3.</_></rects>
      <tilted>0</tilted></_>
    <_>
      <rects>
        <_>
          20 5 4 1 -1.</_>
        <_>
          22 5 2 1 2.</_></rects>
      <tilted>0</tilted></_>
    <_>
      <rects>
        <_>
          21 0 2 1 -1.</_>
        <_>
          22 0 1 1 2.</_></rects>
      <tilted>0</tilted></_>
    <_>
      <rects>
        <_>
          21 0 3 3 -1.</_>
        <_>
          22 0 1 3 3.</_></rects>
      <tilted>0</tilted></_>
    <_>
      <rects>
        <_>
          21 0 3 9 -1.</_>
        <_>
          22 0 1 9 3.</_></rects>
      <tilted>0</tilted></_>
    <_>
      <rects>
        <_>
          21 0 3 9 -1.</_>
        <_>
          21 3 3 3 3.</_></rects>
      <tilted>0</tilted></_>
    <_>
      <rects>
        <_>
          21 1 1 2 -1.</_>
        <_>
          21 2 1 1 2.</_></rects>
      <tilted>0</tilted></_>
    <_>
      <rects>
        <_>
          21 2 3 1 -1.</_>
        <_>
          22 2 1 1 3.</_></rects>
      <tilted>0</tilted></_>
    <_>
      <rects>
        <_>
          21 2 3 2 -1.</_>
        <_>
          21 3 3 1 2.</_></rects>
      <tilted>0</tilted></_>
    <_>
      <rects>
        <_>
          21 2 3 3 -1.</_>
        <_>
          21 3 3 1 3.</_></rects>
      <tilted>0</tilted></_>
    <_>
      <rects>
        <_>
          21 4 3 19 -1.</_>
        <_>
          22 4 1 19 3.</_></rects>
      <tilted>0</tilted></_>
    <_>
      <rects>
        <_>
          21 6 1 18 -1.</_>
        <_>
          21 15 1 9 2.</_></rects>
      <tilted>0</tilted></_>
    <_>
      <rects>
        <_>
          21 17 3 7 -1.</_>
        <_>
          22 17 1 7 3.</_></rects>
      <tilted>0</tilted></_>
    <_>
      <rects>
        <_>
          21 20 3 2 -1.</_>
        <_>
          22 20 1 2 3.</_></rects>
      <tilted>0</tilted></_>
    <_>
      <rects>
        <_>
          21 23 3 1 -1.</_>
        <_>
          22 23 1 1 3.</_></rects>
      <tilted>0</tilted></_>
    <_>
      <rects>
        <_>
          22 0 2 8 -1.</_>
        <_>
          22 0 1 4 2.</_>
        <_>
          23 4 1 4 2.</_></rects>
      <tilted>0</tilted></_>
    <_>
      <rects>
        <_>
          22 0 2 2 -1.</_>
        <_>
          22 1 2 1 2.</_></rects>
      <tilted>0</tilted></_>
    <_>
      <rects>
        <_>
          22 0 2 6 -1.</_>
        <_>
          22 3 2 3 2.</_></rects>
      <tilted>0</tilted></_>
    <_>
      <rects>
        <_>
          22 0 2 12 -1.</_>
        <_>
          22 4 2 4 3.</_></rects>
      <tilted>0</tilted></_>
    <_>
      <rects>
        <_>
          22 2 2 2 -1.</_>
        <_>
          22 2 1 1 2.</_>
        <_>
          23 3 1 1 2.</_></rects>
      <tilted>0</tilted></_>
    <_>
      <rects>
        <_>
          22 4 1 18 -1.</_>
        <_>
          22 10 1 6 3.</_></rects>
      <tilted>0</tilted></_>
    <_>
      <rects>
        <_>
          22 4 2 3 -1.</_>
        <_>
          22 5 2 1 3.</_></rects>
      <tilted>0</tilted></_>
    <_>
      <rects>
        <_>
          22 13 2 6 -1.</_>
        <_>
          23 13 1 6 2.</_></rects>
      <tilted>0</tilted></_>
    <_>
      <rects>
        <_>
          22 17 2 4 -1.</_>
        <_>
          22 19 2 2 2.</_></rects>
      <tilted>0</tilted></_>
    <_>
      <rects>
        <_>
          22 18 2 6 -1.</_>
        <_>
          22 18 1 3 2.</_>
        <_>
          23 21 1 3 2.</_></rects>
      <tilted>0</tilted></_>
    <_>
      <rects>
        <_>
          22 20 2 2 -1.</_>
        <_>
          22 21 2 1 2.</_></rects>
      <tilted>0</tilted></_>
    <_>
      <rects>
        <_>
          22 21 1 2 -1.</_>
        <_>
          22 22 1 1 2.</_></rects>
      <tilted>0</tilted></_>
    <_>
      <rects>
        <_>
          23 0 1 12 -1.</_>
        <_>
          23 4 1 4 3.</_></rects>
      <tilted>0</tilted></_>
    <_>
      <rects>
        <_>
          23 0 1 18 -1.</_>
        <_>
          23 6 1 6 3.</_></rects>
      <tilted>0</tilted></_>
    <_>
      <rects>
        <_>
          23 1 1 9 -1.</_>
        <_>
          23 4 1 3 3.</_></rects>
      <tilted>0</tilted></_>
    <_>
      <rects>
        <_>
          23 1 1 18 -1.</_>
        <_>
          23 7 1 6 3.</_></rects>
      <tilted>0</tilted></_>
    <_>
      <rects>
        <_>
          23 1 1 21 -1.</_>
        <_>
          23 8 1 7 3.</_></rects>
      <tilted>0</tilted></_>
    <_>
      <rects>
        <_>
          23 2 1 3 -1.</_>
        <_>
          23 3 1 1 3.</_></rects>
      <tilted>0</tilted></_>
    <_>
      <rects>
        <_>
          23 2 1 12 -1.</_>
        <_>
          23 6 1 4 3.</_></rects>
      <tilted>0</tilted></_>
    <_>
      <rects>
        <_>
          23 3 1 3 -1.</_>
        <_>
          23 4 1 1 3.</_></rects>
      <tilted>0</tilted></_>
    <_>
      <rects>
        <_>
          23 3 1 15 -1.</_>
        <_>
          23 8 1 5 3.</_></rects>
      <tilted>0</tilted></_>
    <_>
      <rects>
        <_>
          23 5 1 15 -1.</_>
        <_>
          23 10 1 5 3.</_></rects>
      <tilted>0</tilted></_>
    <_>
      <rects>
        <_>
          23 5 1 18 -1.</_>
        <_>
          23 11 1 6 3.</_></rects>
      <tilted>0</tilted></_>
    <_>
      <rects>
        <_>
          23 7 1 9 -1.</_>
        <_>
          23 10 1 3 3.</_></rects>
      <tilted>0</tilted></_>
    <_>
      <rects>
        <_>
          23 8 1 6 -1.</_>
        <_>
          23 10 1 2 3.</_></rects>
      <tilted>0</tilted></_>
    <_>
      <rects>
        <_>
          23 12 1 3 -1.</_>
        <_>
          23 13 1 1 3.</_></rects>
      <tilted>0</tilted></_>
    <_>
      <rects>
        <_>
          23 12 1 8 -1.</_>
        <_>
          23 16 1 4 2.</_></rects>
      <tilted>0</tilted></_>
    <_>
      <rects>
        <_>
          23 14 1 3 -1.</_>
        <_>
          23 15 1 1 3.</_></rects>
      <tilted>0</tilted></_>
    <_>
      <rects>
        <_>
          23 15 1 4 -1.</_>
        <_>
          23 17 1 2 2.</_></rects>
      <tilted>0</tilted></_>
    <_>
      <rects>
        <_>
          23 16 1 3 -1.</_>
        <_>
          23 17 1 1 3.</_></rects>
      <tilted>0</tilted></_>
    <_>
      <rects>
        <_>
          23 16 1 4 -1.</_>
        <_>
          23 18 1 2 2.</_></rects>
      <tilted>0</tilted></_>
    <_>
      <rects>
        <_>
          23 19 1 4 -1.</_>
        <_>
          23 21 1 2 2.</_></rects>
      <tilted>0</tilted></_>
    <_>
      <rects>
        <_>
          23 20 1 3 -1.</_>
        <_>
          23 21 1 1 3.</_></rects>
      <tilted>0</tilted></_>
    <_>
      <rects>
        <_>
          23 20 1 4 -1.</_>
        <_>
          23 22 1 2 2.</_></rects>
