<?xml version="1.0"?>
<opencv_storage>
<cascade>
  <stageType>BOOST</stageType>
  <featureType>HAAR</featureType>
  <height>24</height>
  <width>24</width>
  <stageParams>
    <boostType>GAB</boostType>
    <minHitRate>9.9500000476837158e-01</minHitRate>
    <maxFalseAlarm>5.0000000000000000e-01</maxFalseAlarm>
    <weightTrimRate>9.4999998807907104e-01</weightTrimRate>
    <maxDepth>1</maxDepth>
    <maxWeakCount>100</maxWeakCount></stageParams>
  <featureParams>
    <maxCatCount>0</maxCatCount>
    <featSize>1</featSize>
    <mode>BASIC</mode></featureParams>
  <stageNum>20</stageNum>
  <stages>
    <!-- stage 0 -->
    <_>
      <maxWeakCount>3</maxWeakCount>
      <stageThreshold>-7.3325091600418091e-01</stageThreshold>
      <weakClassifiers>
        <_>
          <internalNodes>
            0 -1 9 -8.2557722926139832e-02</internalNodes>
          <leafValues>
            8.2428938150405884e-01 -8.7692308425903320e-01</leafValues></_>
        <_>
          <internalNodes>
            0 -1 104 1.1100259143859148e-05</internalNodes>
          <leafValues>
            7.6113325357437134e-01 -8.1498038768768311e-01</leafValues></_>
        <_>
          <internalNodes>
            0 -1 112 7.4888273957185447e-05</internalNodes>
          <leafValues>
            6.8879967927932739e-01 -7.4255990982055664e-01</leafValues></_></weakClassifiers></_>
    <!-- stage 1 -->
    <_>
      <maxWeakCount>4</maxWeakCount>
      <stageThreshold>9.0835005044937134e-02</stageThreshold>
      <weakClassifiers>
        <_>
          <internalNodes>
            0 -1 20 -3.0944578349590302e-02</internalNodes>
          <leafValues>
            8.1958764791488647e-01 -8.7500000000000000e-01</leafValues></_>
        <_>
          <internalNodes>
            0 -1 55 1.4188456535339355e-01</internalNodes>
          <leafValues>
            -8.2989400625228882e-01 7.8302878141403198e-01</leafValues></_>
        <_>
          <internalNodes>
            0 -1 54 -2.5109346956014633e-02</internalNodes>
          <leafValues>
            9.0932297706604004e-01 -3.7785106897354126e-01</leafValues></_>
        <_>
          <internalNodes>
            0 -1 10 -4.1841468214988708e-01</internalNodes>
          <leafValues>
            5.6065732240676880e-01 -7.6381450891494751e-01</leafValues></_></weakClassifiers></_>
    <!-- stage 2 -->
    <_>
      <maxWeakCount>2</maxWeakCount>
      <stageThreshold>-1.2926858663558960e-01</stageThreshold>
      <weakClassifiers>
        <_>
          <internalNodes>
            0 -1 88 3.3243736834265292e-04</internalNodes>
          <leafValues>
            8.9247310161590576e-01 -8.7500000000000000e-01</leafValues></_>
        <_>
          <internalNodes>
            0 -1 19 -1.7336156452074647e-04</internalNodes>
          <leafValues>
            -7.2342991828918457e-01 7.4573141336441040e-01</leafValues></_></weakClassifiers></_>
    <!-- stage 3 -->
    <_>
      <maxWeakCount>4</maxWeakCount>
      <stageThreshold>-6.9952592253684998e-02</stageThreshold>
      <weakClassifiers>
        <_>
          <internalNodes>
            0 -1 22 9.9328550277277827e-05</internalNodes>
          <leafValues>
            7.3529410362243652e-01 -8.6363637447357178e-01</leafValues></_>
        <_>
          <internalNodes>
            0 -1 58 5.5997783783823252e-04</internalNodes>
          <leafValues>
            -4.8614436388015747e-01 7.4307268857955933e-01</leafValues></_>
        <_>
          <internalNodes>
            0 -1 45 -2.3032046854496002e-02</internalNodes>
          <leafValues>
            8.3172571659088135e-01 -4.8459264636039734e-01</leafValues></_>
        <_>
          <internalNodes>
            0 -1 117 -1.9032039563171566e-04</internalNodes>
          <leafValues>
            -9.2132204771041870e-01 4.4810241460800171e-01</leafValues></_></weakClassifiers></_>
    <!-- stage 4 -->
    <_>
      <maxWeakCount>5</maxWeakCount>
      <stageThreshold>-6.9383347034454346e-01</stageThreshold>
      <weakClassifiers>
        <_>
          <internalNodes>
            0 -1 7 -1.3077488541603088e-01</internalNodes>
          <leafValues>
            8.0901855230331421e-01 -5.7333332300186157e-01</leafValues></_>
        <_>
          <internalNodes>
            0 -1 67 1.4856066554784775e-02</internalNodes>
          <leafValues>
            -9.4190859794616699e-01 5.3170865774154663e-01</leafValues></_>
        <_>
          <internalNodes>
            0 -1 94 -1.0839225978998002e-05</internalNodes>
          <leafValues>
            6.0894018411636353e-01 -5.7187420129776001e-01</leafValues></_>
        <_>
          <internalNodes>
            0 -1 107 -3.4673471236601472e-04</internalNodes>
          <leafValues>
            -9.3300551176071167e-01 4.2132437229156494e-01</leafValues></_>
        <_>
          <internalNodes>
            0 -1 30 -3.6692857742309570e-02</internalNodes>
          <leafValues>
            8.2056027650833130e-01 -5.2968096733093262e-01</leafValues></_></weakClassifiers></_>
    <!-- stage 5 -->
    <_>
      <maxWeakCount>4</maxWeakCount>
      <stageThreshold>-2.8209373354911804e-01</stageThreshold>
      <weakClassifiers>
        <_>
          <internalNodes>
            0 -1 2 -5.4251711117103696e-04</internalNodes>
          <leafValues>
            -8.5964912176132202e-01 7.8734177350997925e-01</leafValues></_>
        <_>
          <internalNodes>
            0 -1 103 -1.1526559319463558e-05</internalNodes>
          <leafValues>
            6.8163293600082397e-01 -4.9433422088623047e-01</leafValues></_>
        <_>
          <internalNodes>
            0 -1 96 -1.1756084859371185e-04</internalNodes>
          <leafValues>
            -9.3159592151641846e-01 3.8222157955169678e-01</leafValues></_>
        <_>
          <internalNodes>
            0 -1 14 -3.2056950032711029e-02</internalNodes>
          <leafValues>
            7.5996041297912598e-01 -4.8629915714263916e-01</leafValues></_></weakClassifiers></_>
    <!-- stage 6 -->
    <_>
      <maxWeakCount>7</maxWeakCount>
      <stageThreshold>-6.8058526515960693e-01</stageThreshold>
      <weakClassifiers>
        <_>
          <internalNodes>
            0 -1 102 -1.4367487165145576e-04</internalNodes>
          <leafValues>
            -1. 7.2881358861923218e-01</leafValues></_>
        <_>
          <internalNodes>
            0 -1 28 1.3613275950774550e-03</internalNodes>
          <leafValues>
            -4.3621984124183655e-01 8.5312592983245850e-01</leafValues></_>
        <_>
          <internalNodes>
            0 -1 87 -1.3701106581720524e-05</internalNodes>
          <leafValues>
            5.6917285919189453e-01 -5.9609001874923706e-01</leafValues></_>
        <_>
          <internalNodes>
            0 -1 98 -1.2579197937157005e-04</internalNodes>
          <leafValues>
            -8.0635589361190796e-01 4.1774690151214600e-01</leafValues></_>
        <_>
          <internalNodes>
            0 -1 74 -7.9439301043748856e-03</internalNodes>
          <leafValues>
            7.6301681995391846e-01 -4.4152554869651794e-01</leafValues></_>
        <_>
          <internalNodes>
            0 -1 81 1.3415174180408940e-05</internalNodes>
          <leafValues>
            -5.9351921081542969e-01 4.5864275097846985e-01</leafValues></_>
        <_>
          <internalNodes>
            0 -1 79 -2.2292751236818731e-04</internalNodes>
          <leafValues>
            -9.1190522909164429e-01 2.9904881119728088e-01</leafValues></_></weakClassifiers></_>
    <!-- stage 7 -->
    <_>
      <maxWeakCount>5</maxWeakCount>
      <stageThreshold>-2.4808281660079956e-01</stageThreshold>
      <weakClassifiers>
        <_>
          <internalNodes>
            0 -1 115 -3.7568187690339983e-04</internalNodes>
          <leafValues>
            -8.9473682641983032e-01 7.9240506887435913e-01</leafValues></_>
        <_>
          <internalNodes>
            0 -1 90 -3.2210891367867589e-04</internalNodes>
          <leafValues>
            -7.7331238985061646e-01 5.8281439542770386e-01</leafValues></_>
        <_>
          <internalNodes>
            0 -1 16 -7.2836628532968462e-05</internalNodes>
          <leafValues>
            -9.6291869878768921e-01 3.6477285623550415e-01</leafValues></_>
        <_>
          <internalNodes>
            0 -1 61 2.0673432946205139e-01</internalNodes>
          <leafValues>
            -6.5078645944595337e-01 5.4921567440032959e-01</leafValues></_>
        <_>
          <internalNodes>
            0 -1 15 4.9908843357115984e-04</internalNodes>
          <leafValues>
            3.4985321760177612e-01 -9.1254115104675293e-01</leafValues></_></weakClassifiers></_>
    <!-- stage 8 -->
    <_>
      <maxWeakCount>5</maxWeakCount>
      <stageThreshold>-4.7066725790500641e-02</stageThreshold>
      <weakClassifiers>
        <_>
          <internalNodes>
            0 -1 78 -6.7776796640828252e-05</internalNodes>
          <leafValues>
            -6.9811320304870605e-01 7.4937343597412109e-01</leafValues></_>
        <_>
          <internalNodes>
            0 -1 42 2.5301524437963963e-03</internalNodes>
          <leafValues>
            -3.5702943801879883e-01 8.2051169872283936e-01</leafValues></_>
        <_>
          <internalNodes>
            0 -1 70 -7.4791192309930921e-04</internalNodes>
          <leafValues>
            7.9383063316345215e-01 -3.7919369339942932e-01</leafValues></_>
        <_>
          <internalNodes>
            0 -1 62 4.9993378343060613e-04</internalNodes>
          <leafValues>
            -4.2479139566421509e-01 6.8947046995162964e-01</leafValues></_>
        <_>
          <internalNodes>
            0 -1 59 -2.6887329295277596e-04</internalNodes>
          <leafValues>
            6.3903665542602539e-01 -4.3187251687049866e-01</leafValues></_></weakClassifiers></_>
    <!-- stage 9 -->
    <_>
      <maxWeakCount>6</maxWeakCount>
      <stageThreshold>-1.7154945433139801e-01</stageThreshold>
      <weakClassifiers>
        <_>
          <internalNodes>
            0 -1 77 2.3546392912976444e-04</internalNodes>
          <leafValues>
            7.4064838886260986e-01 -6.8627452850341797e-01</leafValues></_>
        <_>
          <internalNodes>
            0 -1 29 2.3304168280446902e-05</internalNodes>
          <leafValues>
            -6.5054929256439209e-01 5.2532660961151123e-01</leafValues></_>
        <_>
          <internalNodes>
            0 -1 36 2.3277167201740667e-05</internalNodes>
          <leafValues>
            -5.4040533304214478e-01 5.0005477666854858e-01</leafValues></_>
        <_>
          <internalNodes>
            0 -1 109 -2.7525024052010849e-05</internalNodes>
          <leafValues>
            5.4270833730697632e-01 -4.7613212466239929e-01</leafValues></_>
        <_>
          <internalNodes>
            0 -1 69 -2.8446330688893795e-03</internalNodes>
          <leafValues>
            8.2327866554260254e-01 -3.2100942730903625e-01</leafValues></_>
        <_>
          <internalNodes>
            0 -1 21 -5.3545449191005901e-05</internalNodes>
          <leafValues>
            -9.6225249767303467e-01 2.8648519515991211e-01</leafValues></_></weakClassifiers></_>
    <!-- stage 10 -->
    <_>
      <maxWeakCount>6</maxWeakCount>
      <stageThreshold>-3.6075049638748169e-01</stageThreshold>
      <weakClassifiers>
        <_>
          <internalNodes>
            0 -1 11 6.1525672208517790e-05</internalNodes>
          <leafValues>
            7.3333334922790527e-01 -7.4468082189559937e-01</leafValues></_>
        <_>
          <internalNodes>
            0 -1 60 1.3354164548218250e-04</internalNodes>
          <leafValues>
            -6.7064547538757324e-01 4.7869628667831421e-01</leafValues></_>
        <_>
          <internalNodes>
            0 -1 73 3.6703771911561489e-05</internalNodes>
          <leafValues>
            -4.7169771790504456e-01 6.1190575361251831e-01</leafValues></_>
        <_>
          <internalNodes>
            0 -1 101 -1.1034370800189208e-05</internalNodes>
          <leafValues>
            4.9663469195365906e-01 -5.6217890977859497e-01</leafValues></_>
        <_>
          <internalNodes>
            0 -1 89 -1.0691333591239527e-04</internalNodes>
          <leafValues>
            -8.0393606424331665e-01 3.1656321883201599e-01</leafValues></_>
        <_>
          <internalNodes>
            0 -1 80 5.7228087825933471e-05</internalNodes>
          <leafValues>
            -6.7048805952072144e-01 3.5556074976921082e-01</leafValues></_></weakClassifiers></_>
    <!-- stage 11 -->
    <_>
      <maxWeakCount>7</maxWeakCount>
      <stageThreshold>-1.4129954576492310e-01</stageThreshold>
      <weakClassifiers>
        <_>
          <internalNodes>
            0 -1 12 2.6563127175904810e-04</internalNodes>
          <leafValues>
            7.0334929227828979e-01 -9.4117647409439087e-01</leafValues></_>
        <_>
          <internalNodes>
            0 -1 47 5.3734716493636370e-04</internalNodes>
          <leafValues>
            -3.0123010277748108e-01 7.1649920940399170e-01</leafValues></_>
        <_>
          <internalNodes>
            0 -1 53 7.4286013841629028e-04</internalNodes>
          <leafValues>
            -4.2571786046028137e-01 6.5205329656600952e-01</leafValues></_>
        <_>
          <internalNodes>
            0 -1 86 2.3916851205285639e-05</internalNodes>
          <leafValues>
            -6.3102865219116211e-01 4.1269341111183167e-01</leafValues></_>
        <_>
          <internalNodes>
            0 -1 35 -4.2118774726986885e-03</internalNodes>
          <leafValues>
            6.4082914590835571e-01 -4.2719602584838867e-01</leafValues></_>
        <_>
          <internalNodes>
            0 -1 56 -9.4629684463143349e-04</internalNodes>
          <leafValues>
            5.7963550090789795e-01 -3.8689056038856506e-01</leafValues></_>
        <_>
          <internalNodes>
            0 -1 75 1.1484086826385465e-05</internalNodes>
          <leafValues>
            -6.8283379077911377e-01 3.3444011211395264e-01</leafValues></_></weakClassifiers></_>
    <!-- stage 12 -->
    <_>
      <maxWeakCount>7</maxWeakCount>
      <stageThreshold>-3.5916337370872498e-01</stageThreshold>
      <weakClassifiers>
        <_>
          <internalNodes>
            0 -1 113 -1.2568449892569333e-04</internalNodes>
          <leafValues>
            -8.8235294818878174e-01 6.9856458902359009e-01</leafValues></_>
        <_>
          <internalNodes>
            0 -1 26 9.1784757387358695e-05</internalNodes>
          <leafValues>
            4.2497974634170532e-01 -7.7990901470184326e-01</leafValues></_>
        <_>
          <internalNodes>
            0 -1 64 2.3356422781944275e-02</internalNodes>
          <leafValues>
            -3.5971891880035400e-01 8.3361101150512695e-01</leafValues></_>
        <_>
          <internalNodes>
            0 -1 48 -1.4743083156645298e-03</internalNodes>
          <leafValues>
            6.8279939889907837e-01 -3.6105567216873169e-01</leafValues></_>
        <_>
          <internalNodes>
            0 -1 63 7.4848311487585306e-04</internalNodes>
          <leafValues>
            -4.4122242927551270e-01 5.7705008983612061e-01</leafValues></_>
        <_>
          <internalNodes>
            0 -1 68 5.4715033620595932e-02</internalNodes>
          <leafValues>
            -5.4368567466735840e-01 4.0730133652687073e-01</leafValues></_>
        <_>
          <internalNodes>
            0 -1 31 -3.2495222985744476e-02</internalNodes>
          <leafValues>
            7.6052033901214600e-01 -3.4042441844940186e-01</leafValues></_></weakClassifiers></_>
    <!-- stage 13 -->
    <_>
      <maxWeakCount>6</maxWeakCount>
      <stageThreshold>-3.4070438146591187e-01</stageThreshold>
      <weakClassifiers>
        <_>
          <internalNodes>
            0 -1 92 3.7530495319515467e-04</internalNodes>
          <leafValues>
            6.9784170389175415e-01 -8.2857143878936768e-01</leafValues></_>
        <_>
          <internalNodes>
            0 -1 85 -5.0737013225443661e-05</internalNodes>
          <leafValues>
            -5.1072472333908081e-01 5.3152942657470703e-01</leafValues></_>
        <_>
          <internalNodes>
            0 -1 80 2.5997130433097482e-04</internalNodes>
          <leafValues>
            -5.3375607728958130e-01 4.8961514234542847e-01</leafValues></_>
        <_>
          <internalNodes>
            0 -1 16 4.9190843128599226e-05</internalNodes>
          <leafValues>
            2.4254140257835388e-01 -7.6693516969680786e-01</leafValues></_>
        <_>
          <internalNodes>
            0 -1 44 3.0762567184865475e-03</internalNodes>
          <leafValues>
            -4.8805600404739380e-01 4.8893931508064270e-01</leafValues></_>
        <_>
          <internalNodes>
            0 -1 40 -1.1562190949916840e-02</internalNodes>
          <leafValues>
            7.0992213487625122e-01 -2.8776296973228455e-01</leafValues></_></weakClassifiers></_>
    <!-- stage 14 -->
    <_>
      <maxWeakCount>7</maxWeakCount>
      <stageThreshold>-7.1994535624980927e-02</stageThreshold>
      <weakClassifiers>
        <_>
          <internalNodes>
            0 -1 8 -1.8861286342144012e-02</internalNodes>
          <leafValues>
            6.9928401708602905e-01 -9.3939393758773804e-01</leafValues></_>
        <_>
          <internalNodes>
            0 -1 3 2.4325814592884853e-05</internalNodes>
          <leafValues>
            -4.5316597819328308e-01 5.5499464273452759e-01</leafValues></_>
        <_>
          <internalNodes>
            0 -1 43 -2.0733416080474854e-02</internalNodes>
          <leafValues>
            8.8928169012069702e-01 -2.5610515475273132e-01</leafValues></_>
        <_>
          <internalNodes>
            0 -1 95 5.9393823903519660e-05</internalNodes>
          <leafValues>
            -4.6836331486701965e-01 4.7298437356948853e-01</leafValues></_>
        <_>
          <internalNodes>
            0 -1 52 4.0689021348953247e-02</internalNodes>
          <leafValues>
            -3.2447072863578796e-01 7.2891628742218018e-01</leafValues></_>
        <_>
          <internalNodes>
            0 -1 25 -1.3136742927599698e-04</internalNodes>
          <leafValues>
            -6.7027527093887329e-01 3.7603119015693665e-01</leafValues></_>
        <_>
          <internalNodes>
            0 -1 108 3.1431991374120116e-05</internalNodes>
          <leafValues>
            -5.1672816276550293e-01 4.5975419878959656e-01</leafValues></_></weakClassifiers></_>
    <!-- stage 15 -->
    <_>
      <maxWeakCount>9</maxWeakCount>
      <stageThreshold>-5.1980340480804443e-01</stageThreshold>
      <weakClassifiers>
        <_>
          <internalNodes>
            0 -1 83 -1.3162911636754870e-04</internalNodes>
          <leafValues>
            -7.8378379344940186e-01 7.0120483636856079e-01</leafValues></_>
        <_>
          <internalNodes>
            0 -1 111 -9.6159819804597646e-05</internalNodes>
          <leafValues>
            -7.8094112873077393e-01 3.9793166518211365e-01</leafValues></_>
        <_>
          <internalNodes>
            0 -1 41 -3.5365731455385685e-03</internalNodes>
          <leafValues>
            6.6823321580886841e-01 -3.6805477738380432e-01</leafValues></_>
        <_>
          <internalNodes>
            0 -1 92 -3.4239961678395048e-05</internalNodes>
          <leafValues>
            -5.7912796735763550e-01 3.1472712755203247e-01</leafValues></_>
        <_>
          <internalNodes>
            0 -1 34 -1.2752971088048071e-04</internalNodes>
          <leafValues>
            -7.5559979677200317e-01 2.8898954391479492e-01</leafValues></_>
        <_>
          <internalNodes>
            0 -1 82 2.6887746571446769e-05</internalNodes>
          <leafValues>
            -5.3182548284530640e-01 3.1594535708427429e-01</leafValues></_>
        <_>
          <internalNodes>
            0 -1 93 -4.2366697016404942e-05</internalNodes>
          <leafValues>
            -7.4215412139892578e-01 2.1997335553169250e-01</leafValues></_>
        <_>
          <internalNodes>
            0 -1 18 -5.5232949554920197e-02</internalNodes>
          <leafValues>
            2.6860585808753967e-01 -7.0494538545608521e-01</leafValues></_>
        <_>
          <internalNodes>
            0 -1 0 -2.4285980543936603e-05</internalNodes>
          <leafValues>
            -8.1539314985275269e-01 1.7040744423866272e-01</leafValues></_></weakClassifiers></_>
    <!-- stage 16 -->
    <_>
      <maxWeakCount>9</maxWeakCount>
      <stageThreshold>-8.6592808365821838e-02</stageThreshold>
      <weakClassifiers>
        <_>
          <internalNodes>
            0 -1 1 -1.3902425416745245e-04</internalNodes>
          <leafValues>
            -7.4193549156188965e-01 6.7695963382720947e-01</leafValues></_>
        <_>
          <internalNodes>
            0 -1 46 -1.6108769923448563e-02</internalNodes>
          <leafValues>
            8.0875748395919800e-01 -1.3377906382083893e-01</leafValues></_>
        <_>
          <internalNodes>
            0 -1 106 2.7225763915339485e-05</internalNodes>
          <leafValues>
            -5.6653058528900146e-01 3.5842385888099670e-01</leafValues></_>
        <_>
          <internalNodes>
            0 -1 27 -5.6177035730797797e-05</internalNodes>
          <leafValues>
            -6.9009292125701904e-01 3.0252891778945923e-01</leafValues></_>
        <_>
          <internalNodes>
            0 -1 49 4.9587935209274292e-03</internalNodes>
          <leafValues>
            -8.0266648530960083e-01 1.9647578895092010e-01</leafValues></_>
        <_>
          <internalNodes>
            0 -1 6 9.0048415586352348e-05</internalNodes>
          <leafValues>
            -5.9219139814376831e-01 3.0960795283317566e-01</leafValues></_>
        <_>
          <internalNodes>
            0 -1 65 2.0369379781186581e-03</internalNodes>
          <leafValues>
            -3.4151524305343628e-01 7.2583240270614624e-01</leafValues></_>
        <_>
          <internalNodes>
            0 -1 51 -1.1545870453119278e-02</internalNodes>
          <leafValues>
            7.3011183738708496e-01 -2.3717078566551208e-01</leafValues></_>
        <_>
          <internalNodes>
            0 -1 50 6.5864510834217072e-02</internalNodes>
          <leafValues>
            -2.3656368255615234e-01 8.0096226930618286e-01</leafValues></_></weakClassifiers></_>
    <!-- stage 17 -->
    <_>
      <maxWeakCount>8</maxWeakCount>
      <stageThreshold>-6.2253832817077637e-01</stageThreshold>
      <weakClassifiers>
        <_>
          <internalNodes>
            0 -1 4 6.6368906118441373e-05</internalNodes>
          <leafValues>
            -3.6000001430511475e-01 6.9651740789413452e-01</leafValues></_>
        <_>
          <internalNodes>
            0 -1 13 2.7219812182011083e-05</internalNodes>
          <leafValues>
            -4.1056182980537415e-01 4.8165151476860046e-01</leafValues></_>
        <_>
          <internalNodes>
            0 -1 38 -1.0454239696264267e-01</internalNodes>
          <leafValues>
            7.5192028284072876e-01 -2.5564265251159668e-01</leafValues></_>
        <_>
          <internalNodes>
            0 -1 57 1.5218881890177727e-02</internalNodes>
          <leafValues>
            -2.1941451728343964e-01 7.5843548774719238e-01</leafValues></_>
        <_>
          <internalNodes>
            0 -1 32 -1.1238036304712296e-01</internalNodes>
          <leafValues>
            4.2278546094894409e-01 -4.8220250010490417e-01</leafValues></_>
        <_>
          <internalNodes>
            0 -1 97 -5.3412797569762915e-05</internalNodes>
          <leafValues>
            6.4700245857238770e-01 -2.9295617341995239e-01</leafValues></_>
        <_>
          <internalNodes>
            0 -1 17 4.9398925155401230e-02</internalNodes>
          <leafValues>
            -2.2757917642593384e-01 8.2611739635467529e-01</leafValues></_>
        <_>
          <internalNodes>
            0 -1 71 -1.0493861045688391e-03</internalNodes>
          <leafValues>
            4.4848707318305969e-01 -3.7065756320953369e-01</leafValues></_></weakClassifiers></_>
    <!-- stage 18 -->
    <_>
      <maxWeakCount>8</maxWeakCount>
      <stageThreshold>-1.8272864818572998e-01</stageThreshold>
      <weakClassifiers>
        <_>
          <internalNodes>
            0 -1 114 2.8698937967419624e-04</internalNodes>
          <leafValues>
            6.5661251544952393e-01 -1.</leafValues></_>
        <_>
          <internalNodes>
            0 -1 91 -8.2763661339413375e-05</internalNodes>
          <leafValues>
            6.6404545307159424e-01 -2.5789514183998108e-01</leafValues></_>
        <_>
          <internalNodes>
            0 -1 72 -7.0033162832260132e-02</internalNodes>
          <leafValues>
            7.6652580499649048e-01 -2.4211561679840088e-01</leafValues></_>
        <_>
          <internalNodes>
            0 -1 33 1.0634036152623594e-04</internalNodes>
          <leafValues>
            -4.8536661267280579e-01 3.9395928382873535e-01</leafValues></_>
        <_>
          <internalNodes>
            0 -1 110 4.5035205403110012e-05</internalNodes>
          <leafValues>
            2.2892142832279205e-01 -7.8822058439254761e-01</leafValues></_>
        <_>
          <internalNodes>
            0 -1 39 -9.6079497598111629e-04</internalNodes>
          <leafValues>
            -6.5015536546707153e-01 2.4525991082191467e-01</leafValues></_>
        <_>
          <internalNodes>
            0 -1 84 7.4820898589678109e-05</internalNodes>
          <leafValues>
            -3.8976716995239258e-01 4.4792899489402771e-01</leafValues></_>
        <_>
          <internalNodes>
            0 -1 5 7.6999283919576555e-05</internalNodes>
          <leafValues>
            1.5682345628738403e-01 -8.9031594991683960e-01</leafValues></_></weakClassifiers></_>
    <!-- stage 19 -->
    <_>
      <maxWeakCount>9</maxWeakCount>
      <stageThreshold>-1.0036922246217728e-01</stageThreshold>
      <weakClassifiers>
        <_>
          <internalNodes>
            0 -1 66 1.6682021669112146e-04</internalNodes>
          <leafValues>
            -4.1818180680274963e-01 7.1788412332534790e-01</leafValues></_>
        <_>
          <internalNodes>
            0 -1 105 1.2988788075745106e-03</internalNodes>
          <leafValues>
            3.6207625269889832e-01 -7.3543334007263184e-01</leafValues></_>
        <_>
          <internalNodes>
            0 -1 37 1.1750608791771811e-05</internalNodes>
          <leafValues>
            -5.6987255811691284e-01 3.5916581749916077e-01</leafValues></_>
        <_>
          <internalNodes>
            0 -1 116 3.0104762117844075e-05</internalNodes>
          <leafValues>
            -5.4502123594284058e-01 4.1829624772071838e-01</leafValues></_>
        <_>
          <internalNodes>
            0 -1 23 -3.8237238186411560e-05</internalNodes>
          <leafValues>
            -7.6364368200302124e-01 2.4510867893695831e-01</leafValues></_>
        <_>
          <internalNodes>
            0 -1 76 -5.0523613026598468e-05</internalNodes>
          <leafValues>
            4.2001217603683472e-01 -4.2048951983451843e-01</leafValues></_>
        <_>
          <internalNodes>
            0 -1 99 -5.2610717830248177e-05</internalNodes>
          <leafValues>
            -7.3430454730987549e-01 2.1815505623817444e-01</leafValues></_>
        <_>
          <internalNodes>
            0 -1 100 1.0436917364131659e-04</internalNodes>
          <leafValues>
            1.9609551131725311e-01 -8.2566583156585693e-01</leafValues></_>
        <_>
          <internalNodes>
            0 -1 24 -3.9455495774745941e-02</internalNodes>
          <leafValues>
            -9.2416167259216309e-01 1.4887204766273499e-01</leafValues></_></weakClassifiers></_></stages>
  <features>
    <_>
      <rects>
        <_>
          0 0 2 2 -1.</_>
        <_>
          1 0 1 2 2.</_></rects>
      <tilted>0</tilted></_>
    <_>
      <rects>
        <_>
          0 0 3 5 -1.</_>
        <_>
          1 0 1 5 3.</_></rects>
      <tilted>0</tilted></_>
    <_>
      <rects>
        <_>
          0 0 4 3 -1.</_>
        <_>
          2 0 2 3 2.</_></rects>
      <tilted>0</tilted></_>
    <_>
      <rects>
        <_>
          0 0 3 9 -1.</_>
        <_>
          0 3 3 3 3.</_></rects>
      <tilted>0</tilted></_>
    <_>
      <rects>
        <_>
          0 0 12 1 -1.</_>
        <_>
          4 0 4 1 3.</_></rects>
      <tilted>0</tilted></_>
    <_>
      <rects>
        <_>
          0 0 8 2 -1.</_>
        <_>
          0 0 4 1 2.</_>
        <_>
          4 1 4 1 2.</_></rects>
      <tilted>0</tilted></_>
    <_>
      <rects>
        <_>
          0 0 6 9 -1.</_>
        <_>
          0 3 6 3 3.</_></rects>
      <tilted>0</tilted></_>
    <_>
      <rects>
        <_>
          0 0 12 24 -1.</_>
        <_>
          6 0 6 24 2.</_></rects>
      <tilted>0</tilted></_>
    <_>
      <rects>
        <_>
          0 0 14 6 -1.</_>
        <_>
          7 0 7 6 2.</_></rects>
      <tilted>0</tilted></_>
    <_>
      <rects>
        <_>
          0 1 24 8 -1.</_>
        <_>
          8 1 8 8 3.</_></rects>
      <tilted>0</tilted></_>
    <_>
      <rects>
        <_>
          0 1 24 23 -1.</_>
        <_>
          8 1 8 23 3.</_></rects>
      <tilted>0</tilted></_>
    <_>
      <rects>
        <_>
          0 2 3 1 -1.</_>
        <_>
          1 2 1 1 3.</_></rects>
      <tilted>0</tilted></_>
    <_>
      <rects>
        <_>
          0 2 1 6 -1.</_>
        <_>
          0 4 1 2 3.</_></rects>
      <tilted>0</tilted></_>
    <_>
      <rects>
        <_>
          0 3 6 6 -1.</_>
        <_>
          0 5 6 2 3.</_></rects>
      <tilted>0</tilted></_>
    <_>
      <rects>
        <_>
          0 3 20 8 -1.</_>
        <_>
          0 7 20 4 2.</_></rects>
      <tilted>0</tilted></_>
    <_>
      <rects>
        <_>
          0 5 1 9 -1.</_>
        <_>
          0 8 1 3 3.</_></rects>
      <tilted>0</tilted></_>
    <_>
      <rects>
        <_>
          0 7 1 3 -1.</_>
        <_>
          0 8 1 1 3.</_></rects>
      <tilted>0</tilted></_>
    <_>
      <rects>
        <_>
          0 7 18 14 -1.</_>
        <_>
          0 14 18 7 2.</_></rects>
      <tilted>0</tilted></_>
    <_>
      <rects>
        <_>
          0 15 14 9 -1.</_>
        <_>
          7 15 7 9 2.</_></rects>
      <tilted>0</tilted></_>
    <_>
      <rects>
        <_>
          1 0 6 1 -1.</_>
        <_>
          4 0 3 1 2.</_></rects>
      <tilted>0</tilted></_>
    <_>
      <rects>
        <_>
          1 0 12 8 -1.</_>
        <_>
          7 0 6 8 2.</_></rects>
      <tilted>0</tilted></_>
    <_>
      <rects>
        <_>
          1 7 1 3 -1.</_>
        <_>
          1 8 1 1 3.</_></rects>
      <tilted>0</tilted></_>
    <_>
      <rects>
        <_>
          1 8 2 1 -1.</_>
        <_>
          2 8 1 1 2.</_></rects>
      <tilted>0</tilted></_>
    <_>
      <rects>
        <_>
          1 8 1 3 -1.</_>
        <_>
          1 9 1 1 3.</_></rects>
      <tilted>0</tilted></_>
    <_>
      <rects>
        <_>
          1 8 7 12 -1.</_>
        <_>
          1 14 7 6 2.</_></rects>
      <tilted>0</tilted></_>
    <_>
      <rects>
        <_>
          1 14 3 7 -1.</_>
        <_>
          2 14 1 7 3.</_></rects>
      <tilted>0</tilted></_>
    <_>
      <rects>
        <_>
          1 17 2 4 -1.</_>
        <_>
          1 17 1 2 2.</_>
        <_>
          2 19 1 2 2.</_></rects>
      <tilted>0</tilted></_>
    <_>
      <rects>
        <_>
          1 20 2 4 -1.</_>
        <_>
          1 20 1 2 2.</_>
        <_>
          2 22 1 2 2.</_></rects>
      <tilted>0</tilted></_>
    <_>
      <rects>
        <_>
          1 22 21 2 -1.</_>
        <_>
          1 23 21 1 2.</_></rects>
      <tilted>0</tilted></_>
    <_>
      <rects>
        <_>
          2 0 9 1 -1.</_>
        <_>
          5 0 3 1 3.</_></rects>
      <tilted>0</tilted></_>
    <_>
      <rects>
        <_>
          2 0 18 8 -1.</_>
        <_>
          2 4 18 4 2.</_></rects>
      <tilted>0</tilted></_>
    <_>
      <rects>
        <_>
          2 7 9 13 -1.</_>
        <_>
          5 7 3 13 3.</_></rects>
      <tilted>0</tilted></_>
    <_>
      <rects>
        <_>
          2 17 21 7 -1.</_>
        <_>
          9 17 7 7 3.</_></rects>
      <tilted>0</tilted></_>
    <_>
      <rects>
        <_>
          2 22 10 2 -1.</_>
        <_>
          2 23 10 1 2.</_></rects>
      <tilted>0</tilted></_>
    <_>
      <rects>
        <_>
          3 0 3 8 -1.</_>
        <_>
          4 0 1 8 3.</_></rects>
      <tilted>0</tilted></_>
    <_>
      <rects>
        <_>
          3 0 6 18 -1.</_>
        <_>
          3 0 3 9 2.</_>
        <_>
          6 9 3 9 2.</_></rects>
      <tilted>0</tilted></_>
    <_>
      <rects>
        <_>
          3 1 2 9 -1.</_>
        <_>
          3 4 2 3 3.</_></rects>
      <tilted>0</tilted></_>
    <_>
      <rects>
        <_>
          3 2 3 9 -1.</_>
        <_>
          3 5 3 3 3.</_></rects>
      <tilted>0</tilted></_>
    <_>
      <rects>
        <_>
          4 0 15 12 -1.</_>
        <_>
          4 6 15 6 2.</_></rects>
      <tilted>0</tilted></_>
    <_>
      <rects>
        <_>
          4 2 6 5 -1.</_>
        <_>
          6 2 2 5 3.</_></rects>
      <tilted>0</tilted></_>
    <_>
      <rects>
        <_>
          4 3 13 6 -1.</_>
        <_>
          4 5 13 2 3.</_></rects>
      <tilted>0</tilted></_>
    <_>
      <rects>
        <_>
          4 6 5 4 -1.</_>
        <_>
          4 8 5 2 2.</_></rects>
      <tilted>0</tilted></_>
    <_>
      <rects>
        <_>
          4 22 16 2 -1.</_>
        <_>
          4 23 16 1 2.</_></rects>
      <tilted>0</tilted></_>
    <_>
      <rects>
        <_>
          5 3 7 6 -1.</_>
        <_>
          5 6 7 3 2.</_></rects>
      <tilted>0</tilted></_>
    <_>
      <rects>
        <_>
          5 22 15 2 -1.</_>
        <_>
          5 23 15 1 2.</_></rects>
      <tilted>0</tilted></_>
    <_>
      <rects>
        <_>
          6 0 15 8 -1.</_>
        <_>
          6 4 15 4 2.</_></rects>
      <tilted>0</tilted></_>
    <_>
      <rects>
        <_>
          6 3 14 4 -1.</_>
        <_>
          6 5 14 2 2.</_></rects>
      <tilted>0</tilted></_>
    <_>
      <rects>
        <_>
          8 4 2 8 -1.</_>
        <_>
          8 4 1 4 2.</_>
        <_>
          9 8 1 4 2.</_></rects>
      <tilted>0</tilted></_>
    <_>
      <rects>
        <_>
          9 0 3 2 -1.</_>
        <_>
          9 1 3 1 2.</_></rects>
      <tilted>0</tilted></_>
    <_>
      <rects>
        <_>
          9 0 12 2 -1.</_>
        <_>
          15 0 6 2 2.</_></rects>
      <tilted>0</tilted></_>
    <_>
      <rects>
        <_>
          9 2 7 18 -1.</_>
        <_>
          9 8 7 6 3.</_></rects>
      <tilted>0</tilted></_>
    <_>
      <rects>
        <_>
          9 4 9 6 -1.</_>
        <_>
          9 7 9 3 2.</_></rects>
      <tilted>0</tilted></_>
    <_>
      <rects>
        <_>
          9 8 14 16 -1.</_>
        <_>
          9 8 7 8 2.</_>
        <_>
          16 16 7 8 2.</_></rects>
      <tilted>0</tilted></_>
    <_>
      <rects>
        <_>
          9 22 4 2 -1.</_>
        <_>
          9 23 4 1 2.</_></rects>
      <tilted>0</tilted></_>
    <_>
      <rects>
        <_>
          10 0 10 14 -1.</_>
        <_>
          10 0 5 7 2.</_>
        <_>
          15 7 5 7 2.</_></rects>
      <tilted>0</tilted></_>
    <_>
      <rects>
        <_>
          10 0 14 22 -1.</_>
        <_>
          17 0 7 22 2.</_></rects>
      <tilted>0</tilted></_>
    <_>
      <rects>
        <_>
          10 4 4 2 -1.</_>
        <_>
          10 5 4 1 2.</_></rects>
      <tilted>0</tilted></_>
    <_>
      <rects>
        <_>
          10 5 5 9 -1.</_>
        <_>
          10 8 5 3 3.</_></rects>
      <tilted>0</tilted></_>
    <_>
      <rects>
        <_>
          10 22 12 2 -1.</_>
        <_>
          10 23 12 1 2.</_></rects>
      <tilted>0</tilted></_>
    <_>
      <rects>
        <_>
          11 0 1 2 -1.</_>
        <_>
          11 1 1 1 2.</_></rects>
      <tilted>0</tilted></_>
    <_>
      <rects>
        <_>
          11 0 12 1 -1.</_>
        <_>
          15 0 4 1 3.</_></rects>
      <tilted>0</tilted></_>
    <_>
      <rects>
        <_>
          11 1 12 23 -1.</_>
        <_>
          17 1 6 23 2.</_></rects>
      <tilted>0</tilted></_>
    <_>
      <rects>
        <_>
          11 2 3 3 -1.</_>
        <_>
          11 3 3 1 3.</_></rects>
      <tilted>0</tilted></_>
    <_>
      <rects>
        <_>
          11 2 4 3 -1.</_>
        <_>
          11 3 4 1 3.</_></rects>
      <tilted>0</tilted></_>
    <_>
      <rects>
        <_>
          11 8 8 16 -1.</_>
        <_>
          11 8 4 8 2.</_>
        <_>
          15 16 4 8 2.</_></rects>
      <tilted>0</tilted></_>
    <_>
      <rects>
        <_>
          11 22 3 2 -1.</_>
        <_>
          11 23 3 1 2.</_></rects>
      <tilted>0</tilted></_>
    <_>
      <rects>
        <_>
          12 0 12 1 -1.</_>
        <_>
          16 0 4 1 3.</_></rects>
      <tilted>0</tilted></_>
    <_>
      <rects>
        <_>
          12 4 12 20 -1.</_>
        <_>
          18 4 6 20 2.</_></rects>
      <tilted>0</tilted></_>
    <_>
      <rects>
        <_>
          12 13 10 11 -1.</_>
        <_>
          17 13 5 11 2.</_></rects>
      <tilted>0</tilted></_>
    <_>
      <rects>
        <_>
          12 15 1 9 -1.</_>
        <_>
          12 18 1 3 3.</_></rects>
      <tilted>0</tilted></_>
    <_>
      <rects>
        <_>
          13 0 3 2 -1.</_>
        <_>
          13 1 3 1 2.</_></rects>
      <tilted>0</tilted></_>
    <_>
      <rects>
        <_>
          14 0 9 4 -1.</_>
        <_>
          14 2 9 2 2.</_></rects>
      <tilted>0</tilted></_>
    <_>
      <rects>
        <_>
          14 3 6 21 -1.</_>
        <_>
          14 10 6 7 3.</_></rects>
      <tilted>0</tilted></_>
    <_>
      <rects>
        <_>
          15 22 4 2 -1.</_>
        <_>
          15 23 4 1 2.</_></rects>
      <tilted>0</tilted></_>
    <_>
      <rects>
        <_>
          16 4 8 12 -1.</_>
        <_>
          16 8 8 4 3.</_></rects>
      <tilted>0</tilted></_>
    <_>
      <rects>
        <_>
          17 4 6 3 -1.</_>
        <_>
          19 4 2 3 3.</_></rects>
      <tilted>0</tilted></_>
    <_>
      <rects>
        <_>
          17 8 6 2 -1.</_>
        <_>
          17 9 6 1 2.</_></rects>
      <tilted>0</tilted></_>
    <_>
      <rects>
        <_>
          18 0 6 1 -1.</_>
        <_>
          20 0 2 1 3.</_></rects>
      <tilted>0</tilted></_>
    <_>
      <rects>
        <_>
          18 0 6 7 -1.</_>
        <_>
          20 0 2 7 3.</_></rects>
      <tilted>0</tilted></_>
    <_>
      <rects>
        <_>
          18 0 6 4 -1.</_>
        <_>
          18 0 3 2 2.</_>
        <_>
          21 2 3 2 2.</_></rects>
      <tilted>0</tilted></_>
    <_>
      <rects>
        <_>
          18 0 3 9 -1.</_>
        <_>
          18 3 3 3 3.</_></rects>
      <tilted>0</tilted></_>
    <_>
      <rects>
        <_>
          18 0 5 12 -1.</_>
        <_>
          18 4 5 4 3.</_></rects>
      <tilted>0</tilted></_>
    <_>
      <rects>
        <_>
          18 1 4 6 -1.</_>
        <_>
          18 3 4 2 3.</_></rects>
      <tilted>0</tilted></_>
    <_>
      <rects>
        <_>
          18 2 3 4 -1.</_>
        <_>
          19 2 1 4 3.</_></rects>
      <tilted>0</tilted></_>
    <_>
      <rects>
        <_>
          18 4 6 6 -1.</_>
        <_>
          18 6 6 2 3.</_></rects>
      <tilted>0</tilted></_>
    <_>
      <rects>
        <_>
          18 21 3 1 -1.</_>
        <_>
          19 21 1 1 3.</_></rects>
      <tilted>0</tilted></_>
    <_>
      <rects>
        <_>
          18 22 6 2 -1.</_>
        <_>
          20 22 2 2 3.</_></rects>
      <tilted>0</tilted></_>
    <_>
      <rects>
        <_>
          19 2 4 3 -1.</_>
        <_>
          21 2 2 3 2.</_></rects>
      <tilted>0</tilted></_>
    <_>
      <rects>
        <_>
          20 0 4 4 -1.</_>
        <_>
          22 0 2 4 2.</_></rects>
      <tilted>0</tilted></_>
    <_>
      <rects>
        <_>
          20 1 4 6 -1.</_>
        <_>
          20 1 2 3 2.</_>
        <_>
          22 4 2 3 2.</_></rects>
      <tilted>0</tilted></_>
    <_>
      <rects>
        <_>
          20 6 3 16 -1.</_>
        <_>
          21 6 1 16 3.</_></rects>
      <tilted>0</tilted></_>
    <_>
      <rects>
        <_>
          21 0 2 4 -1.</_>
        <_>
          22 0 1 4 2.</_></rects>
      <tilted>0</tilted></_>
    <_>
      <rects>
        <_>
          21 0 3 5 -1.</_>
        <_>
          22 0 1 5 3.</_></rects>
      <tilted>0</tilted></_>
    <_>
      <rects>
        <_>
          21 5 2 8 -1.</_>
        <_>
          21 5 1 4 2.</_>
        <_>
          22 9 1 4 2.</_></rects>
      <tilted>0</tilted></_>
    <_>
      <rects>
        <_>
          21 5 2 6 -1.</_>
        <_>
          22 5 1 6 2.</_></rects>
      <tilted>0</tilted></_>
    <_>
      <rects>
        <_>
          21 5 3 15 -1.</_>
        <_>
          21 10 3 5 3.</_></rects>
      <tilted>0</tilted></_>
    <_>
      <rects>
        <_>
          21 7 3 4 -1.</_>
        <_>
          22 7 1 4 3.</_></rects>
      <tilted>0</tilted></_>
    <_>
      <rects>
        <_>
          21 14 1 4 -1.</_>
        <_>
          21 16 1 2 2.</_></rects>
      <tilted>0</tilted></_>
    <_>
      <rects>
        <_>
          21 16 3 8 -1.</_>
        <_>
          22 16 1 8 3.</_></rects>
      <tilted>0</tilted></_>
    <_>
      <rects>
        <_>
          21 17 3 7 -1.</_>
        <_>
          22 17 1 7 3.</_></rects>
      <tilted>0</tilted></_>
    <_>
      <rects>
        <_>
          21 23 3 1 -1.</_>
        <_>
          22 23 1 1 3.</_></rects>
      <tilted>0</tilted></_>
    <_>
      <rects>
        <_>
          22 0 2 2 -1.</_>
        <_>
          23 0 1 2 2.</_></rects>
      <tilted>0</tilted></_>
    <_>
      <rects>
        <_>
          22 0 1 6 -1.</_>
        <_>
          22 2 1 2 3.</_></rects>
      <tilted>0</tilted></_>
    <_>
      <rects>
        <_>
          22 0 2 5 -1.</_>
        <_>
          23 0 1 5 2.</_></rects>
      <tilted>0</tilted></_>
    <_>
      <rects>
        <_>
          22 0 2 7 -1.</_>
        <_>
          23 0 1 7 2.</_></rects>
      <tilted>0</tilted></_>
    <_>
      <rects>
        <_>
          22 0 2 24 -1.</_>
        <_>
          22 0 1 12 2.</_>
        <_>
          23 12 1 12 2.</_></rects>
      <tilted>0</tilted></_>
    <_>
      <rects>
        <_>
          22 0 2 9 -1.</_>
        <_>
          22 3 2 3 3.</_></rects>
      <tilted>0</tilted></_>
    <_>
      <rects>
        <_>
          22 1 1 12 -1.</_>
        <_>
          22 5 1 4 3.</_></rects>
      <tilted>0</tilted></_>
    <_>
      <rects>
        <_>
          22 2 1 12 -1.</_>
        <_>
          22 6 1 4 3.</_></rects>
      <tilted>0</tilted></_>
    <_>
      <rects>
        <_>
          22 10 2 2 -1.</_>
        <_>
          23 10 1 2 2.</_></rects>
      <tilted>0</tilted></_>
    <_>
      <rects>
        <_>
          22 15 1 4 -1.</_>
        <_>
          22 17 1 2 2.</_></rects>
      <tilted>0</tilted></_>
    <_>
      <rects>
        <_>
          22 18 2 4 -1.</_>
        <_>
          22 18 1 2 2.</_>
        <_>
          23 20 1 2 2.</_></rects>
      <tilted>0</tilted></_>
    <_>
      <rects>
        <_>
          22 22 2 2 -1.</_>
        <_>
          23 22 1 2 2.</_></rects>
      <tilted>0</tilted></_>
    <_>
      <rects>
        <_>
          23 0 1 9 -1.</_>
        <_>
          23 3 1 3 3.</_></rects>
      <tilted>0</tilted></_>
    <_>
      <rects>
        <_>
          23 2 1 6 -1.</_>
        <_>
          23 4 1 2 3.</_></rects>
      <tilted>0</tilted></_>
    <_>
      <rects>
        <_>
          23 3 1 12 -1.</_>
        <_>
          23 7 1 4 3.</_></rects>
      <tilted>0</tilted></_>
    <_>
      <rects>
        <_>
          23 7 1 15 -1.</_>
        <_>
          23 12 1 5 3.</_></rects>
      <tilted>0</tilted></_>
    <_>
      <rects>
        <_>
          23 8 1 9 -1.</_>
        <_>
          23 11 1 3 3.</_></rects>
      <tilted>0</tilted></_></features></cascade>
</opencv_storage>
